SVM-light Version V6.02
2 # kernel type
3 # kernel parameter -d 
0.1 # kernel parameter -g 
1 # kernel parameter -s 
1 # kernel parameter -r 
empty# kernel parameter -u 
16 # highest feature index 
7805 # number of training documents 
4222 # number of support vectors plus 1 
0.86822795 # threshold b, each following line is a SV (starting with alpha*y)
-1 1:0 2:0 3:0.19972321 4:0 5:0 6:0.13462414 7:0.18329027 8:0.12513281 9:0 10:-0.035076991 11:0.8264057 12:-0.37482351 13:0.26161203 14:-1.0209237 15:0 16:0.67581546 #
-1 1:0 2:0 3:0.19972321 4:0 5:0 6:-0.37262985 7:0.72578514 8:-0.017502541 9:0 10:-0.040430024 11:-0.72366911 12:-0.70314753 13:-0.5834322 14:-0.32096002 15:0 16:-0.35143775 #
-1 1:0 2:0 3:0.19972321 4:0 5:0 6:0.55740362 7:0.18329027 8:-3.229022 9:0 10:-0.041465994 11:-0.37485451 12:0.5676775 13:0.97370905 14:0.39017254 15:0 16:0.34866071 #
-1 1:0 2:0 3:0.19972321 4:0 5:0 6:-0.44549385 7:0.18329027 8:-0.017502541 9:0 10:-0.042057127 11:-0.81541216 12:-0.56519574 13:-0.86426479 14:-0.088424668 15:0 16:-0.70375824 #
-1 1:0 2:0 3:0.19972321 4:0 5:0 6:0.55740362 7:-0.16521558 8:-0.28348675 9:0 10:-0.037416209 11:1.0576745 12:1.2023662 13:-1.2479532 14:1.6534897 15:0 16:0.90366995 #
-1 1:0 2:0 3:0.19972321 4:0 5:0 6:-0.69175577 7:0.18329027 8:-0.017502541 9:0 10:-0.039174218 11:-0.023650754 12:-0.040910989 13:-0.63174653 14:0.42603675 15:0 16:-0.79251975 #
3.567000000000000170530256582424 1:0 2:0 3:0.19972321 4:0 5:0 6:0.55740362 7:-0.65889186 8:-0.017502541 9:0 10:-0.039115898 11:-0.31847078 12:-0.45974696 13:-0.56792176 14:0.53177035 15:0 16:0.44568965 #
3.567000000000000170530256582424 1:0 2:0 3:0.19972321 4:0 5:0 6:0.55740362 7:-0.1203614 8:0.20339446 9:0 10:-0.037715524 11:-0.40400204 12:-0.81345892 13:-1.02385 14:-0.46662331 15:0 16:0.65228504 #
-0.47496609801386824312174894657801 1:0 2:0 3:-3.8136146 4:0 5:0 6:-1.3070036 7:-2.1290379 8:2.3816431 9:0 10:-0.038747787 11:1.3630068 12:1.6808704 13:0.69341528 14:-0.14948295 15:0 16:-0.56075865 #
-0.34010348769477882768796916934662 1:0 2:0 3:-1.8145396 4:0 5:0 6:0.55740362 7:-1.5218918 8:-0.017525373 9:0 10:-0.04034299 11:1.0500293 12:1.5569142 13:-1.4493254 14:-0.44673404 15:0 16:-0.20235112 #
-1 1:0 2:0 3:0.19972321 4:0 5:0 6:0.55740362 7:0.18329027 8:-0.36644074 9:0 10:-0.041482605 11:-0.60134512 12:-0.38478625 13:-0.8679629 14:0.31824771 15:0 16:1.31786 #
-1 1:0 2:0 3:0.19972321 4:0 5:0 6:0.55740362 7:0.18329027 8:0.14192717 9:0 10:-0.039244436 11:-0.45751879 12:-0.62448281 13:-0.95735711 14:-0.01875172 15:0 16:1.4255186 #
-1 1:0 2:0 3:0.19972321 4:0 5:0 6:0.55740362 7:0.18329027 8:-0.017502541 9:0 10:-0.037849694 11:-0.21669337 12:-0.56519574 13:-0.86426479 14:0.27602077 15:0 16:1.6206667 #
3.567000000000000170530256582424 1:0 2:0 3:2.3416398 4:0 5:0 6:-2.0333109 7:-0.14934604 8:-0.017502541 9:0 10:-0.041079555 11:-1.0557598 12:-1.1204308 13:-0.98136234 14:0.099193543 15:0 16:-0.79251975 #
3.567000000000000170530256582424 1:0 2:0 3:2.1584747 4:0 5:0 6:-0.078515314 7:-0.022976793 8:-2.6737351 9:0 10:-0.039175417 11:-0.72223562 12:-1.0002388 13:-0.75699085 14:-0.46021521 15:0 16:-0.68286252 #
3.567000000000000170530256582424 1:0 2:0 3:1.9288868 4:0 5:0 6:-2.1155608 7:1.6353278 8:1.3531656 9:0 10:-0.042060744 11:-0.018872472 12:0.56802338 13:-0.77670348 14:2.1514473 15:0 16:-0.52532673 #
-1 1:0 2:0 3:0.19972321 4:0 5:0 6:0.55740362 7:-1.2364767 8:1.309835 9:0 10:-0.041430205 11:-0.86128366 12:-0.82368046 13:-1.0760165 14:-0.23133732 15:0 16:-0.68604231 #
-0.20007694884564683479588609316124 1:0 2:1 3:-4.305263 4:0 5:0 6:-1.9575984 7:0.11051992 8:-0.16194014 9:0 10:-0.042775657 11:-1.260748 12:-1.3298479 13:-1.3985291 14:1.5955976 15:0 16:-0.13975473 #
-1 1:0 2:0 3:0.19972321 4:0 5:0 6:0.55740362 7:-1.0492607 8:-0.017502541 9:0 10:-0.040129934 11:-0.86940676 12:-1.0002388 13:-0.75699085 14:-0.51812989 15:0 16:-0.42711669 #
3.567000000000000170530256582424 1:0 2:0 3:0.19972321 4:0 5:0 6:0.55740362 7:0.18329027 8:0.53655767 9:0 10:-0.035501767 11:-0.2917124 12:-1.238009 13:-0.66524994 14:0.17309825 15:0 16:3.1466923 #
-1 1:0 2:0 3:0.19972321 4:0 5:0 6:0.55740362 7:-0.79624057 8:-2.012897 9:0 10:-0.040405001 11:-0.96927285 12:-1.1989038 13:-1.3919486 14:0.027132675 15:0 16:-0.58665121 #
-1 1:0 2:0 3:0.19972321 4:0 5:0 6:0.55740362 7:0.83290756 8:-0.017502541 9:0 10:-0.037661687 11:0.10679635 12:-0.22429863 13:-0.57301223 14:-0.20514575 15:0 16:1.0250471 #
-1 1:0 2:0 3:0.19972321 4:0 5:0 6:0.55740362 7:0.79335862 8:-0.017502541 9:0 10:-0.03691496 11:-0.016483331 12:-0.40421844 13:-1.0648949 14:-0.40613934 15:0 16:1.1590524 #
-1 1:0 2:0 3:0.19972321 4:0 5:0 6:0.55740362 7:0.5227142 8:-0.017502541 9:0 10:-0.034986895 11:0.34236568 12:-0.17671028 13:-1.1476769 14:-0.029965891 15:0 16:1.5316327 #
3.567000000000000170530256582424 1:0 2:0 3:0.19972321 4:1 5:0 6:0.55740362 7:-1.0676123 8:-1.2028408 9:1 10:-0.041557606 11:-0.99459773 12:-0.78307414 13:-0.5185501 14:-1.2719277 15:0 16:-0.79251975 #
3.567000000000000170530256582424 1:0 2:0 3:0.19972321 4:0 5:0 6:0.55740362 7:-3.570617 8:1.7443482 9:0 10:-0.041129529 11:-0.66155148 12:-0.62180626 13:-1.154174 14:-0.0890292 15:0 16:-0.44165286 #
3.567000000000000170530256582424 1:0 2:0 3:0.19972321 4:0 5:0 6:0.55740362 7:0.18329027 8:-1.2584723 9:1 10:-0.038723193 11:-0.82114607 12:-1.238009 13:-0.66524994 14:-1.3448954 15:0 16:-0.55294544 #
-1 1:0 2:0 3:0.19972321 4:0 5:0 6:0.55740362 7:-0.60851288 8:-0.017502541 9:0 10:-0.041725989 11:-0.53492695 12:0.4083809 13:0.81206793 14:-0.37207365 15:0 16:0.1763162 #
-1 1:0 2:0 3:0.19972321 4:0 5:0 6:0.55740362 7:0.18329027 8:-0.017502541 9:0 10:-0.041993983 11:0.69356942 12:2.2108548 13:0.79946297 14:-0.85171372 15:0 16:0.65519226 #
-1 1:0 2:0 3:0.19972321 4:0 5:0 6:0.55740362 7:-0.25737426 8:-0.017502541 9:0 10:-0.042235378 11:0.6147278 12:2.2108548 13:0.79946297 14:-0.079810008 15:0 16:0.32985452 #
3.2742208345591605755942055111518 1:0 2:0 3:0.19972321 4:0 5:0 6:0.16799074 7:1.071079 8:0.84183747 9:0 10:-0.029977661 11:0.61616129 12:-1.238009 13:-0.66524994 14:-0.34087953 15:0 16:1.6739055 #
-1 1:0 2:0 3:0.19972321 4:0 5:0 6:-0.23376504 7:-0.91960281 8:-0.017502541 9:0 10:-0.039753839 11:-0.38393325 12:-0.39362058 13:-0.53894186 14:-0.18412295 15:0 16:-0.79251975 #
-1 1:0 2:0 3:0.19972321 4:0 5:0 6:-0.11030854 7:0.18329027 8:-1.0593997 9:0 10:-0.041608881 11:-0.95493799 12:-0.93282139 13:-1.1020589 14:0.90470952 15:0 16:-0.73337573 #
-1 1:0 2:0 3:0.19972321 4:0 5:0 6:0.55740362 7:0.90057099 8:-1.673735 9:0 10:-0.0394613 11:-0.88469726 12:-1.192946 13:-1.4259567 14:-0.064454757 15:0 16:1.5445335 #
-1 1:0 2:0 3:0.19972321 4:0 5:0 6:0.55740362 7:0.18329027 8:-0.017502541 9:0 10:-0.035173684 11:-0.54066092 12:-1.1891179 13:-1.4306651 14:0.06198426 15:0 16:2.6143959 #
-1 1:0 2:0 3:0.19972321 4:0 5:0 6:0.55740362 7:0.18329027 8:0.12927555 9:0 10:-0.036341533 11:-0.62858129 12:-1.1989038 13:-1.3919486 14:-0.31497508 15:0 16:1.9933379 #
3.567000000000000170530256582424 1:0 2:0 3:0.19972321 4:0 5:0 6:0.55740362 7:-0.90611351 8:-0.17862847 9:0 10:-0.040753622 11:0.54305357 12:1.4049681 13:0.62234551 14:-0.82354224 15:0 16:-0.45927799 #
-0.24189223477535745643329789800191 1:0 2:0 3:-2.0392129 4:0 5:1 6:-2.2519572 7:-2.7107456 8:-0.017502541 9:0 10:-0.042268846 11:-0.90524387 12:-0.83134097 13:-1.2542633 14:0.0052786451 15:0 16:-0.79251975 #
-1 1:0 2:0 3:0.19972321 4:0 5:0 6:0.55740362 7:0.47188565 8:-0.017502541 9:0 10:-0.036718473 11:2.8242056 12:2.7106631 13:0.96054995 14:-0.0071143736 15:0 16:1.255082 #
-1 1:0 2:0 3:0.19972321 4:0 5:0 6:0.55740362 7:0.18329027 8:-0.017502541 9:0 10:-0.033360265 11:3.6489372 12:2.5089247 13:0.67267227 14:-0.12696393 15:0 16:1.1749513 #
-0.093354866982153075771755368350568 1:0 2:0 3:0.19972321 4:0 5:0 6:0.55740362 7:-0.56104708 8:-0.93038154 9:1 10:-0.039749473 11:1.0791768 12:1.8227358 13:1.8018985 14:0.77134854 15:0 16:-0.78325295 #
-1 1:0 2:0 3:0.19972321 4:0 5:0 6:0.55740362 7:0.18329027 8:-0.017502541 9:0 10:-0.035566352 11:2.4596226 12:1.8169436 13:0.68292862 14:0.18385902 15:0 16:1.9756219 #
-1 1:0 2:0 3:0.19972321 4:0 5:0 6:0.55740362 7:0.049008075 8:1.7278295 9:0 10:-0.037868179 11:-0.48523283 12:-1.1169845 13:0.081239514 14:0.34158286 15:0 16:1.2476321 #
-1 1:0 2:0 3:0.19972321 4:0 5:0 6:0.55740362 7:0.18329027 8:1.7473427 9:0 10:-0.036835123 11:-0.51676953 12:-1.3289354 13:-0.43172479 14:0.28669083 15:0 16:4.7791953 #
-1 1:0 2:0 3:0.19972321 4:0 5:0 6:0.55740362 7:-0.16568898 8:1.737242 9:0 10:-0.036883686 11:-0.24201827 12:-1.1169845 13:0.081239514 14:0.26903835 15:0 16:1.0673836 #
3.2749984441304529347860352572752 1:0 2:0 3:0.19972321 4:0 5:0 6:0.55740362 7:0.18329027 8:-1.7235374 9:0 10:-0.041434392 11:0.24393307 12:1.6682124 13:1.7434305 14:0.66640085 15:0 16:0.94437128 #
3.567000000000000170530256582424 1:0 2:0 3:0.19972321 4:0 5:0 6:0.55740362 7:0.18329027 8:-0.017502541 9:0 10:-0.038215153 11:1.632024 12:1.6682124 13:1.7434305 14:-0.80552703 15:0 16:0.4318803 #
3.567000000000000170530256582424 1:0 2:0 3:0.19972321 4:0 5:0 6:0.55740362 7:0.18329027 8:-1.7992905 9:0 10:-0.039725509 11:0.20427331 12:0.59802216 13:1.6992751 14:0.097047433 15:0 16:-0.12394664 #
-1 1:0 2:0 3:0.19972321 4:0 5:0 6:0.55740362 7:0.18329027 8:-0.017502541 9:0 10:-0.039393555 11:1.2349489 12:1.8227358 13:1.8018985 14:-0.5443064 15:0 16:-0.18481687 #
3.567000000000000170530256582424 1:0 2:0 3:0.19972321 4:0 5:0 6:0.55740362 7:0.18329027 8:1.4601246 9:0 10:-0.037476841 11:-0.43219391 12:-0.83452582 13:-1.2515774 14:0.14952129 15:0 16:2.1729505 #
-1 1:0 2:0 3:0.19972321 4:0 5:0 6:0.55740362 7:0.18329027 8:-0.017502541 9:0 10:-0.041193888 11:0.44701007 12:1.8227358 13:1.8018985 14:-0.13702948 15:0 16:0.22337706 #
-1 1:0 2:0 3:0.19972321 4:0 5:0 6:0.55740362 7:0.18335639 8:-0.017504171 9:0 10:-0.041566182 11:0.28407064 12:1.8227358 13:1.8018985 14:-0.52665389 15:0 16:-0.42430031 #
-1 1:0 2:0 3:0.19972321 4:0 5:0 6:0.55740362 7:0.18329027 8:-2.1681888 9:0 10:-0.039374851 11:0.66776669 12:1.0543542 13:2.4860141 14:0.53311545 15:0 16:1.1060861 #
-1 1:0 2:0 3:0.19972321 4:0 5:0 6:0.55740362 7:0.18329027 8:-0.017502541 9:0 10:-0.039857846 11:0.41977385 12:1.0543542 13:2.4860141 14:-0.0065400628 15:0 16:0.82526547 #
-1 1:0 2:0 3:0.19972321 4:0 5:0 6:0.55740362 7:0.18329027 8:-1.138803 9:0 10:-0.039627764 11:0.62380654 12:1.0475026 13:0.71193302 14:-0.30545363 15:0 16:0.8887704 #
-1 1:0 2:0 3:0.19972321 4:0 5:0 6:0.55740362 7:0.18329027 8:-2.458612 9:0 10:-0.041119482 11:-0.92579049 12:-1.0147973 13:-1.2502806 14:0.93548048 15:0 16:-0.65006524 #
3.567000000000000170530256582424 1:0 2:0 3:0.19972321 4:0 5:0 6:0.55740362 7:0.56537724 8:-0.017502541 9:0 10:-0.02996006 11:5.0054917 12:1.6938961 13:1.5426884 14:-0.16326641 15:0 16:1.1075398 #
-1 1:0 2:0 3:-1.6620437 4:0 5:1 6:0.55740362 7:0.53946579 8:-0.017512325 9:0 10:-0.037544198 11:-0.21717119 12:-0.3906219 13:-1.8167824 14:0.3740465 15:0 16:0.5588901 #
-1 1:0 2:0 3:0.19972321 4:0 5:0 6:0.55740362 7:0.20000876 8:1.0769258 9:0 10:-0.03634714 11:0.30843988 12:0.10228234 13:-1.4238269 14:0.050256234 15:0 16:3.8742278 #
-1 1:0 2:0 3:0.19972321 4:0 5:0 6:0.55740362 7:-0.045122221 8:0.90656674 9:0 10:-0.034723505 11:0.22816473 12:-0.56519574 13:-0.86426479 14:-0.49249753 15:0 16:3.4484088 #
-1 1:0 2:0 3:0.19972321 4:0 5:0 6:0.55740362 7:0.18329027 8:0.78129494 9:0 10:-0.039591562 11:1.5942757 12:2.3046892 13:-0.21121584 14:1.0147958 15:0 16:3.6967957 #
-1 1:0 2:0 3:0.19972321 4:0 5:1 6:0.1408363 7:0.46420014 8:-0.017502541 9:0 10:-0.037614346 11:-0.42598215 12:-1.2580547 13:0.65894079 14:0.39405671 15:0 16:-0.65942293 #
-0.90082614186841281078699239515117 1:0 2:0 3:0.19972321 4:0 5:0 6:0.55740362 7:0.18329027 8:-0.017502541 9:0 10:-0.035665415 11:0.13355474 12:-0.40421844 13:-1.0648949 14:-0.099910878 15:1 16:-0.33117795 #
3.567000000000000170530256582424 1:0 2:0 3:0.19972321 4:0 5:0 6:0.55740362 7:0.18329027 8:-0.017502541 9:0 10:-0.038951542 11:1.3295588 12:1.695413 13:1.5428793 14:-0.65681082 15:0 16:0.15233152 #
-1 1:0 2:0 3:0.19972321 4:0 5:0 6:0.55740362 7:-0.22580309 8:-1.0564281 9:0 10:-0.035276402 11:2.547543 12:1.4421408 13:1.3093376 14:-0.59918326 15:0 16:-0.010564484 #
-1 1:0 2:0 3:0.19972321 4:0 5:0 6:0.55740362 7:0.18329027 8:-0.017502541 9:0 10:-0.041032419 11:0.47854674 12:1.695413 13:1.5428793 14:0.018215748 15:0 16:-0.71266168 #
-1 1:0 2:0 3:0.19972321 4:0 5:0 6:0.52702099 7:0.42950955 8:-0.017502541 9:0 10:-0.04139914 11:0.35717836 12:1.8227358 13:1.8018985 14:0.36340666 15:0 16:-0.74618572 #
-1 1:0 2:0 3:0.19972321 4:0 5:0 6:0.55740362 7:0.18329027 8:-0.017502541 9:0 10:-0.040606838 11:0.65152055 12:1.6938961 13:1.5426884 14:-0.0075980034 15:0 16:-0.60173249 #
-1 1:0 2:0 3:0.19972321 4:0 5:0 6:0.55740362 7:0.34591311 8:-0.017502541 9:0 10:-0.036234703 11:2.363579 12:2.1547346 13:0.27530316 14:0.3283737 15:0 16:0.51818883 #
-1 1:0 2:0 3:-1.4597628 4:0 5:0 6:0.55740362 7:1.6065152 8:-0.017502541 9:1 10:-0.038379837 11:2.2393439 12:2.7895026 13:0.1561119 14:-0.0089733312 15:0 16:-0.79251975 #
3.567000000000000170530256582424 1:0 2:0 3:0.19972321 4:0 5:0 6:0.55740362 7:0.18329027 8:-0.017502541 9:0 10:-0.041936517 11:0.10775201 12:1.6938961 13:1.5426884 14:-0.40786228 15:0 16:-0.73037761 #
-1 1:0 2:0 3:0.19972321 4:0 5:0 6:0.55740362 7:0.18329027 8:1.3703058 9:0 10:-0.040154856 11:-0.69834423 12:-0.75800782 13:-0.74356192 14:-0.041693918 15:0 16:3.0403059 #
-1 1:0 2:0 3:0.19972321 4:0 5:0 6:0.55740362 7:0.63811851 8:1.6696682 9:0 10:-0.039693728 11:-0.78387547 12:-1.0147973 13:-1.2502806 14:-0.61648816 15:0 16:3.5016475 #
-1 1:0 2:0 3:0.19972321 4:2 5:0 6:0.55740362 7:0.18329027 8:1.2239419 9:0 10:-0.040639702 11:-0.35574138 12:-0.10070372 13:-0.37297809 14:-0.10208721 15:0 16:-0.79251975 #
2.8799445470616538145236518175807 1:0 2:0 3:0.19972321 4:0 5:0 6:0.55740362 7:-0.077977374 8:-0.017502541 9:0 10:-0.040264163 11:0.74851966 12:1.6682124 13:1.7434305 14:0.43304938 15:0 16:-0.47326905 #
3.567000000000000170530256582424 1:0 2:0 3:0.19972321 4:0 5:0 6:0.18654585 7:0.18329027 8:-0.017502541 9:0 10:-0.04168782 11:0.46038926 12:2.3977208 13:2.4786394 14:0.0078781564 15:0 16:-0.75699699 #
-1 1:0 2:0 3:0.19972321 4:0 5:0 6:0.55740362 7:0.18329027 8:-0.017502541 9:0 10:-0.040697131 11:0.66442192 12:1.8227358 13:1.8018985 14:0.55661684 15:0 16:-0.79251975 #
-1 1:0 2:0 3:0.19972321 4:0 5:0 6:0.22170287 7:-0.0043184087 8:-0.017502541 9:0 10:-0.042087246 11:0.046112169 12:1.6938961 13:1.5426884 14:0.69106597 15:0 16:-0.65051949 #
-1 1:0 2:0 3:0.19972321 4:0 5:0 6:-0.46600211 7:0.18329027 8:-1.3746122 9:0 10:-0.041523006 11:0.023176413 12:1.0475026 13:0.71193302 14:0.99865466 15:0 16:-0.79251975 #
3.2274910708059585395801605045563 1:0 2:0 3:0.19972321 4:0 5:0 6:0.55740362 7:0.18329027 8:1.7619059 9:0 10:-0.040004689 11:-0.55786276 12:-0.62448281 13:-0.95735711 14:0.069556087 15:0 16:2.3272157 #
-1 1:0 2:0 3:0.19972321 4:0 5:0 6:0.55740362 7:0.18329027 8:1.4178623 9:0 10:-0.035440467 11:-0.36051968 12:-1.0147973 13:-1.2502806 14:-0.26760957 15:0 16:3.3951702 #
-1 1:0 2:0 3:0.19972321 4:0 5:0 6:0.55740362 7:0.16908424 8:0.94179457 9:0 10:-0.037583675 11:-0.23962912 12:-0.65821356 13:-0.82466215 14:-0.063336357 15:0 16:3.6258409 #
-1 1:0 2:0 3:0.19972321 4:0 5:0 6:0.55740362 7:0.18329027 8:1.5757312 9:0 10:-0.03777352 11:-0.59274417 12:-1.0147973 13:-1.2502806 14:0.36812204 15:0 16:3.8919439 #
-1 1:0 2:0 3:0.19972321 4:0 5:0 6:0.55740362 7:0.18329027 8:1.0867426 9:0 10:-0.039693728 11:-0.78387547 12:-1.0147973 13:-1.2502806 14:0.62021416 15:0 16:3.5016475 #
-1 1:0 2:0 3:0.19972321 4:0 5:0 6:0.55740362 7:0.19515441 8:-1.0167313 9:0 10:-0.038187757 11:-0.69308811 12:-1.1360897 13:-0.98060095 14:-1.1659523 15:0 16:-0.77480382 #
-1 1:0 2:0 3:0.19972321 4:0 5:0 6:0.55740362 7:0.18329027 8:-0.017502541 9:0 10:-0.0338943 11:3.6417696 12:1.8227358 13:1.8018985 14:0.70926255 15:0 16:0.72169524 #
-1 1:0 2:0 3:0.19972321 4:0 5:0 6:0.55740362 7:0.18329027 8:-0.017502541 9:0 10:-0.0338943 11:3.6417696 12:1.8227358 13:1.8018985 14:0.8215856 15:0 16:0.72169524 #
-1 1:0 2:0 3:0.19972321 4:0 5:0 6:0.55740362 7:0.18329027 8:0.36408001 9:0 10:-0.034998082 11:3.1586854 12:1.8227358 13:1.8018985 14:-0.35266799 15:0 16:-0.24241646 #
0.80735836052588794142792494312744 1:0 2:0 3:0.19972321 4:0 5:0 6:0.55740362 7:0.43374506 8:1.1383066 9:0 10:-0.040309854 11:-1.0447698 12:-1.3568732 13:-1.6407719 14:-0.1574024 15:0 16:4.8324342 #
3.567000000000000170530256582424 1:0 2:0 3:0.19972321 4:0 5:0 6:0.55740362 7:0.52794677 8:0.45689502 9:0 10:-0.040735312 11:-0.68878764 12:-0.75886822 13:-1.3216455 14:0.22267033 15:0 16:2.7031574 #
-1 1:0 2:0 3:0.19972321 4:0 5:0 6:0.55740362 7:0.18329027 8:1.0930122 9:0 10:-0.037858725 11:-0.78196418 12:-1.2851435 13:-1.1389784 14:0.52518088 15:0 16:4.5308084 #
-1 1:0 2:0 3:0.19972321 4:0 5:0 6:0.55740362 7:0.18329027 8:1.0942746 9:0 10:-0.03898631 11:-1.0839516 12:-1.5138996 13:-1.6070154 14:0.47059116 15:0 16:3.2354538 #
-1 1:0 2:0 3:0.19972321 4:0 5:0 6:0.55740362 7:0.91959167 8:1.1002326 9:0 10:-0.038560804 11:-0.67110801 12:-1.0147973 13:-1.2502806 14:0.34756777 15:0 16:5.4534922 #
3.567000000000000170530256582424 1:0 2:0 3:0.19972321 4:0 5:0 6:0.55740362 7:0.18329027 8:-0.017502541 9:0 10:-0.035562593 11:2.2015953 12:1.1364127 13:1.2750198 14:1.3696593 15:0 16:0.38745412 #
3.567000000000000170530256582424 1:0 2:0 3:0.19972321 4:0 5:0 6:0.33650574 7:0.18329027 8:-0.017499277 9:0 10:-0.035859488 11:2.7816789 12:1.8227358 13:1.8018985 14:0.51744282 15:0 16:-0.54413289 #
-0.3199581320685978003126592739136 1:0 2:0 3:2.2020383 4:0 5:0 6:-0.050221503 7:-3.6428862 8:-0.017502541 9:0 10:-0.039096277 11:-0.8622393 12:-1.2022746 13:-1.4231784 14:1.0616173 15:0 16:-0.2551356 #
-1 1:0 2:0 3:0.19972321 4:0 5:0 6:0.55740362 7:-0.22580309 8:-0.017502541 9:0 10:-0.035276402 11:2.547543 12:1.4421408 13:1.3093376 14:0.35879707 15:0 16:-0.010564484 #
-1 1:0 2:0 3:0.19972321 4:0 5:0 6:0.55740362 7:0.18329027 8:-0.017502541 9:0 10:-0.036725264 11:2.402761 12:1.8227358 13:1.8018985 14:0.2480609 15:0 16:-0.23060581 #
-1 1:0 2:0 3:0.19972321 4:0 5:0 6:0.55740362 7:-0.33963645 8:-0.017500909 9:0 10:-0.037112396 11:1.8441799 12:1.4421408 13:1.3093376 14:-0.45723787 15:0 16:-0.00020746018 #
2.6480873150906019120043310977053 1:0 2:0 3:0.19972321 4:0 5:0 6:0.55740362 7:0.18329027 8:1.1224468 9:0 10:-0.037491668 11:-0.66202927 12:-1.0824997 13:-1.5093967 14:0.41110465 15:0 16:5.2583442 #
3.0092966941481282816539533087052 1:0 2:0 3:0.19972321 4:0 5:0 6:0.55740362 7:0.27395865 8:1.5378431 9:0 10:-0.032572605 11:0.19137196 12:-0.82368046 13:-1.0760165 14:0.11530447 15:0 16:5.4179697 #
-1 1:0 2:0 3:0.19972321 4:0 5:0 6:0.55740362 7:0.18329027 8:1.2300255 9:0 10:-0.03956484 11:-0.035118632 12:0.023565991 13:-0.79513949 14:-0.2890102 15:0 16:5.5776858 #
-1 1:0 2:0 3:0.19972321 4:0 5:1 6:0.55740362 7:0.20056944 8:1.0153003 9:0 10:-0.03582171 11:-0.1851567 12:-0.63916892 13:-1.4127991 14:0.33176666 15:0 16:4.9744344 #
3.228806731067903612597547180485 1:0 2:0 3:0.19972321 4:0 5:0 6:0.55740362 7:0.18329027 8:0.05750037 9:0 10:-0.033185102 11:3.1749315 12:1.4268733 13:1.063807 14:-0.44479951 15:0 16:0.34093836 #
-0.032769483622452202919994590502029 1:0 2:0 3:0.19972321 4:0 5:0 6:0.33569193 7:0.18329027 8:-0.017502541 9:0 10:-0.022994209 11:5.964015 12:-0.51406443 13:1.3850293 14:-0.68649358 15:0 16:-0.12839834 #
-1 1:0 2:0 3:0.19972321 4:0 5:0 6:0.55740362 7:0.18329027 8:0.75014943 9:0 10:-0.039282285 11:-0.8703624 12:-1.192946 13:-1.4259567 14:0.21311863 15:0 16:0.68026716 #
-1 1:0 2:0 3:0.19972321 4:0 5:0 6:0.55740362 7:0.18329027 8:-0.017502541 9:0 10:-0.037712779 11:2.286171 12:2.5438178 13:0.50035042 14:0.23953693 15:0 16:1.0757419 #
-1 1:0 2:0 3:0.19972321 4:0 5:0 6:0.55740362 7:0.50483465 8:-0.017502541 9:0 10:-0.03579108 11:2.2871265 12:1.7165257 13:0.60566896 14:-0.26664233 15:0 16:0.78038508 #
3.4678390647290191495244471298065 1:0 2:0 3:0.19972321 4:0 5:0 6:0.55740362 7:0.18329027 8:1.3587942 9:0 14:0.010114945 15:0 16:3.9807053 #
-1 1:0 2:0 3:0.19972321 4:0 5:0 6:0.55740362 7:0.73386997 8:2.1802738 9:0 10:-0.034709673 11:0.29506069 12:-1.1169845 13:0.081239514 14:-0.13291863 15:0 16:5.080821 #
-1 1:0 2:0 3:0.19972321 4:0 5:0 6:0.55740362 7:0.18329027 8:1.1251526 9:0 14:0.53678799 15:0 16:4.4243312 #
-1 1:0 2:0 3:0.19972321 4:0 5:0 6:0.55740362 7:0.18329027 8:1.200803 9:1 10:-0.037390392 11:0.35287791 12:-0.22791268 13:0.45101389 14:0.23597015 15:0 16:4.2468991 #
-1 1:0 2:0 3:0.19972321 4:0 5:0 6:-0.56892323 7:0.18329027 8:-0.017502541 9:0 10:-0.039894655 11:-0.75616145 12:-0.93282139 13:-1.1020589 14:0.9059186 15:0 16:-0.34889391 #
-1 1:0 2:0 3:0.19972321 4:0 5:0 6:0.44119009 7:0.132586 8:-0.017500909 9:0 10:-0.037112396 11:1.8441799 12:1.4421408 13:1.3093376 14:-0.84556252 15:0 16:-0.00020746018 #
-1 1:0 2:0 3:0.19972321 4:0 5:0 6:0.55740362 7:0.18329027 8:0.3630574 9:0 10:-0.041285899 11:0.9248383 12:2.2108548 13:0.79946297 14:-0.75071061 15:0 16:0.48066732 #
0.65683700291613689170588941124151 1:0 2:0 3:0.19972321 4:0 5:0 6:0.55740362 7:0.18329027 8:3.1990142 9:0 10:-0.037788562 11:0.37724715 12:0.13188691 13:-0.35502899 14:0.6023199 15:0 16:4.7614794 #
3.567000000000000170530256582424 1:0 2:0 3:0.19972321 4:0 5:0 6:0.55740362 7:0.18329027 8:1.6161145 9:0 10:-0.037854664 11:0.88326722 12:0.7869963 13:-0.064769879 14:0.061289042 15:0 16:5.914834 #
-1 1:0 2:0 3:0.19972321 4:0 5:0 6:0.55740362 7:0.18329027 8:1.1498312 9:0 10:-0.03956484 11:-0.035118632 12:0.023565991 13:-0.79513949 14:0.064644225 15:0 16:5.5776858 #
-1 1:0 2:0 3:0.19972321 4:0 5:0 6:-0.41844791 7:-0.21380275 8:-0.67581755 9:0 10:-0.037583653 11:-0.37772149 12:-0.81085747 13:-0.97846657 14:0.46956342 15:0 16:-0.79251975 #
-1 1:0 2:0 3:0.19972321 4:0 5:0 6:0.55740362 7:0.31904557 8:1.0318972 9:0 10:-0.039985504 11:0.32134125 12:0.74537539 13:0.37187549 14:0.40907946 15:0 16:5.329299 #
-1 1:0 2:0 3:0.19972321 4:0 5:0 6:0.55740362 7:0.18329027 8:1.6940467 9:0 10:-0.039998174 11:-0.080990143 12:0.2651858 13:0.90457088 14:0.042941332 15:0 16:3.8742278 #
-1 1:0 2:0 3:0.19972321 4:0 5:0 6:0.55740362 7:0.18329027 8:0.96600991 9:0 10:-0.036967229 11:0.3968381 12:-0.21341489 13:0.087693751 14:0.18005043 15:0 16:5.950357 #
3.567000000000000170530256582424 1:0 2:0 3:0.19972321 4:0 5:0 6:0.50369149 7:0.18329027 8:0.049552534 9:0 10:-0.038479764 11:1.4666955 12:1.7165257 13:0.60566896 14:-0.52683526 15:0 16:-0.29819903 #
0.36756399788693322472354907404224 1:0 2:0 3:0.19972321 4:0 5:0 6:0.55740362 7:2.7067158 8:-0.017502541 9:0 10:-0.028953977 11:0.6214174 12:-0.82368046 13:-1.0760165 14:0.26498795 15:0 16:1.1354311 #
-1 1:0 2:0 3:0.19972321 4:0 5:0 6:0.55740362 7:0.18329027 8:-0.017502541 9:0 10:-0.039877042 11:1.3849869 12:2.2108548 13:0.79946297 14:-0.68845832 15:0 16:-0.10641238 #
3.567000000000000170530256582424 1:0 2:0 3:0.19972321 4:0 5:0 6:0.55740362 7:0.23444545 8:1.0689257 9:0 10:-0.039487563 11:-0.30461377 12:-0.33025885 13:-0.1382398 14:-0.15076759 15:0 16:5.5599699 #
-1 1:0 2:0 3:0.19972321 4:0 5:0 6:0.55740362 7:0.18329027 8:-0.017502541 9:0 10:-0.039742447 11:1.4289471 12:2.2108548 13:0.79946297 14:-0.43307149 15:0 16:-0.77035213 #
-1 1:0 2:0 3:0.19972321 4:0 5:0 6:0.55740362 7:0.18329027 8:-0.017502541 9:0 10:-0.037710514 11:1.6812404 12:1.8202695 13:0.011714069 14:-0.38041627 15:0 16:-0.76144868 #
2.6198555115480699484464821580332 1:0 2:0 3:0.19972321 4:0 5:0 6:0.55740362 7:0.18329027 8:1.1825701 9:0 10:-0.038965192 11:-0.50339031 12:-0.79643965 13:0.95864832 14:-0.0072957347 15:0 16:5.5954018 #
-1 1:0 2:0 3:2.2202213 4:0 5:0 6:0.55740362 7:-0.27040207 8:-0.017502541 9:0 10:-0.037580032 11:-0.19566892 12:-0.75365108 13:-0.18170306 14:-0.78300804 15:0 16:-0.72710699 #
-0.088213414541035373162003452307545 1:0 2:0 3:0.19972321 4:0 5:0 6:-4.1434917 7:0.18329027 8:5.9208632 9:0 10:-0.040110204 11:1.1068909 12:1.8202695 13:0.011714069 14:2.082953 15:0 16:-0.79251975 #
3.567000000000000170530256582424 1:0 2:0 3:0.19972321 4:0 5:0 6:0.15955415 7:0.18329027 8:-0.017502541 9:0 10:-0.03970756 11:1.6649942 12:2.5089247 13:0.67267227 14:-0.410492 15:0 16:-0.79251975 #
-1 1:0 2:0 3:0.19972321 4:0 5:0 6:0.55740362 7:0.18329027 8:1.1734121 9:0 10:-0.03959677 11:-0.20904811 12:-0.15151952 13:0.076378509 14:0.12984359 15:0 16:6.1632209 #
3.567000000000000170530256582424 1:0 2:0 3:0.19972321 4:0 5:0 6:0.55740362 7:0.18329027 8:-0.017502541 9:0 10:-0.038944978 11:-0.29649067 12:-0.47767836 13:-0.35885569 14:0.87535924 15:0 16:1.5260907 #
3.567000000000000170530256582424 1:0 2:0 3:0.19972321 4:0 5:0 6:0.55740362 7:0.18329027 8:-0.017502541 9:0 10:-0.041740879 11:1.1040239 12:2.5438178 13:0.50035042 14:-0.2339973 15:0 16:-0.75263613 #
-1 1:0 2:0 3:0.19972321 4:0 5:0 6:0.55740362 7:0.18329027 8:-0.017502541 9:0 10:-0.040288672 11:1.1804764 12:2.1409082 13:0.95323783 14:-0.058076885 15:0 16:-0.55594355 #
-1 1:0 2:0 3:0.19972321 4:0 5:0 6:0.55740362 7:0.2312361 8:-0.017502541 9:0 10:-0.040489316 11:0.91528177 12:1.8169436 13:0.68292862 14:-0.97364891 15:0 16:-0.42430031 #
-1 1:0 2:0 3:0.19972321 4:0 5:0 6:0.37697971 7:0.78199434 8:1.2131953 9:0 10:-0.038488794 11:-0.66394061 12:-1.0147973 13:-1.2502806 14:0.24419186 15:0 16:1.6917123 #
-1 1:0 2:0 3:0.19972321 4:0 5:0 6:0.55740362 7:-0.20410462 8:1.6678171 9:1 10:-0.041039452 11:0.012186364 12:0.55565977 13:-0.22196151 14:-0.41018975 15:0 16:4.7969112 #
-1 1:0 2:0 3:2.3141904 4:0 5:0 6:-3.294379 7:0.41102704 8:2.7682295 9:0 10:-0.040016074 11:-0.69069898 12:-0.81345892 13:-1.02385 14:2.612407 15:0 16:-0.77571231 #
-1 1:0 2:0 3:0.19972321 4:0 5:0 6:0.55740362 7:2.4765949 8:-0.017502541 9:0 10:-0.037062481 11:-0.1631766 12:-0.65821356 13:-0.82466215 14:-0.78382415 15:0 16:0.67690569 #
-1 1:0 2:0 3:0.19972321 4:0 5:0 6:0.55740362 7:0.18329027 8:0.93553156 9:0 10:-0.036158048 11:0.63861918 12:-0.15151952 13:0.076378509 14:0.12171257 15:0 16:3.8742278 #
3.567000000000000170530256582424 1:0 2:0 3:0.19972321 4:0 5:0 6:-0.17283705 7:0.18329027 8:1.0765424 9:0 10:-0.041258939 11:0.43171957 12:1.1336501 13:-0.41825339 14:-0.84421742 15:0 16:-0.76889849 #
3.567000000000000170530256582424 1:0 2:0 3:0.19972321 4:0 5:0 6:0.39716244 7:0.18329027 8:-0.017574303 9:0 10:-0.040581226 11:0.82545006 12:1.7165257 13:0.60566896 14:0.42216769 15:0 16:-0.78070915 #
-1 1:0 2:0 3:0.19972321 4:0 5:0 6:0.55740362 7:0.18329027 8:-0.017502541 9:0 10:-0.039102208 11:1.3501054 12:1.8154131 13:0.79732019 14:-0.44328818 15:0 16:-0.45537138 #
-1 1:0 2:0 3:0.19972321 4:0 5:0 6:0.026928628 7:0.18329027 8:-0.017502541 9:0 10:-0.04120354 11:0.54114223 12:1.3917609 13:-0.023482028 14:-0.12711507 15:0 16:-0.78361636 #
-1 1:0 2:0 3:0.19972321 4:0 5:0 6:0.14761813 7:0.6524052 8:0.047319703 9:0 10:-0.04122021 11:0.84121835 12:1.8202695 13:0.011714069 14:-0.39577153 15:0 16:-0.79251975 #
-1 1:0 2:0 3:-0.039083935 4:0 5:0 6:-0.45726711 7:-0.036033697 8:-0.017502541 9:0 10:-0.040946703 11:0.90668082 12:1.8202695 13:0.011714069 14:-0.73020166 15:0 16:-0.56911695 #
-1 1:0 2:0 3:0.19972321 4:0 5:0 6:0.55740362 7:0.55446386 8:-0.82426578 9:0 10:-0.03878485 11:0.90572518 12:1.188354 13:-1.3704526 14:-1.8878909 15:0 16:-0.47753906 #
3.567000000000000170530256582424 1:0 2:0 3:0.19972321 4:0 5:0 6:0.16953701 7:0.18329027 8:-0.017502541 9:0 10:-0.039256271 11:1.0027243 12:1.4049681 13:0.62234551 14:-0.031356327 15:0 16:-0.52632606 #
-1 1:0 2:0 3:0.19972321 4:0 5:0 6:0.55740362 7:0.62647915 8:-0.017502541 9:0 14:-0.015789486 15:0 16:3.0580218 #
-1 1:0 2:0 3:0.19972321 4:0 5:0 6:0.55740362 7:0.68773049 8:0.41365573 9:0 10:-0.036242433 11:0.06426964 12:-0.40421844 13:-1.0648949 14:0.15792435 15:0 16:2.4546797 #
3.567000000000000170530256582424 1:0 2:0 3:0.19972321 4:0 5:0 6:0.55740362 7:0.18329027 8:-1.7570217 9:0 10:-0.039760578 11:0.84790796 12:1.4049681 13:0.62234551 14:-0.53142971 15:0 16:0.16895726 #
-1 1:0 2:0 3:0.19972321 4:0 5:0 6:0.55740362 7:0.18329027 8:-0.85899782 9:0 10:-0.039735086 11:0.8794446 12:1.4501455 13:0.76784647 14:0.0081804246 15:0 16:-0.61917591 #
-1 1:0 2:0 3:0.19972321 4:0 5:0 6:0.5467968 7:0.18329027 8:-1.0223728 9:0 10:-0.042828977 11:-0.060921356 12:1.5056609 13:0.72134429 14:0.38578966 15:0 16:0.60695034 #
-1 1:0 2:0 3:0.19972321 4:0 5:0 6:0.55740362 7:0.18329027 8:-1.3013121 9:0 10:-0.03947629 11:0.96306455 12:1.4501455 13:0.76784647 14:-0.29124698 15:0 16:0.46867499 #
3.2135497229533069862839056440862 1:0 2:0 3:0.19972321 4:0 5:0 6:0.55740362 7:3.3008394 8:-0.017502541 9:0 10:-0.040103897 11:-0.57267541 12:-0.55943334 13:-0.48529497 14:-0.18229423 15:0 16:1.3018702 #
-0.54289978958064821767948160413653 1:0 2:0 3:0.19972321 4:0 5:0 6:0.55740362 7:-4.4449773 8:1.6355331 9:0 10:-0.040564548 11:-0.98026288 12:-1.2022746 13:-1.4231784 14:0.49765933 15:0 16:-0.2517741 #
-1 1:0 2:0 3:0.19972321 4:0 5:0 6:0.55740362 7:0.18329027 8:0.87032765 9:0 10:-0.037100997 11:-0.24106261 12:-0.79747784 13:-0.69712126 14:0.43776476 15:0 16:2.987067 #
3.567000000000000170530256582424 1:0 2:0 3:0.19972321 4:0 5:0 6:0.55740362 7:0.18329027 8:-0.80218863 9:0 10:-0.040374525 11:0.88852334 12:1.7165257 13:0.60566896 14:-0.7646603 15:0 16:-0.68604231 #
-1 1:0 2:0 3:0.19972321 4:0 5:0 6:0.55740362 7:1.1700677 8:1.1086273 9:0 10:-0.035922233 11:-0.31560382 12:-1.0317056 13:-0.95752305 14:0.21045867 15:0 16:1.0345864 #
-1 1:0 2:0 3:0.19972321 4:0 5:0 6:0.55740362 7:1.0296391 8:0.935251 9:0 10:-0.038258761 11:-0.24345174 12:-0.3906219 13:-1.8167824 14:0.099465586 15:0 16:1.5675188 #
-1 1:0 2:0 3:0.19972321 4:0 5:0 6:0.55740362 7:-2.6446095 8:-0.053105518 9:0 14:1.2020966 15:0 16:-0.10432281 #
-1 1:0 2:0 3:0.19972321 4:0 5:0 6:0.55740362 7:0.75523394 8:1.0259473 9:0 10:-0.037946336 11:-0.60994601 12:-1.0147973 13:-1.2502806 14:-0.38349941 15:0 16:1.1593249 #
-1 1:0 2:0 3:0.19972321 4:0 5:0 6:0.55740362 7:0.18329027 8:-1.3634758 9:0 10:-0.041205116 11:0.58462459 12:1.763289 13:0.97961038 14:-0.8309176 15:0 16:0.2012094 #
3.567000000000000170530256582424 1:0 2:0 3:0.19972321 4:0 5:0 6:0.55740362 7:0.18329027 8:1.9510638 9:0 10:-0.039626807 11:-0.67970896 12:-0.88275594 13:-1.2769048 14:0.042895984 15:0 16:2.4150686 #
-1 1:0 2:0 3:0.19972321 4:0 5:0 6:0.55740362 7:0.18329027 8:-1.1072938 9:1 10:-0.038888071 11:1.3544059 12:1.6938961 13:1.5426884 14:0.092392497 15:0 16:0.023686375 #
-1 1:0 2:0 3:0.19972321 4:0 5:0 6:0.55740362 7:0.18329027 8:-0.017502541 9:0 10:-0.039393555 11:1.2349489 12:1.8227358 13:1.8018985 14:-0.29771554 15:0 16:-0.18481687 #
3.567000000000000170530256582424 1:0 2:0 3:0.19972321 4:0 5:0 6:0.55740362 7:0.18329027 8:1.2606066 9:0 10:-0.041354947 11:-0.84551531 12:-0.76003075 13:-0.91308951 14:0.30064055 15:0 16:1.4144348 #
-1 1:0 2:0 3:0.19972321 4:0 5:0 6:0.55740362 7:0.18329027 8:1.748796 9:0 10:-0.038258724 11:-0.56646365 12:-0.93282139 13:-1.1020589 14:0.15846844 15:0 16:1.4343312 #
-1 1:0 2:0 3:0.19972321 4:0 5:0 6:0.55740362 7:0.18329027 8:1.3843894 9:0 10:-0.040277448 11:-0.56216317 12:-0.56519574 13:-0.86426479 14:-0.56111252 15:0 16:1.9933379 #
-1 1:0 2:0 3:0.19972321 4:0 5:0 6:0.55740362 7:0.18329027 8:1.9636616 9:0 10:-0.038488794 11:-0.66394061 12:-1.0147973 13:-1.2502806 14:-0.72312856 15:0 16:1.6917123 #
-1 1:0 2:0 3:0.19972321 4:1 5:0 6:0.55740362 7:0.25281161 8:-1.2648039 9:0 10:-0.040277883 11:-0.80059946 12:-0.93282139 13:-1.1020589 14:-1.4140545 15:0 16:-0.79251975 #
3.567000000000000170530256582424 1:0 2:0 3:0.19972321 4:0 5:0 6:0.55740362 7:0.18329027 8:-1.2712414 9:0 10:-0.040286627 11:0.84408534 12:1.8227358 13:1.8018985 14:-1.3255502 15:0 16:-0.75699699 #
-1 1:0 2:0 3:0.19972321 4:0 5:0 6:0.55740362 7:0.35305381 8:-0.017502541 9:0 10:-0.039111879 11:1.3582286 12:1.8227358 13:1.8018985 14:-0.30364001 15:0 16:-0.3844167 #
-1 1:0 2:0 3:0.19972321 4:0 5:0 6:0.55740362 7:0.18329027 8:-0.18154469 9:0 10:-0.036903095 11:1.7944857 12:1.4501455 13:0.76784647 14:-1.4494199 15:0 16:-0.69776207 #
3.567000000000000170530256582424 1:0 2:0 3:0.19972321 4:0 5:0 6:0.55740362 7:0.18329027 8:1.7020582 9:0 10:-0.038707793 11:-0.64769447 12:-1.0347781 13:-0.21265772 14:0.068875991 15:0 16:1.5084656 #
-1 1:0 2:0 3:0.19972321 4:0 5:0 6:0.55740362 7:0.18329027 8:-0.017502541 9:1 10:-0.041741908 11:-0.63813788 12:-0.38478625 13:-0.8679629 14:0.16756673 15:0 16:-0.79251975 #
-1 1:0 2:0 3:0.19972321 4:0 5:0 6:0.55740362 7:0.32993779 8:1.0820845 9:0 10:-0.039695766 11:-0.89759862 12:-1.1234832 13:-0.66518772 14:0.59560949 15:0 16:1.7094282 #
-1 1:0 2:0 3:0.19972321 4:0 5:0 6:0.55740362 7:0.18329027 8:1.3260829 9:0 10:-0.040751938 11:-0.56646365 12:-0.46905297 13:-0.82566041 14:0.50257117 15:0 16:1.6206667 #
-0.65945777540273964323347399840713 1:0 2:0 3:-2.5640459 4:0 5:0 6:-0.0060582082 7:0.36311427 8:-0.017502541 9:0 10:-0.041936316 11:-1.1092765 12:-1.0317056 13:-0.95752305 14:0.78996831 15:0 16:0.048852123 #
-1 1:0 2:0 3:0.19972321 4:0 5:0 6:0.39651141 7:0.19518086 8:-0.017502541 9:0 10:-0.038616154 11:2.166714 12:2.5862265 13:2.3870244 14:-0.64762187 15:0 16:0.41625389 #
-1 1:0 2:0 3:0.19972321 4:0 5:0 6:0.55740362 7:0.18329027 8:-0.017502541 9:0 10:-0.038616154 11:2.166714 12:2.5862265 13:2.3870244 14:-0.53523833 15:0 16:0.41625389 #
-1 1:0 2:0 3:0.19972321 4:0 5:0 6:0.55740362 7:0.18329027 8:-1.3592532 9:1 10:-0.037744831 11:1.1360384 12:1.1379385 13:-0.24346666 14:-1.1161383 15:0 16:-0.48644245 #
3.567000000000000170530256582424 1:0 2:0 3:0.30173311 4:0 5:0 6:-0.048105571 7:0.18329027 8:0.0046577817 9:0 10:-0.039673403 11:1.4585725 12:2.2863152 13:1.6499454 14:-0.37799811 15:0 16:-0.088514715 #
-1 1:0 2:0 3:0.19972321 4:0 5:0 6:0.55740362 7:0.22906744 8:-0.017502541 9:0 10:-0.037733335 11:-0.57506454 12:-1.1234832 13:-0.66518772 14:-0.12620826 15:0 16:1.9933379 #
-1 1:0 2:0 3:0.19972321 4:0 5:0 6:0.55740362 7:0.19243962 8:0.8169713 9:0 10:-0.040613234 11:-0.60994601 12:-0.56519574 13:-0.86426479 14:-0.18998696 15:0 16:1.5142801 #
1.8095471841136010482387064257637 1:0 2:0 3:0.19972321 4:0 5:0 6:0.55740362 7:0.18329027 8:-0.017502541 9:0 10:-0.037114404 11:3.2317932 12:2.6176124 13:3.6529267 14:-0.36602828 15:0 16:0.98189276 #
-1 1:0 2:0 3:0.19972321 4:0 5:0 6:0.36317191 7:0.14759471 8:-0.017502541 9:0 10:-0.033567179 11:3.5743959 12:1.8224612 13:1.4627311 14:-0.19071241 15:0 16:1.1527836 #
-0.0086706719293002543907933343803052 1:1 2:0 3:-1.7455313 4:0 5:0 6:-0.34105363 7:-5.50594 8:-0.017502541 9:0 10:-0.040941183 11:0.99937952 12:2.1483562 13:0.76153958 14:0.31685728 15:0 16:-0.78897655 #
-1 1:0 2:0 3:0.19972321 4:0 5:0 6:-0.1548245 7:0.18329027 8:0.36370489 9:0 10:-0.036070347 11:2.6282959 12:2.2108548 13:0.79946297 14:-0.5970825 15:0 16:-0.41103607 #
-1 1:0 2:0 3:0.19972321 4:0 5:0 6:-0.04069981 7:0.18329027 8:-0.017502541 9:0 10:-0.03944521 11:1.5111336 12:2.2074227 13:1.199212 14:0.62988681 15:0 16:0.85769933 #
-1 1:0 2:0 3:0.19972321 4:0 5:0 6:0.55740362 7:-0.43511289 8:1.7865518 9:0 10:-0.0389206 11:-0.25730875 12:-0.40421844 13:-1.0648949 14:-1.2814794 15:0 16:-0.24686815 #
3.567000000000000170530256582424 1:0 2:0 3:0.19972321 4:0 5:0 6:0.55740362 7:0.18329027 8:0.49027985 9:0 10:-0.03793538 11:-0.72605824 12:-1.3289354 13:-0.43172479 14:-0.38422486 15:0 16:0.91984147 #
-1 1:0 2:0 3:0.19972321 4:0 5:0 6:0.55740362 7:0.22906744 8:-0.017502541 9:0 10:-0.037733335 11:-0.57506454 12:-1.1234832 13:-0.66518772 14:-0.12620826 15:0 16:1.9933379 #
-1 1:0 2:0 3:0.19972321 4:0 5:0 6:0.55740362 7:0.18329027 8:0.50678223 9:0 10:-0.042414211 11:-1.0089326 12:-0.84556305 13:-1.0349684 14:0.18775828 15:0 16:1.0528475 #
-1 1:0 2:0 3:0.19972321 4:0 5:0 6:0.55740362 7:-0.32776967 8:-0.017502541 9:0 10:-0.040008057 11:-0.92865747 12:-1.1360897 13:-0.98060095 14:-0.13666676 15:0 16:1.4078026 #
-1 1:0 2:0 3:0.19972321 4:0 5:0 6:0.55740362 7:0.18329027 8:-0.017502541 9:0 10:-0.036443774 11:-0.46038577 12:-1.0147973 13:-1.2502806 14:-0.3373732 15:0 16:0.36528644 #
-1 1:0 2:0 3:0.19972321 4:0 5:0 6:-0.48349923 7:0.18329027 8:-0.017502541 9:0 10:-0.041492041 11:-0.94538146 12:-1.0824997 13:-1.5093967 14:0.28481677 15:0 16:-0.75263613 #
-1 1:0 2:0 3:0.19972321 4:0 5:0 6:0.55740362 7:0.22971804 8:-0.017502541 9:0 10:-0.036134575 11:2.3186634 12:1.8154131 13:0.79732019 14:-0.25944832 15:0 16:1.0735615 #
-1 1:0 2:0 3:0.19972321 4:0 5:0 6:0.55740362 7:0.65399331 8:-0.017502541 9:0 10:-0.032590333 11:2.8242056 12:0.95593786 13:0.76246476 14:-0.2100576 15:0 16:0.93074358 #
-1 1:0 2:0 3:0.19972321 4:0 5:0 6:0.55740362 7:-0.71133107 8:-0.017502541 9:0 10:-0.033341177 11:3.5944648 12:1.0448209 13:2.231282 14:-0.1813723 15:0 16:0.99997211 #
3.567000000000000170530256582424 1:0 2:0 3:0.19972321 4:0 5:0 6:0.55740362 7:0.18329027 8:-0.28165025 9:0 10:-0.040213544 11:-0.78483117 12:-0.88085735 13:-0.84776324 14:0.94146538 15:0 16:2.1038127 #
-1 1:0 2:0 3:0.19972321 4:0 5:0 6:0.55740362 7:-1.4555811 8:-0.017502541 9:0 10:-0.041399337 11:-0.52967083 12:-0.28434598 13:-0.81432498 14:-0.81235832 15:0 16:-0.032096192 #
-1 1:0 2:0 3:0.19972321 4:0 5:0 6:0.55740362 7:0.18329027 8:-0.017500909 9:0 10:-0.038268484 11:-0.62523651 12:-1.0317056 13:-0.95752305 14:0.41987047 15:0 16:1.3190411 #
-1 1:0 2:0 3:0.19972321 4:0 5:0 6:0.55740362 7:0.18329027 8:-0.19212985 9:0 10:-0.040304035 11:-1.0810846 12:-1.2889817 13:-0.95842797 14:0.9339087 15:0 16:1.6299336 #
-1 1:0 2:0 3:0.19972321 4:0 5:0 6:0.55740362 7:0.27848637 8:-0.017502541 9:0 10:-0.036164351 11:-0.73895961 12:-1.4107747 13:-1.3046051 14:0.49199179 15:0 16:1.2302796 #
-1 1:0 2:0 3:0.19972321 4:1 5:0 6:0.55740362 7:0.18329027 8:0.33232456 9:0 10:-0.041054025 11:-0.54448354 12:-0.13550887 13:0.018406339 14:-1.2791218 15:0 16:-0.79251975 #
3.567000000000000170530256582424 1:0 2:0 3:0.19972321 4:0 5:0 6:0.55740362 7:0.18329027 8:-0.017502541 9:0 10:-0.040627558 11:-1.1341236 12:-1.238009 13:-0.66524994 14:0.36655024 15:0 16:1.123893 #
-1 1:0 2:0 3:0.19972321 4:0 5:0 6:0.55740362 7:0.18329027 8:-0.055527546 9:0 10:-0.034212206 11:3.3135016 12:2.5438178 13:0.50035042 14:-1.1237859 15:0 16:0.46004415 #
-1 1:0 2:0 3:0.19972321 4:0 5:0 6:0.55740362 7:0.18329027 8:-0.84288847 9:0 10:-0.034384593 11:3.4095452 12:1.7832787 13:1.8228354 14:0.51142764 15:0 16:0.10009214 #
-1 1:0 2:0 3:0.19972321 4:0 5:0 6:0.55740362 7:0.18329027 8:-1.0012156 9:0 10:-0.03463104 11:2.8968356 12:1.203898 13:1.8578572 14:-1.0686218 15:0 16:0.43624115 #
3.567000000000000170530256582424 1:0 2:0 3:0.19972321 4:0 5:0 6:0.55740362 7:0.18329027 8:-0.017525373 9:0 10:-0.040092666 11:-1.0318683 12:-1.2851435 13:-1.1389784 14:0.73435086 15:0 16:0.94055551 #
-1 1:0 2:0 3:0.19972321 4:0 5:0 6:0.55740362 7:0.18329027 8:-0.017502541 9:0 10:-0.039714083 11:-0.91097778 12:-1.2006861 13:-1.4193259 14:0.37608683 15:0 16:1.6540999 #
-1 1:0 2:0 3:0.19972321 4:0 5:0 6:0.55740362 7:0.18329027 8:-0.017502541 9:0 10:-0.037883528 11:-0.76189542 12:-1.2889817 13:-0.95842797 14:0.042941332 15:0 16:0.86542165 #
-1 1:0 2:0 3:0.19972321 4:0 5:0 6:0.55740362 7:0.18329027 8:-0.017502541 9:0 10:-0.03917142 11:-0.78100854 12:-1.0824997 13:-1.5093967 14:-0.0027617037 15:0 16:1.2062041 #
3.567000000000000170530256582424 1:0 2:0 3:0.19972321 4:0 5:0 6:0.55740362 7:0.18329027 8:-0.017502541 9:0 10:-0.035659607 11:3.1476953 12:2.2863152 13:1.6499454 14:-0.70602018 15:0 16:-0.61953932 #
-0.13618376939464707509053198464244 1:1 2:0 3:-0.11611968 4:2 5:1 6:0.54693246 7:1.0066712 8:-0.017502541 9:0 10:-0.042241573 11:-0.23150603 12:1.1303191 13:0.96798223 14:0.0052786451 15:0 16:-0.79251975 #
-1 1:0 2:0 3:0.19972321 4:2 5:0 6:0.55740362 7:0.18329027 8:-0.017502541 9:0 10:-0.042080373 11:-1.1021091 12:-1.2022746 13:-1.4231784 14:-0.023739155 15:1 16:-0.79251975 #
-1 1:0 2:0 3:0.19972321 4:0 5:0 6:0.55740362 7:0.18329027 8:-0.017502541 9:0 10:-0.035077527 11:2.6636553 12:1.8154131 13:0.79732019 14:-0.99075735 15:0 16:-0.69785291 #
-1 1:0 2:0 3:0.19972321 4:0 5:0 6:0.55740362 7:0.18329027 8:-0.017502541 9:0 10:-0.036895372 11:1.9273219 12:1.4421408 13:1.3093376 14:-0.57160127 15:0 16:-0.57075226 #
-0.40405735587489061133581458307162 1:0 2:0 3:2.1651089 4:0 5:0 6:-0.84450978 7:0.95318997 8:-0.017474813 9:0 10:-0.039694883 11:1.1030682 12:1.8227358 13:1.8018985 14:0.45033914 15:0 16:-0.76590037 #
-1 1:0 2:0 3:0.19972321 4:0 5:0 6:0.55740362 7:0.40168992 8:-0.017502541 9:0 10:-0.038780566 11:-0.54639482 12:-0.82368046 13:-1.0760165 14:0.4881832 15:0 16:0.88986063 #
-1 1:0 2:0 3:0.19972321 4:0 5:0 6:0.55740362 7:0.18329027 8:-0.31976822 9:0 10:-0.036272321 11:-0.70360035 12:-1.3475605 13:-1.306391 14:-0.22777055 15:0 16:0.81363654 #
-1 1:0 2:0 3:0.19972321 4:0 5:0 6:0.55740362 7:-0.40535468 8:-0.017502541 9:0 10:-0.039987344 11:-1.0290014 12:-1.3298479 13:-1.3985291 14:0.51492643 15:0 16:0.78947014 #
1.2112863499168649017434518100345 1:0 2:0 3:0.19972321 4:0 5:0 6:0.55740362 7:0.27109575 8:-0.017502541 9:0 10:-0.035000287 11:2.7329404 12:1.203898 13:1.8578572 14:0.14692178 15:0 16:-0.79251975 #
-0.27950736349618687803797456581378 1:0 2:0 3:-3.804734 4:0 5:1 6:-0.13697471 7:-0.43324441 8:-0.58709633 9:0 10:-0.042347096 11:-1.255492 12:-1.1668397 13:-0.97565436 14:-2.5775473 15:0 16:-0.74291509 #
-1 1:0 2:0 3:2.1999958 4:0 5:0 6:-0.096907638 7:0.99709737 8:-0.017502541 9:0 10:-0.038747624 11:-0.33615044 12:-0.56327701 13:-0.71469277 14:1.0681915 15:0 16:-0.58310801 #
-1 1:0 2:0 3:0.19972321 4:0 5:0 6:0.55740362 7:0.18329027 8:-0.017502541 9:0 10:-0.035000287 11:2.7329404 12:1.203898 13:1.8578572 14:0.308696 15:0 16:-0.79251975 #
-1 1:0 2:0 3:0.19972321 4:0 5:0 6:0.55740362 7:-0.52836382 8:-0.017502541 9:0 10:-0.035996083 11:2.271836 12:1.4421408 13:1.3093376 14:-0.39494029 15:0 16:-0.67686635 #
-1 1:0 2:0 3:0.19972321 4:0 5:0 6:0.55740362 7:0.84131372 8:-0.017492754 9:0 10:-0.038627103 11:-0.96927285 12:-1.4107747 13:-1.3046051 14:-0.25926697 15:0 16:0.77711439 #
-1 1:0 2:0 3:0.19972321 4:0 5:0 6:0.55740362 7:0.10795059 8:-0.017502541 9:0 10:-0.038757626 11:-0.69069898 12:-1.0147973 13:-1.2502806 14:-0.026157305 15:0 16:0.6842646 #
3.567000000000000170530256582424 1:0 2:0 3:0.19972321 4:0 5:0 6:-0.14012147 7:0.18329027 8:-0.017502541 9:0 10:-0.03414131 11:3.1519957 12:1.00989 13:2.1795645 14:0.41418779 15:0 16:-0.78661442 #
-1 1:0 2:0 3:0.19972321 4:0 5:0 6:0.55740362 7:0.18329027 8:0.30624169 9:0 10:-0.036439292 11:-0.58748806 12:-1.0824997 13:-1.5093967 14:-0.15057112 15:0 16:1.2391831 #
-1 1:0 2:0 3:0.19972321 4:0 5:0 6:0.55740362 7:0.18329027 8:-0.017502541 9:0 10:-0.030731227 11:4.690125 12:1.6938961 13:1.5426884 14:-0.042782087 15:1 16:-0.16255835 #
-1 1:0 2:0 3:0.19972321 4:0 5:0 6:0.46031487 7:0.99309194 8:0.076874956 9:1 10:-0.036008824 11:2.6512318 12:2.1409082 13:0.95323783 14:-0.073311232 15:0 16:-0.79251975 #
-1 1:0 2:0 3:0.19972321 4:0 5:0 6:-0.52386469 7:-0.28451023 8:-0.017502541 9:1 10:-0.034508329 11:3.2824428 12:1.5041429 13:2.0759583 14:0.41086283 15:0 16:-0.79251975 #
3.567000000000000170530256582424 1:0 2:0 3:0.19972321 4:0 5:0 6:0.55740362 7:0.18329027 8:0.15802345 9:0 10:-0.040216457 11:-1.0395136 12:-1.3568732 13:-1.6407719 14:-0.8953613 15:0 16:0.6759063 #
3.567000000000000170530256582424 1:0 2:0 3:0.19972321 4:0 5:0 6:0.55740362 7:0.18329027 8:-0.017502541 9:0 10:-0.042127471 11:-1.0743951 12:-1.0880228 13:-1.2656571 14:-0.7292344 15:0 16:0.44369093 #
-1 1:0 2:0 3:0.19972321 4:0 5:0 6:0.55740362 7:0.16725676 8:-0.017482968 9:0 10:-0.03917142 11:-0.78100854 12:-1.0824997 13:-1.5093967 14:-0.015517444 15:0 16:1.2062041 #
-1 1:0 2:0 3:0.19972321 4:0 5:0 6:0.55740362 7:0.18329027 8:-0.017502541 9:0 10:-0.041301899 11:-0.94394797 12:-1.0147973 13:-1.2502806 14:-0.46988782 15:0 16:0.46731222 #
-1 1:0 2:0 3:0.19972321 4:0 5:0 6:0.55740362 7:0.18329027 8:-0.017502541 9:0 10:-0.039841831 11:-0.89568728 12:-1.1204308 13:-0.98136234 14:-0.50688553 15:0 16:0.64919609 #
-1 1:0 2:0 3:0.19972321 4:0 5:0 6:0.55740362 7:0.18329027 8:-1.2893977 9:0 14:-1.4172585 15:0 16:-0.69494569 #
1.8056828810988199141007726211683 1:0 2:0 3:0.19972321 4:0 5:0 6:-0.94151711 7:0.18329027 8:0.4414283 9:0 10:-0.034132197 11:3.588253 12:2.5236356 13:0.97735316 14:0.0094197271 15:0 16:-0.47308734 #
-1 1:0 2:0 3:0.19972321 4:0 5:0 6:0.55740362 7:0.18329027 8:-2.5536222 9:0 10:-0.037424147 11:-0.28741196 12:-0.66779321 13:-1.1575339 14:0.42246997 15:0 16:0.55834502 #
-1 1:0 2:0 3:0.19972321 4:0 5:0 6:0.55740362 7:0.69289297 8:0.46507937 9:0 10:-0.028552907 11:5.1612635 12:0.99816132 13:1.6166136 14:-0.66134483 15:0 16:0.45977157 #
-1 1:0 2:0 3:0.19972321 4:0 5:0 6:0.34016791 7:0.18329027 8:-0.017502541 9:0 10:-0.035792135 11:2.4476769 12:2.0282176 13:0.42882997 14:0.76397318 15:0 16:-0.22915219 #
-1 1:0 2:0 3:0.19972321 4:0 5:0 6:0.55740362 7:-0.69293314 8:-0.017502541 9:0 10:-0.033884138 11:2.8543088 12:1.1901338 13:1.235654 14:0.12612569 15:0 16:0.8623327 #
-0.40114686134271404505113878258271 1:0 2:0 3:2.0514431 4:0 5:1 6:0.14376605 7:-0.029379621 8:-0.017502541 9:0 10:-0.039766647 11:0.10775201 12:0.4083809 13:0.81206793 14:0.72706616 15:1 16:-0.63280356 #
3.567000000000000170530256582424 1:0 2:0 3:0.19972321 4:0 5:0 6:0.55740362 7:0.18329027 8:-0.017502541 9:0 10:-0.036189053 11:-0.40925816 12:-1.1479225 13:-0.87812215 14:-0.32794243 15:0 16:-0.35334563 #
0.87770270936584793286527883537929 1:0 2:0 3:0.19972321 4:0 5:0 6:0.55740362 7:0.18329027 8:-0.017502541 9:1 10:-0.036474671 11:2.4347756 12:2.4517577 13:0.0047831046 14:-0.049220409 15:0 16:-0.79251975 #
-1 1:0 2:0 3:0.19972321 4:0 5:0 6:0.55740362 7:0.18329027 8:-0.42523158 9:0 10:-0.038530037 11:1.7471807 12:2.1547346 13:0.27530316 14:0.56095439 15:0 16:0.17150109 #
-1 1:0 2:0 3:0.19972321 4:0 5:0 6:-0.1798359 7:0.18329027 8:-0.017502541 9:0 10:-0.03611635 11:2.0486903 12:1.4501455 13:0.76784647 14:0.048805345 15:0 16:-0.739281 #
-1 1:0 2:0 3:0.19972321 4:0 5:0 6:0.55740362 7:-0.30650491 8:-0.017502541 9:0 10:-0.034062095 11:2.2178416 12:1.335147 13:0.041102938 14:0.1147226 15:0 16:-0.30646646 #
0.13661374959180883070786194366519 1:0 2:0 3:0.19972321 4:0 5:0 6:0.55740362 7:0.18329027 8:-0.06790027 9:0 10:-0.04459767 11:-0.54830617 12:-0.47322828 13:-1.7975583 14:0.092135571 15:0 16:1.8839532 #
-1 1:0 2:0 3:0.19972321 4:0 5:0 6:0.53583735 7:-0.1034591 8:-0.017502541 9:0 10:-0.0373533 11:-0.58509892 12:-1.1360897 13:-0.98060095 14:0.21118411 15:0 16:0.88250166 #
-1 1:0 2:0 3:0.19972321 4:0 5:0 6:0.55740362 7:0.18329027 8:-0.017502541 9:0 10:-0.035145573 11:-0.33137214 12:-0.96745628 13:-1.3281487 14:-0.22118109 15:0 16:1.3722799 #
-1 1:0 2:0 3:0.19972321 4:0 5:0 6:0.55740362 7:-0.41009399 8:-0.017502541 9:0 10:-0.032454792 11:-0.34618482 12:-1.3865051 13:-1.2666847 14:0.33970124 15:0 16:1.019596 #
-1 1:0 2:0 3:0.19972321 4:0 5:0 6:0.55740362 7:0.39880455 8:-0.017502541 9:0 10:-0.036557324 11:-0.58701026 12:-1.2889817 13:-0.95842797 14:-0.1477298 15:0 16:1.1712264 #
-1 1:0 2:0 3:0.19972321 4:0 5:0 6:0.55740362 7:-0.38316166 8:-2.6474109 9:0 10:-0.039877292 11:-1.0562376 12:-1.2537339 13:-0.23457678 14:-0.25696972 15:0 16:0.11262958 #
3.567000000000000170530256582424 1:0 2:0 3:0.19972321 4:0 5:0 6:-0.45374057 7:0.18329027 8:-0.017502541 9:0 10:-0.036780741 11:1.9851391 12:1.7165257 13:0.60566896 14:1.1352801 15:0 16:-0.50861013 #
-1 1:0 2:0 3:0.19972321 4:0 5:0 6:0.55740362 7:0.18329027 8:-0.96032333 9:0 10:-0.042506121 11:0.8794446 12:2.5438178 13:0.50035042 14:0.13440785 15:0 16:-0.75754207 #
-1 1:0 2:0 3:0.19972321 4:0 5:0 6:-1.359061 7:0.18329027 8:-0.017502541 9:0 10:-0.03870108 11:1.9961293 12:2.5438178 13:0.50035042 14:1.0628566 15:0 16:-0.67713886 #
-1 1:0 2:0 3:0.19972321 4:0 5:0 6:0.018600537 7:0.18329027 8:-0.017502541 9:0 10:-0.037475314 11:2.0744932 12:1.8227358 13:1.8018985 14:1.0931438 15:0 16:-0.57075226 #
-1 1:0 2:0 3:0.19972321 4:0 5:0 6:0.55740362 7:0.18329027 8:-0.017502541 9:0 10:-0.040269122 11:1.2569289 12:2.2108548 13:0.79946297 14:0.81221527 15:0 16:-0.79251975 #
-0.096655075342562554729930468511157 1:0 2:0 3:0.19972321 4:0 5:0 6:-1.5551916 7:6.7749381 8:-0.017502541 9:1 10:-0.041300431 11:-1.080129 12:-1.1376104 13:-1.0519881 14:0.33305886 15:0 16:-0.79251975 #
3.567000000000000170530256582424 1:0 2:0 3:0.19972321 4:0 5:0 6:0.55740362 7:0.18329027 8:-0.15952139 9:0 10:-0.038947716 11:-0.91862303 12:-1.3289354 13:-0.43172479 14:-0.0049380385 15:0 16:1.3098651 #
-0.66859541309282255472368206028477 1:0 2:0 3:0.19972321 4:0 5:0 6:0.55740362 7:0.18329027 8:-1.1857594 9:0 10:-0.036885597 11:-0.039896913 12:-0.63274056 13:-0.51270735 14:-1.5326042 15:0 16:-0.65051949 #
3.567000000000000170530256582424 1:0 2:0 3:0.19972321 4:0 5:0 6:-0.091400795 7:0.18329027 8:-0.42539468 9:0 10:-0.039373595 11:1.7118214 12:2.4251025 13:0.52199209 14:0.83228594 15:0 16:-0.73037761 #
-1 1:0 2:0 3:0.19972321 4:0 5:0 6:0.55740362 7:-0.0071667545 8:-0.017502541 9:0 10:-0.039045658 11:-0.7193687 12:-1.0147973 13:-1.2502806 14:-0.042358909 15:0 16:1.4783031 #
-1 1:0 2:0 3:0.19972321 4:0 5:0 6:0.55740362 7:0.68609869 8:-0.017502541 9:0 10:-0.040198728 11:-0.98026288 12:-1.1234832 13:-0.66518772 14:0.042276338 15:0 16:1.6206667 #
-1 1:0 2:0 3:0.19972321 4:0 5:0 6:0.55740362 7:1.9214597 8:-0.017502541 9:0 10:-0.037579987 11:-0.41403642 12:-1.1169845 13:0.081239514 14:-0.024525054 15:0 16:0.85697252 #
-1 1:0 2:0 3:0.19972321 4:0 5:0 6:0.55740362 7:1.3126409 8:-0.017502541 9:0 10:-0.039848771 11:-0.97452897 12:-1.1169845 13:0.081239514 14:0.33009663 15:0 16:0.36256093 #
-1 1:0 2:0 3:0.19972321 4:0 5:0 6:0.30186412 7:1.0607237 8:-0.017502541 9:0 10:-0.039831188 11:-0.31273684 12:-0.21341489 13:0.087693751 14:0.31534591 15:0 16:1.15133 #
3.567000000000000170530256582424 1:0 2:0 3:0.19972321 4:0 5:0 6:0.16131742 7:-1.6570679 8:-1.3588372 9:0 10:-0.03783793 11:1.008936 12:0.59802216 13:1.6992751 14:0.30192518 15:0 16:-0.63870889 #
3.567000000000000170530256582424 1:0 2:0 3:0.19972321 4:0 5:0 6:0.55740362 7:0.003984639 8:-1.7340785 9:0 10:-0.037505027 11:1.150851 12:0.59802216 13:1.6992751 14:-0.35006848 15:0 16:0.29887432 #
3.567000000000000170530256582424 1:0 2:0 3:0.19972321 4:0 5:0 6:0.24687703 7:-1.7056471 8:-2.3017461 9:0 10:-0.039050762 11:0.86941022 12:1.1403825 13:0.32692757 14:0.14680088 15:0 16:0.59295928 #
-1 1:0 2:0 3:0.19972321 4:0 5:0 6:0.55740362 7:-0.80642533 8:-1.9657694 9:0 10:-0.039444461 11:1.1948112 12:1.763289 13:0.97961038 14:0.20719416 15:0 16:-0.045905557 #
-0.91202062158821328718971699345275 1:0 2:0 3:0.19972321 4:0 5:0 6:-1.4836569 7:-0.082289569 8:-0.1933531 9:0 10:-0.039513186 11:1.0987678 12:1.6938961 13:1.5426884 14:2.0878499 15:0 16:0.07837873 #
-1 1:0 2:0 3:0.19972321 4:0 5:0 6:0.53062892 7:1.8299556 8:-1.9138631 9:0 10:-0.034627579 11:1.7940079 12:1.1379385 13:-0.24346666 14:-0.24415353 15:0 16:1.3211308 #
-1 1:0 2:0 3:0.19972321 4:0 5:0 6:0.55740362 7:1.0953679 8:-1.588478 9:0 10:-0.037569653 11:2.7663884 12:2.8300078 13:1.8004954 14:-0.19987115 15:0 16:0.91057467 #
-1 1:0 2:0 3:0.19972321 4:0 5:0 6:0.55740362 7:0.18329027 8:-1.0813953 9:0 10:-0.041283775 11:0.10345156 12:0.79861355 13:-0.079271935 14:-1.0821633 15:0 16:-0.56184888 #
3.567000000000000170530256582424 1:0 2:0 3:0.19972321 4:0 5:0 6:0.55740362 7:0.18329027 8:1.4941096 9:0 10:-0.039818797 11:-0.68353158 12:-0.75365108 13:-0.18170306 14:0.33989015 15:0 16:0.17940514 #
3.567000000000000170530256582424 1:0 2:0 3:0.19972321 4:0 5:0 6:-0.49972138 7:0.18329027 8:0.59952712 9:0 14:0.062722929 15:0 16:1.6739055 #
-0.07418248084976188094774585124469 1:0 2:0 3:0.19972321 4:0 5:0 6:-2.2841301 7:-11.925444 8:-0.017528636 9:0 10:-0.040412419 11:-0.72127998 12:-0.83134097 13:-1.2542633 14:-0.0023385275 15:0 16:-0.77344102 #
-1 1:0 2:0 3:0.19972321 4:0 5:0 6:0.55740362 7:0.18732609 8:1.2156451 9:0 10:-0.042052515 11:-0.64721662 12:-0.22860207 13:-0.62181342 14:0.30512923 15:0 16:1.1593249 #
-1 1:0 2:0 3:0.19972321 4:0 5:0 6:0.55740362 7:0.18329027 8:0.36213589 9:0 10:-0.039110608 11:-0.40065724 12:-0.57476425 13:-0.46305966 14:-0.152022 15:0 16:1.044035 #
-1 1:0 2:0 3:0.19972321 4:0 5:0 6:0.55740362 7:0.18329027 8:1.3723135 9:0 10:-0.040657114 11:-0.59608901 12:-0.47739556 13:-0.59905326 14:-0.4770667 15:0 16:1.5675188 #
3.567000000000000170530256582424 1:0 2:0 3:0.19972321 4:0 5:0 6:0.55740362 7:0.18329027 8:-0.6173203 9:0 10:-0.039231591 11:1.2139244 12:1.6938961 13:1.5426884 14:0.88530385 15:0 16:-0.54413289 #
-1 1:0 2:0 3:0.19972321 4:0 5:0 6:0.55740362 7:-0.60849702 8:-1.673094 9:0 10:-0.041428618 11:0.34427699 12:1.8227358 13:1.8018985 14:0.33692792 15:0 16:-0.29974347 #
-1 1:0 2:0 3:0.19972321 4:0 5:0 6:0.55740362 7:0.18329027 8:-1.1608133 9:0 10:-0.040683307 11:1.0825217 12:2.1483562 13:0.76153958 14:-0.016847428 15:0 16:-0.79251975 #
-1 1:0 2:0 3:0.19972321 4:0 5:0 6:0.55740362 7:-0.26987311 8:-1.5874456 9:0 10:-0.038269218 11:1.9101201 12:2.2108548 13:0.79946297 14:0.80527824 15:0 16:0.92601931 #
-1 1:0 2:0 3:0.19972321 4:0 5:0 6:0.55740362 7:-0.24693824 8:-0.66031331 9:0 10:-0.039182413 11:1.3252584 12:1.8169436 13:0.68292862 14:0.87034154 15:0 16:0.24472706 #
3.567000000000000170530256582424 1:0 2:0 3:0.19972321 4:0 5:0 6:0.55740362 7:0.28737259 8:1.695208 9:0 10:-0.037482485 11:-0.8856529 12:-1.3568732 13:-1.6407719 14:0.40566382 15:0 16:0.96417677 #
-1 1:0 2:0 3:0.19972321 4:0 5:0 6:0.55740362 7:0.32993779 8:1.0820845 9:0 10:-0.039695766 11:-0.89759862 12:-1.1234832 13:-0.66518772 14:0.71748424 15:0 16:1.7094282 #
-1 1:0 2:0 3:0.19972321 4:0 5:0 6:0.55740362 7:0.021271745 8:2.0263944 9:0 10:-0.035296518 11:-0.13068429 12:-0.84556305 13:-1.0349684 14:0.097863562 15:0 16:1.3196771 #
-1 1:0 2:0 3:0.19972321 4:0 5:0 6:0.55740362 7:0.18329027 8:1.7813196 9:0 10:-0.037564032 11:-0.34284002 12:-0.8455801 13:-0.65364945 14:0.061228588 15:0 16:1.2332777 #
3.567000000000000170530256582424 1:0 2:0 3:0.19972321 4:0 5:0 6:0.55740362 7:0.18329027 8:-0.84740633 9:0 10:-0.040142328 11:1.4843752 12:2.4251025 13:0.52199209 14:0.96528417 15:0 16:-0.7072106 #
3.567000000000000170530256582424 1:0 2:0 3:0.19972321 4:0 5:0 6:0.55740362 7:1.0136969 8:-2.5928476 9:0 10:-0.039522391 11:1.5221236 12:2.2863152 13:1.6499454 14:0.88028622 15:0 16:0.2561743 #
3.567000000000000170530256582424 1:0 2:0 3:0.19972321 4:0 5:0 6:0.55740362 7:0.18329027 8:-1.2121097 9:0 10:-0.041102521 11:0.44987702 12:1.695413 13:1.5428793 14:0.062105168 15:0 16:-0.17736708 #
-1 1:0 2:0 3:0.19972321 4:0 5:0 6:0.55740362 7:0.18329027 8:-1.7158473 9:0 10:-0.038708214 11:1.4499716 12:1.763289 13:0.97961038 14:0.71476382 15:0 16:0.30941305 #
-1 1:0 2:0 3:0.19972321 4:0 5:0 6:0.55740362 7:0.61462957 8:-1.37464 9:0 10:-0.036611855 11:2.1628914 12:1.8154131 13:0.79732019 14:0.81148982 15:0 16:-0.5101546 #
-1 1:0 2:0 3:0.19972321 4:0 5:0 6:0.55740362 7:0.18329027 8:1.0067506 9:0 10:-0.040344451 11:-0.50673509 12:-0.46905297 13:-0.82566041 14:-0.39565063 15:0 16:2.0820994 #
-1 1:0 2:0 3:0.19972321 4:0 5:0 6:0.55740362 7:0.18329027 8:0.89720482 9:0 10:-0.038796984 11:-0.7719298 12:-1.1360897 13:-0.98060095 14:0.22514893 15:0 16:2.1707699 #
-1 1:0 2:0 3:0.19972321 4:0 5:0 6:0.55740362 7:0.18329027 8:1.8206592 9:0 10:-0.040567812 11:-0.76189542 12:-0.6177147 13:-0.090807348 14:0.092755221 15:0 16:1.2426354 #
-1 1:0 2:0 3:0.19972321 4:0 5:0 6:-0.19565113 7:-0.77171493 8:-0.44017965 9:0 10:-0.038401294 11:-0.35956401 12:-0.65821356 13:-0.82466215 14:1.1974266 15:0 16:-0.71529633 #
-0.51105395248752050196827667605248 1:0 2:0 3:0.19972321 4:0 5:0 6:0.55740362 7:0.093809359 8:-0.017502541 9:1 10:-0.0404188 11:-0.1631766 12:0.023565991 13:-0.79513949 14:1.0742218 15:0 16:-0.79251975 #
3.567000000000000170530256582424 1:0 2:0 3:0.19972321 4:0 5:0 6:0.55740362 7:0.098518252 8:1.6826999 9:0 10:-0.040263813 11:-0.76093972 12:-0.78307414 13:-0.5185501 14:0.089248903 15:0 16:1.0259556 #
-1 1:0 2:0 3:0.19972321 4:0 5:0 6:-0.72816062 7:0.18329027 8:1.1730076 9:0 14:0.63197243 15:0 16:1.3013252 #
-1 1:0 2:0 3:0.19972321 4:0 5:0 6:0.55740362 7:-0.8236199 8:-0.017502541 9:0 10:-0.040192246 11:-0.3375839 12:-0.13550887 13:0.018406339 14:0.4447774 15:0 16:1.278249 #
-1 1:0 2:0 3:0.19972321 4:0 5:0 6:0.55740362 7:-0.98621231 8:-0.41329271 9:0 10:-0.040905334 11:-0.91814524 12:-0.38617826 13:1.1951858 14:0.32099834 15:0 16:0.45141327 #
3.567000000000000170530256582424 1:0 2:0 3:0.19972321 4:0 5:0 6:0.55740362 7:0.18329027 8:-1.0165421 9:1 10:-0.039005913 11:1.3061452 12:1.7165257 13:0.60566896 14:-1.541491 15:0 16:-0.68159062 #
3.567000000000000170530256582424 1:0 2:0 3:0.19972321 4:0 5:0 6:0.23412718 7:0.24317694 8:-0.23297811 9:0 10:-0.036121488 11:2.1863048 12:1.7165257 13:0.60566896 14:-2.0697358 15:0 16:-0.1882692 #
3.567000000000000170530256582424 1:0 2:0 3:0.19972321 4:0 5:0 6:0.55740362 7:0.18329027 8:0.14122909 9:0 10:-0.038208868 11:0.67875677 12:0.64510643 13:-0.24805254 14:-3.1748304 15:0 16:-0.60236847 #
-1 1:0 2:0 3:0.19972321 4:0 5:0 6:0.55740362 7:-1.4873983 8:-1.0296276 9:0 10:-0.03991938 11:-0.75902843 12:-0.93282139 13:-1.1020589 14:0.10393916 15:0 16:-0.47999203 #
-1 1:0 2:0 3:0.19972321 4:0 5:0 6:0.55740362 7:0.30179548 8:-0.017502541 9:0 10:-0.041959602 11:0.1770371 12:0.82328302 13:-0.75949192 14:-1.6489475 15:0 16:-0.67423165 #
-1 1:1 2:0 3:0.19972321 4:0 5:0 6:-0.50031817 7:0.76728714 8:-0.017502541 9:0 10:-0.038103808 11:1.5871083 12:1.8202695 13:0.011714069 14:-0.98495376 15:0 16:-0.73037761 #
3.567000000000000170530256582424 1:0 2:0 3:0.19972321 4:0 5:0 6:0.55740362 7:0.18329027 8:-0.017502541 9:0 10:-0.04086398 11:-0.40782467 12:-0.064378917 13:-0.19011311 14:0.4412711 15:0 16:1.7744776 #
-1 1:0 2:0 3:0.19972321 4:0 5:0 6:0.55740362 7:0.68609869 8:-0.017502541 9:0 10:-0.040198728 11:-0.98026288 12:-1.1234832 13:-0.66518772 14:0.042276338 15:0 16:1.6206667 #
-1 1:0 2:0 3:0.19972321 4:0 5:0 6:0.55740362 7:0.18329027 8:-0.017502541 9:0 10:-0.039545666 11:-0.52202559 12:-0.63274056 13:-0.51270735 14:0.12963201 15:0 16:1.9844345 #
-1 1:0 2:0 3:0.19972321 4:0 5:0 6:0.55740362 7:0.18329027 8:-0.017502541 9:0 10:-0.038198102 11:-0.33662826 12:-0.70314753 13:-0.5834322 14:0.64820427 15:0 16:1.3891782 #
-1 1:0 2:0 3:0.19972321 4:0 5:0 6:0.55740362 7:0.38932064 8:-0.017502541 9:0 10:-0.038198102 11:-0.33662826 12:-0.70314753 13:-0.5834322 14:0.30431312 15:0 16:1.3891782 #
3.567000000000000170530256582424 1:0 2:0 3:0.19972321 4:0 5:0 6:0.55740362 7:0.18329027 8:-0.017502541 9:0 10:-0.03793152 11:1.0696203 12:1.1336501 13:-0.41825339 14:-1.872173 15:0 16:-0.0066578873 #
3.567000000000000170530256582424 1:0 2:0 3:0.19972321 4:2 5:0 6:0.55740362 7:0.18329027 8:0.1609413 9:0 10:-0.039475862 11:0.75282013 12:1.1403825 13:0.32692757 14:-2.1981094 15:0 16:-0.79251975 #
3.567000000000000170530256582424 1:0 2:0 3:0.19972321 4:0 5:0 6:0.20146587 7:0.18329027 8:-0.017502541 9:0 10:-0.042001124 11:0.35335574 12:1.3917609 13:-0.023482028 14:-1.2429703 15:0 16:-0.71647739 #
-1 1:0 2:0 3:0.19972321 4:0 5:0 6:0.55740362 7:0.18329027 8:-0.017502541 9:0 10:-0.040288255 11:0.97835505 12:1.8169436 13:0.68292862 14:-0.39311156 15:0 16:-0.70375824 #
-1 1:0 2:0 3:0.19972321 4:0 5:0 6:0.55740362 7:0.18329027 8:-0.017577566 9:0 10:-0.038741939 11:0.82927269 12:0.97612393 13:0.21536404 14:-2.080663 15:0 16:-0.36097711 #
-1 1:0 2:0 3:0.19972321 4:0 5:0 6:0.11240685 7:0.18329027 8:0.30698708 9:0 10:-0.037215132 11:1.693664 12:1.4501455 13:0.76784647 14:-1.41212 15:0 16:-0.739281 #
3.567000000000000170530256582424 1:0 2:0 3:0.19972321 4:0 5:0 6:0.55740362 7:0.18329027 8:0.34152499 9:0 10:-0.041770607 11:0.64865357 12:2.2074227 13:1.199212 14:-0.98132652 15:0 16:-0.79251975 #
-1 1:0 2:0 3:0.19972321 4:0 5:0 6:0.55740362 7:0.18329027 8:-0.017474813 9:0 10:-0.036679376 11:-0.48714414 12:-1.3289354 13:-0.43172479 14:0.56846577 15:0 16:1.1948477 #
-1 1:0 2:0 3:0.19972321 4:0 5:0 6:0.55740362 7:-0.3665278 8:-0.017502541 9:0 10:-0.03998309 11:-0.79916596 12:-0.89456004 13:-0.43303147 14:0.64161479 15:0 16:1.1412456 #
-1 1:0 2:0 3:0.19972321 4:0 5:0 6:0.55740362 7:0.18329027 8:-0.1534394 9:0 10:-0.039654125 11:-0.47615409 12:-0.54108274 13:-0.49035311 14:0.39405671 15:0 16:1.2610781 #
3.567000000000000170530256582424 1:0 2:0 3:0.19972321 4:0 5:0 6:0.55740362 7:0.18329027 8:-0.017500909 9:0 10:-0.038861062 11:-0.67397499 12:-0.99306566 13:-0.91811126 14:0.65069419 15:0 16:1.5807831 #
-1 1:0 2:0 3:0.19972321 4:0 5:0 6:0.55740362 7:0.18329027 8:0.37578568 9:0 10:-0.040633719 11:1.4289471 12:2.5438178 13:0.50035042 14:-1.2676959 15:0 16:-0.73482931 #
-1 1:0 2:0 3:0.19972321 4:0 5:0 6:0.55740362 7:0.18329027 8:-0.017502541 9:0 10:-0.038186055 11:1.7634269 12:1.8227358 13:1.8018985 14:-1.8871051 15:0 16:0.1733181 #
0.70100420009828445788713224828825 1:0 2:0 3:0.19972321 4:0 5:0 6:0.55740362 7:0.18329027 8:-1.0042999 9:0 10:-0.04026987 11:0.080037974 12:0.4470447 13:-0.080304861 14:-0.50337923 15:0 16:0.8444351 #
-0.21280028037415807395937861201674 1:0 2:0 3:0.19972321 4:0 5:0 6:0.10942284 7:0.18329027 8:-0.017502541 9:0 10:-0.041194249 11:-1.0672276 12:-1.1376104 13:-1.0519881 14:-1.3135804 15:0 16:-0.63534737 #
-1 1:0 2:0 3:0.19972321 4:0 5:0 6:0.55740362 7:-0.39373782 8:-0.017502541 9:0 10:-0.037725512 11:-0.58796591 12:-1.0147973 13:-1.2502806 14:0.031273756 15:0 16:1.5880512 #
-1 1:0 2:0 3:0.19972321 4:0 5:0 6:0.55740362 7:-0.0058404356 8:-0.01737369 9:0 10:-0.036510944 11:-0.24584089 12:-0.73548794 13:-1.1895612 14:0.074467957 15:0 16:1.5323595 #
-1 1:0 2:0 3:0.19972321 4:0 5:0 6:0.55740362 7:0.18329027 8:-0.55187178 9:0 10:-0.032550555 11:-0.072867066 12:-1.0147973 13:-1.2502806 14:0.74795294 15:0 16:1.1265277 #
-1 1:0 2:0 3:0.19972321 4:0 5:0 6:-0.20758715 7:-0.046004232 8:-0.017502541 9:0 10:-0.041950911 11:1.042384 12:2.5438178 13:0.50035042 14:-0.99559361 15:0 16:-0.65942293 #
-1 1:0 2:0 3:0.19972321 4:0 5:0 6:0.55740362 7:0.18329027 8:-0.82463276 9:1 10:-0.039017987 11:1.3993218 12:1.8227358 13:1.8018985 14:-1.2649151 15:0 16:-0.67277801 #
-1 1:0 2:0 3:0.19972321 4:0 5:0 6:0.50792336 7:0.98638237 8:-0.017502541 9:0 10:-0.040433455 11:1.48772 12:2.5438178 13:0.50035042 14:-0.71641821 15:0 16:-0.4059484 #
3.567000000000000170530256582424 1:0 2:0 3:0.19972321 4:0 5:0 6:0.55740362 7:0.18329027 8:-0.017502541 9:0 10:-0.036779698 11:-0.49240026 12:-1.1479225 13:-0.87812215 14:0.53412801 15:0 16:1.0706543 #
3.567000000000000170530256582424 1:0 2:0 3:0.19972321 4:0 5:0 6:0.55740362 7:0.18329027 8:-0.017502541 9:0 10:-0.040896721 11:1.0137143 12:2.1483562 13:0.76153958 14:-1.1413476 15:0 16:-0.62517208 #
-1 1:0 2:0 3:0.19972321 4:0 5:0 6:0.41924408 7:0.18329027 8:-0.017502541 9:0 10:-0.042113949 11:0.65438753 12:2.2108548 13:0.79946297 14:-1.4948812 15:0 16:-0.17146175 #
-1 1:0 2:0 3:0.19972321 4:0 5:0 6:0.55740362 7:0.31584018 8:-0.017502541 9:0 10:-0.04095678 11:1.0987678 12:2.2950394 13:0.77357668 14:-0.031809729 15:0 16:-0.79251975 #
-1 1:0 2:0 3:0.19972321 4:0 5:0 6:0.55740362 7:0.18329027 8:0.91023809 9:0 10:-0.042631488 11:0.84265184 12:2.5438178 13:0.50035042 14:-1.1338513 15:0 16:-0.690494 #
-0.67070758153004250701201272022445 1:0 2:0 3:0.19972321 4:0 5:0 6:0.55740362 7:0.18329027 8:0.32679713 9:0 10:-0.040941153 11:1.00368 12:1.5569142 13:-1.4493254 14:-2.1913688 15:0 16:-0.78361636 #
-1 1:0 2:0 3:0.19972321 4:0 5:0 6:-1.3882772 7:0.18329027 8:-0.017502541 9:0 10:-0.039410774 11:0.076215349 12:0.20688984 13:0.86916375 14:0.58908051 15:0 16:-0.51751351 #
-1 1:0 2:0 3:0.19972321 4:0 5:0 6:0.55740362 7:0.18329027 8:-0.017603662 9:0 10:-0.034133691 11:-0.2477522 12:-1.2101678 13:-1.0261164 14:0.52871746 15:0 16:0.92538339 #
-1 1:0 2:0 3:0.19972321 4:0 5:0 6:0.55740362 7:-0.40535468 8:0.012059234 9:0 10:-0.039987344 11:-1.0290014 12:-1.3298479 13:-1.3985291 14:0.83244461 15:0 16:0.78947014 #
-1 1:0 2:0 3:0.19972321 4:0 5:0 6:0.55740362 7:0.18329027 8:-0.06935022 9:0 10:-0.034133691 11:-0.2477522 12:-1.2101678 13:-1.0261164 14:0.95107752 15:0 16:0.92538339 #
-1 1:0 2:0 3:0.19972321 4:0 5:0 6:0.55740362 7:0.18329027 8:-0.017502541 9:0 10:-0.040501412 11:1.1073687 12:2.1409082 13:0.95323783 14:-1.6004333 15:0 16:-0.66832632 #
-1 1:0 2:0 3:0.19972321 4:0 5:0 6:0.55740362 7:-0.27196509 8:-0.017502541 9:0 10:-0.0410247 11:0.95350802 12:2.0282176 13:0.42882997 14:-1.0831609 15:0 16:-0.34444222 #
3.567000000000000170530256582424 1:0 2:0 3:0.19972321 4:0 5:0 6:0.55740362 7:-0.42726606 8:-0.017502541 9:0 10:-0.03801205 11:-0.52393693 12:-1.0204678 13:-0.49356884 14:0.40221795 15:0 16:0.96626639 #
3.567000000000000170530256582424 1:0 2:0 3:0.19972321 4:0 5:0 6:0.55740362 7:0.18329027 8:-0.4941574 9:0 10:-0.034770507 11:-0.43649435 12:-1.2851435 13:-1.1389784 14:0.65394735 15:0 16:0.80209845 #
-1 1:0 2:0 3:0.19972321 4:0 5:0 6:0.55740362 7:-0.074720427 8:-0.017502541 9:0 10:-0.039698672 11:-0.89807642 12:-1.1234832 13:-0.66518772 14:0.062407438 15:0 16:0.71660757 #
-1 1:0 2:0 3:0.19972321 4:0 5:0 6:0.55740362 7:-0.80452776 8:-0.017502541 9:0 10:-0.038545907 11:-0.73943746 12:-1.1360897 13:-0.98060095 14:0.64675337 15:0 16:0.79601145 #
3.567000000000000170530256582424 1:0 2:0 3:0.19972321 4:0 5:0 6:0.55740362 7:0.18329027 8:-0.017502541 9:0 10:-0.042702343 11:0.72892874 12:2.5089247 13:0.67267227 14:-0.61403978 15:0 16:-0.42875203 #
3.567000000000000170530256582424 1:0 2:0 3:0.19972321 4:0 5:0 6:0.55740362 7:0.18329027 8:2.0890572 9:0 10:-0.038427517 11:1.7849292 12:2.100939 13:0.87954515 14:-2.4923377 15:0 16:-0.73746401 #
-1 1:0 2:0 3:0.19972321 4:0 5:0 6:0.55740362 7:0.18329027 8:-0.017502541 9:0 10:-0.040159937 11:-1.1126213 12:-1.4107747 13:-1.3046051 14:-0.92180979 15:0 16:-0.38187286 #
-1 1:0 2:0 3:0.19972321 4:0 5:0 6:0.55740362 7:-0.83325851 8:-0.017502541 9:0 10:-0.041118532 11:1.6735952 12:2.8647158 13:-0.20798758 14:-0.63102728 15:0 16:-0.73955357 #
-1 1:0 2:0 3:0.19972321 4:1 5:0 6:0.55740362 7:0.18329027 8:0.65692508 9:0 10:-0.041532338 11:0.29888332 12:1.8227358 13:1.8018985 14:-0.83811158 15:0 16:-0.79251975 #
-1 1:0 2:0 3:0.19972321 4:0 5:0 6:0.55740362 7:0.18329027 8:-0.035309736 9:0 10:-0.038408007 11:2.0821383 12:2.5438178 13:0.50035042 14:-2.2277014 15:0 16:-0.29674539 #
3.567000000000000170530256582424 1:0 2:0 3:0.19972321 4:0 5:0 6:0.55740362 7:-0.63479996 8:0.81355923 9:0 10:-0.039784212 11:-1.0777398 12:-1.3289354 13:-0.43172479 14:0.21741085 15:0 16:0.60785884 #
3.567000000000000170530256582424 1:0 2:0 3:0.19972321 4:0 5:0 6:0.55740362 7:0.18329027 8:-0.015365937 9:0 10:-0.039854396 11:-0.86176151 12:-1.0204678 13:-0.49356884 14:0.33922514 15:0 16:0.99969959 #
2.8085949828373024672600877238438 1:0 2:0 3:0.19972321 4:0 5:0 6:0.55740362 7:0.18329027 8:-0.017502541 9:0 10:-0.04075744 11:1.8503916 12:2.754209 13:-1.2263945 14:-0.78983927 15:0 16:-0.17146175 #
-1 1:0 2:0 3:0.19972321 4:0 5:0 6:0.55740362 7:-0.42010421 8:-0.017502541 9:0 10:-0.040180389 11:-0.78005284 12:-0.88085735 13:-0.84776324 14:0.60715616 15:0 16:0.50283498 #
-1 1:0 2:0 3:0.19972321 4:0 5:0 6:0.55740362 7:0.18329027 8:-0.017502541 9:0 10:-0.038687557 11:-0.80394429 12:-1.2537339 13:-0.23457678 14:0.29733071 15:0 16:0.47321755 #
3.567000000000000170530256582424 1:0 2:0 3:0.19972321 4:0 5:0 6:0.55740362 7:-0.91118866 8:0.42312202 9:0 10:-0.040142268 11:2.0821383 12:2.9156635 13:-1.7006305 14:-2.0391765 15:0 16:-0.15083855 #
1.2384628640239718766480336853419 1:0 2:0 3:0.19972321 4:0 5:0 6:-0.159192 7:0.18329027 8:-0.017502541 9:0 10:-0.041179694 11:0.45322183 12:1.8227358 13:1.8018985 14:-0.10329629 15:0 16:0.97744107 #
-1 1:0 2:0 3:0.19972321 4:0 5:0 6:0.55740362 7:0.18329027 8:1.770617 9:0 10:-0.035703752 11:2.1820045 12:1.4501455 13:0.76784647 14:-0.89064592 15:0 16:-0.3844167 #
-1 1:0 2:0 3:1.7796098 4:0 5:0 6:-0.10040706 7:-0.37824515 8:-0.017502541 9:0 10:-0.040120848 11:1.579463 12:2.5438178 13:0.50035042 14:-0.55512762 15:0 16:-0.75654274 #
3.567000000000000170530256582424 1:0 2:0 3:0.19972321 4:0 5:0 6:0.55740362 7:-0.25697887 8:-1.0167378 9:0 10:-0.04072056 11:-1.1021091 12:-1.2851435 13:-1.1389784 14:0.61864239 15:0 16:0.05939085 #
3.567000000000000170530256582424 1:0 2:0 3:0.19972321 4:0 5:0 6:0.55740362 7:0.18329027 8:-0.34801215 9:0 10:-0.037064835 11:-0.53253782 12:-1.1479225 13:-0.87812215 14:0.66096002 15:0 16:0.15732832 #
-1 1:0 2:0 3:0.19972321 4:0 5:0 6:0.55740362 7:0.59813982 8:-1.3297893 9:0 10:-0.040125418 11:-0.78291982 12:-0.93282139 13:-1.1020589 14:0.29751205 15:0 16:0.65110397 #
-1 1:0 2:0 3:0.19972321 4:0 5:0 6:0.55740362 7:0.18329027 8:-0.017502541 9:0 10:-0.040867843 11:-1.0275679 12:-1.1376104 13:-1.0519881 14:0.22194488 15:0 16:-0.10050706 #
-1 1:0 2:0 3:0.19972321 4:0 5:0 6:0.55740362 7:-0.18815707 8:-1.1931853 9:0 10:-0.040554516 11:-0.999376 12:-1.1360897 13:-0.98060095 14:-0.10335674 15:0 16:0.21928875 #
3.567000000000000170530256582424 1:0 2:0 3:0.19972321 4:0 5:0 6:0.55740362 7:0.18329027 8:0.45038736 9:1 10:-0.035355166 11:2.0673256 12:0.59802216 13:1.6992751 14:-0.087336496 15:0 16:-0.79251975 #
3.567000000000000170530256582424 1:0 2:0 3:0.19972321 4:0 5:0 6:0.55740362 7:-1.3943218 8:1.7833502 9:0 10:-0.037215833 11:1.3219136 12:0.95870554 13:0.70446557 14:0.011444927 15:0 16:-0.1919941 #
-1 1:0 2:0 3:0.19972321 4:0 5:0 6:0.55740362 7:-1.0513738 8:2.0391765 9:0 10:-0.035276402 11:2.547543 12:1.4421408 13:1.3093376 14:-0.1468381 15:0 16:-0.010564484 #
-1 1:0 2:0 3:0.19972321 4:0 5:0 6:0.55740362 7:-0.50146717 8:1.9381675 9:0 10:-0.036953982 11:2.0243211 12:1.8169436 13:0.68292862 14:-0.49355546 15:0 16:-0.52614439 #
-1 1:0 2:0 3:0.19972321 4:0 5:0 6:0.55740362 7:-0.48856765 8:0.82678175 9:0 10:-0.036532216 11:1.941179 12:1.5056609 13:0.72134429 14:-0.61315185 15:0 16:0.4318803 #
-0.13137055947244499765069747354573 1:1 2:0 3:12.724272 4:0 5:0 6:-3.3065321 7:-1.6220547 8:-0.017502541 9:0 10:-0.041871313 11:-0.71459037 12:0.2651858 13:0.90457088 14:0.0014700588 15:0 16:-0.7573604 #
-1 1:0 2:0 3:0.19972321 4:0 5:0 6:0.55740362 7:0.18329027 8:0.64445287 9:0 10:-0.040008057 11:-0.92865747 12:-1.1360897 13:-0.98060095 14:-0.097190462 15:0 16:1.4078026 #
-1 1:0 2:0 3:-2.1026402 4:0 5:0 6:0.55740362 7:-0.41039416 8:-0.017502541 9:0 10:-0.04109041 11:-0.91575611 12:-0.84227514 13:-0.694731 14:-0.51144975 15:0 16:-0.18490772 #
-1 1:0 2:0 3:0.19972321 4:0 5:0 6:0.55740362 7:0.18329027 8:-0.017502541 9:0 10:-0.040261071 11:-1.0108439 12:-1.2732815 13:-1.3962221 14:0.41455051 15:0 16:-0.10050706 #
-1 1:0 2:0 3:0.19972321 4:0 5:0 6:0.39249656 7:0.18329027 8:-0.017502541 9:0 10:-0.037485499 11:-0.92005652 12:-1.5084313 13:-1.2317252 14:0.80629081 15:0 16:0.059209149 #
-1 1:0 2:0 3:0.19972321 4:0 5:0 6:0.55740362 7:-0.25258735 8:-0.017502541 9:0 10:-0.036803033 11:-0.79868817 12:-1.4107747 13:-1.3046051 14:-0.47647727 15:0 16:0.54998672 #
3.567000000000000170530256582424 1:0 2:0 3:0.19972321 4:0 5:0 6:0.55740362 7:-0.48519433 8:-1.4586769 9:0 10:-0.03906966 11:-0.72175783 12:-1.0147973 13:-1.2502806 14:-0.15419835 15:0 16:0.64165545 #
0.63284925195747954163039139530156 1:0 2:0 3:2.0479553 4:0 5:0 6:0.55740362 7:-0.538095 8:1.5656254 9:0 10:-0.037647184 11:2.2226198 12:2.4251025 13:0.52199209 14:0.33396569 15:0 16:0.023413822 #
-0.12476803056670773828251697068481 1:0 2:0 3:0.19972321 4:0 5:0 6:-3.9348824 7:0.18329027 8:11.18971 9:0 10:-0.03860176 11:2.0252767 12:2.5438178 13:0.50035042 14:3.0072908 15:0 16:-0.79251975 #
-1 1:0 2:0 3:0.19972321 4:0 5:0 6:0.55740362 7:0.18329027 8:-0.017502541 9:0 10:-0.040161114 11:0.86797673 12:1.7832787 13:1.8228354 14:0.80462831 15:0 16:-0.79251975 #
-1 1:0 2:0 3:0.19972321 4:0 5:0 6:0.55740362 7:0.18329027 8:-0.017502541 9:0 10:-0.039405566 11:1.2296927 12:1.8227358 13:1.8018985 14:0.33039892 15:0 16:0.80446059 #
-1 1:0 2:0 3:0.19972321 4:0 5:0 6:0.12095196 7:0.44952732 8:1.1019942 9:0 10:-0.0392191 11:1.2201362 12:1.695413 13:1.5428793 14:1.1841267 15:0 16:-0.47308734 #
2.0196023562852469801498500601156 1:0 2:0 3:0.19972321 4:0 5:0 6:0.55740362 7:0.18329027 8:-0.017502541 9:0 10:-0.040458873 11:-0.82019043 12:-0.88085735 13:-0.84776324 14:0.52119094 15:0 16:0.57378972 #
-1 1:0 2:0 3:0.19972321 4:0 5:0 6:0.55740362 7:0.18329027 8:-0.017502541 9:0 10:-0.039962549 11:-0.92483485 12:-1.192946 13:-1.4259567 14:0.24661002 15:0 16:-0.37851137 #
-1 1:0 2:0 3:0.19972321 4:0 5:0 6:0.55740362 7:0.18329027 8:-0.017502541 9:0 10:-0.041903306 11:-0.97261763 12:-1.1719246 13:-1.7303125 14:0.34082717 15:0 16:-0.38886839 #
-1 1:0 2:0 3:0.19972321 4:0 5:0 6:0.55740362 7:0.18329027 8:-0.017502541 9:0 10:-0.036443774 11:-0.46038577 12:-1.0147973 13:-1.2502806 14:0.15955661 15:0 16:0.36528644 #
3.567000000000000170530256582424 1:0 2:0 3:0.19972321 4:0 5:0 6:-0.73092765 7:0.18329027 8:-0.017502541 9:0 10:-0.038195603 11:1.6387137 12:1.695413 13:1.5428793 14:0.29195032 15:0 16:0.34757048 #
3.567000000000000170530256582424 1:0 2:0 3:0.19972321 4:0 5:0 6:-0.62640601 7:0.18329027 8:-0.017502541 9:0 10:-0.040532272 11:0.73657399 12:1.8227358 13:1.8018985 14:0.47645515 15:0 16:-0.34889391 #
-1 1:0 2:0 3:2.8253779 4:0 5:0 6:-3.2713752 7:0.18911919 8:-0.017502541 9:0 10:-0.042495023 11:-0.72414696 12:-0.44746086 13:-1.048207 14:0.49181041 15:0 16:-0.79251975 #
-1 1:0 2:0 3:0.19972321 4:0 5:0 6:-0.50867343 7:0.65047985 8:-0.017502541 9:0 10:-0.039749473 11:1.0791768 12:1.8227358 13:1.8018985 14:0.74958521 15:0 16:-0.78325295 #
3.567000000000000170530256582424 1:0 2:0 3:0.19972321 4:0 5:0 6:0.20200843 7:0.18329027 8:-0.017502541 9:0 10:-0.042238764 11:-1.1322123 12:-1.1925756 13:-1.3514178 14:0.34750733 15:0 16:-0.58547014 #
-1 1:0 2:0 3:0.19972321 4:0 5:0 6:0.55740362 7:0.18329027 8:-2.6274214 9:0 10:-0.040709142 11:0.6591658 12:1.8227358 13:1.8018985 14:-0.31790709 15:0 16:0.14215618 #
-1 1:0 2:0 3:0.19972321 4:0 5:0 6:0.55740362 7:0.18329027 8:-1.9612222 9:0 10:-0.036205065 11:1.8527807 12:1.1303191 13:0.96798223 14:-0.53844237 15:0 16:-0.31582412 #
-1 1:0 2:0 3:0.19972321 4:0 5:0 6:0.55740362 7:-0.6248585 8:-0.94623971 9:1 10:-0.041093681 11:0.24584438 12:0.97305185 13:0.052752718 14:0.17001511 15:0 16:1.0831009 #
3.567000000000000170530256582424 1:0 2:0 3:0.19972321 4:0 5:0 6:0.55740362 7:1.1077148 8:-1.9342422 9:0 10:-0.039878715 11:-1.130301 12:-1.2580547 13:0.65894079 14:-0.072192833 15:0 16:0.30423453 #
2.307350436749297184491069856449 1:0 2:0 3:0.19972321 4:0 5:0 6:0.55740362 7:0.18329027 8:-2.3846495 9:0 10:-0.039148208 11:-0.73227006 12:-1.0204678 13:-0.49356884 14:-0.64423645 15:0 16:0.81863338 #
-1 1:0 2:0 3:0.19972321 4:0 5:0 6:0.55740362 7:0.071293674 8:-1.3211759 9:0 10:-0.040500134 11:-1.213921 12:-1.3289354 13:-0.43172479 14:-0.10795122 15:0 16:0.53844863 #
-1 1:0 2:0 3:0.19972321 4:0 5:0 6:0.55740362 7:0.7338118 8:-1.7093331 9:0 10:-0.03878434 11:-0.71172345 12:-1.0663027 13:-0.79685462 14:0.25192994 15:0 16:0.9855268 #
3.567000000000000170530256582424 1:0 2:0 3:0.19972321 4:0 5:0 6:0.55740362 7:0.18329027 8:-1.6152492 9:0 10:-0.039611783 11:1.4279914 12:2.1483562 13:0.76153958 14:-0.42484978 15:0 16:0.39217836 #
-1 1:0 2:0 3:0.19972321 4:0 5:0 6:0.55740362 7:0.61331117 8:-1.8683763 9:0 10:-0.036067992 11:2.5088389 12:1.695413 13:1.5428793 14:-0.095135033 15:0 16:0.82753676 #
-1 1:0 2:0 3:0.19972321 4:0 5:0 6:0.55740362 7:0.18329027 8:-1.9196367 9:0 10:-0.034993388 11:2.3315647 12:1.8202695 13:0.011714069 14:0.38710451 15:0 16:1.422248 #
-1 1:0 2:0 3:0.19972321 4:0 5:0 6:0.55740362 7:-0.060732584 8:-0.017502541 9:0 10:-0.038795512 11:1.9684151 12:2.5438178 13:0.50035042 14:0.090669565 15:0 16:1.5861434 #
1.9278191477063522096813130701776 1:0 2:0 3:0.19972321 4:0 5:0 6:0.55740362 7:1.0074844 8:-0.017502541 9:0 10:-0.031537134 11:2.8170381 12:1.3917609 13:-0.023482028 14:0.36800113 15:0 16:0.29860175 #
-1 1:0 2:0 3:0.19972321 4:0 5:0 6:0.55740362 7:0.18329027 8:-0.54473293 9:0 10:-0.036900505 11:-0.39587894 12:-0.85999852 13:-1.2612273 14:0.19506563 15:0 16:0.72941762 #
-1 1:0 2:0 3:0.19972321 4:0 5:0 6:0.55740362 7:0.18329027 8:-0.017502541 9:0 10:-0.034133691 11:-0.2477522 12:-1.2101678 13:-1.0261164 14:-0.41481444 15:0 16:0.92538339 #
-1 1:0 2:0 3:0.19972321 4:0 5:0 6:0.55740362 7:0.18329027 8:0.018359765 9:0 10:-0.036624793 11:-0.29457936 12:-0.84556305 13:-1.0349684 14:-0.0030639723 15:0 16:0.72878164 #
3.567000000000000170530256582424 1:0 2:0 3:0.19972321 4:0 5:0 6:0.55740362 7:0.23286921 8:-0.12037425 9:0 10:-0.04031752 11:1.4743408 12:2.5089247 13:0.67267227 14:0.92148542 15:0 16:1.4320599 #
3.567000000000000170530256582424 1:0 2:0 3:0.19972321 4:0 5:0 6:0.43063757 7:1.2470338 8:-0.017502541 9:0 10:-0.038848002 11:1.7467029 12:2.2396464 13:0.93190002 14:0.28242886 15:0 16:1.1441528 #
-1 1:0 2:0 3:0.19972321 4:0 5:0 6:0.55740362 7:0.18329027 8:-0.055385649 9:0 10:-0.03756991 11:2.1385221 12:2.2108548 13:0.79946297 14:1.4647833 15:0 16:1.2844268 #
-1 1:0 2:0 3:0.19972321 4:0 5:0 6:0.55740362 7:0.18329027 8:-0.04212077 9:0 10:-0.039026715 11:1.9005636 12:2.5438178 13:0.50035042 14:1.5380834 15:0 16:1.2836092 #
-0.46618089564483022879670670590713 1:0 2:0 3:0.19972321 4:0 5:0 6:0.16763809 7:2.0294032 8:-3.7696331 9:0 10:-0.040946133 11:-0.50052333 12:-0.40421844 13:-1.0648949 14:0.79262829 15:0 16:-0.35089263 #
-0.39273904138251375384172092708468 1:1 2:0 3:2.4987764 4:0 5:0 6:-2.5339999 7:-4.4897623 8:-0.01751885 9:1 10:-0.039029598 11:-0.80203295 12:-1.1360897 13:-0.98060095 14:-0.11079255 15:0 16:-0.79251975 #
-1 1:0 2:0 3:0.19972321 4:0 5:0 6:0.55740362 7:-0.16374248 8:-0.017502541 9:0 10:-0.039544843 11:-0.89138687 12:-1.192946 13:-1.4259567 14:-0.33308098 15:0 16:0.47376263 #
-1 1:0 2:0 3:0.19972321 4:0 5:0 6:0.55740362 7:0.71533859 8:-0.017502541 9:0 10:-0.037283145 11:-0.57602018 12:-1.1360897 13:-0.98060095 14:0.38160324 15:0 16:0.45477477 #
-1 1:0 2:0 3:0.19972321 4:0 5:0 6:0.55740362 7:0.18329027 8:-1.1867445 9:0 10:-0.034133691 11:-0.2477522 12:-1.2101678 13:-1.0261164 14:-0.10559353 15:0 16:0.92538339 #
3.567000000000000170530256582424 1:0 2:0 3:0.19972321 4:0 5:0 6:0.38316473 7:0.18329027 8:-0.14023976 9:0 10:-0.038790714 11:1.663083 12:2.100939 13:0.87954515 14:3.4191623 15:0 16:0.40880412 #
-1 1:0 2:1 3:0.19972321 4:0 5:0 6:0.37391433 7:0.68846703 8:0.38441199 9:0 10:-0.038990226 11:-0.25157481 12:-0.41448379 13:0.047018491 14:-0.45900616 15:1 16:-0.79251975 #
-1 1:0 2:0 3:0.19972321 4:0 5:0 6:0.55740362 7:0.12672006 8:-0.017504171 9:0 10:-0.031956639 11:2.984278 12:0.95870554 13:0.70446557 14:0.20610599 15:0 16:1.1339774 #
-1 1:0 2:0 3:0.19972321 4:0 5:0 6:0.11441427 7:1.0322323 8:-0.017500909 9:0 10:-0.035284936 11:2.2144969 12:1.4316496 13:0.55996668 14:0.44597891 15:0 16:1.4201584 #
-1 1:0 2:0 3:0.19972321 4:0 5:0 6:0.55740362 7:0.18329027 8:1.1818248 9:0 10:-0.034106452 11:2.9957459 12:1.4421408 13:1.3093376 14:0.32355252 15:0 16:2.8627827 #
3.567000000000000170530256582424 1:0 2:0 3:0.19972321 4:0 5:0 6:0.55740362 7:0.18329027 8:-0.4837386 9:0 10:-0.040259145 11:-0.78196418 12:-0.906802 13:-1.0815656 14:-0.8320058 15:0 16:0.36955646 #
3.567000000000000170530256582424 1:0 2:0 3:0.19972321 4:0 5:0 6:0.50917119 7:0.18329027 8:-0.017502541 9:0 10:-0.032677524 11:-0.20235851 12:-1.2851435 13:-1.1389784 14:-0.37606362 15:0 16:0.28397474 #
3.567000000000000170530256582424 1:0 2:0 3:0.19972321 4:0 5:0 6:-0.54941863 7:0.18329027 8:-0.017502541 9:0 10:-0.03579108 11:2.2871265 12:1.7165257 13:0.60566896 14:0.53267717 15:0 16:-0.29565519 #
-1 1:0 2:0 3:0.19972321 4:0 5:0 6:0.13158587 7:0.019121602 8:0.81731379 9:0 10:-0.041791327 11:-0.91193348 12:-0.81345892 13:-1.02385 14:-0.27522674 15:0 16:-0.34071732 #
-1 1:0 2:0 3:0.19972321 4:0 5:0 6:0.55740362 7:0.18329027 8:-1.080513 9:0 10:-0.037687112 11:-0.22242731 12:-0.3906219 13:-1.8167824 14:-0.84228289 15:0 16:0.17459002 #
-1 1:0 2:0 3:0.19972321 4:0 5:0 6:0.55740362 7:0.18329027 8:-0.44147629 9:0 10:-0.034504071 11:-0.10535938 12:-0.3906219 13:-1.8167824 14:-0.6948967 15:0 16:0.142883 #
-0.80256245135507242594030685722828 1:0 2:0 3:0.19972321 4:0 5:0 6:0.55740362 7:0.18329027 8:-1.3425175 9:1 10:-0.037375305 11:-0.21095942 12:-0.3906219 13:-1.8167824 14:-0.75087684 15:0 16:-0.13157813 #
1.2304852617809238779500446980819 1:0 2:0 3:0.19972321 4:0 5:0 6:0.55740362 7:0.18329027 8:-0.017474813 9:0 10:-0.033294555 11:3.2012122 12:0.81322533 13:1.8511297 14:0.74124259 15:0 16:1.9400991 #
3.567000000000000170530256582424 1:0 2:0 3:0.081424288 4:0 5:0 6:0.55740362 7:0.24994738 8:-0.017502541 9:0 10:-0.030803319 11:3.1816211 12:0.1482095 13:1.1610347 14:0.048563529 15:0 16:0.42515731 #
-1 1:0 2:0 3:0.19972321 4:0 5:0 6:0.55740362 7:0.18329027 8:-1.0173608 9:0 10:-0.027912986 11:4.3327093 12:0.95593786 13:0.76246476 14:-0.024011197 15:0 16:1.6632758 #
-1 1:0 2:0 3:0.19972321 4:0 5:0 6:0.55740362 7:0.18329027 8:0.35525635 9:0 10:-0.028628588 11:4.1019182 12:0.95593786 13:0.76246476 14:0.21396498 15:0 16:1.780383 #
-1 1:0 2:0 3:0.19972321 4:0 5:0 6:0.55740362 7:-0.13540845 8:-0.017502541 9:0 10:-0.032590333 11:2.8242056 12:0.95593786 13:0.76246476 14:-0.06853538 15:0 16:0.93074358 #
3.567000000000000170530256582424 1:0 2:0 3:0.19972321 4:0 5:0 6:0.55740362 7:0.18329027 8:-0.017502541 9:0 10:-0.03936886 11:-0.54543918 12:-0.75022489 13:-1.8469979 14:-0.46118248 15:0 16:-0.53077781 #
-1 1:0 2:0 3:0.19972321 4:0 5:0 6:0.55740362 7:0.38964063 8:-0.017502541 9:0 10:-0.041100278 11:-0.92387915 12:-1.0147973 13:-1.2502806 14:-0.31113628 15:0 16:-0.21952197 #
-1 1:0 2:0 3:0.19972321 4:0 5:0 6:0.55740362 7:0.18329027 8:-0.017502541 9:0 10:-0.03974653 11:-0.78913158 12:-1.0147973 13:-1.2502806 14:-0.81084698 15:0 16:-0.31346199 #
1.6630016901935762430042586856871 1:0 2:0 3:0.19972321 4:0 5:0 6:0.55740362 7:0.18329027 8:0.20959713 9:0 10:-0.037428305 11:2.2312207 12:2.2396464 13:0.93190002 14:-0.022106903 15:0 16:1.7782025 #
3.567000000000000170530256582424 1:0 2:0 3:0.19972321 4:0 5:0 6:0.55740362 7:0.18329027 8:-0.017504171 9:0 10:-0.033599142 11:3.4047668 12:2.100939 13:0.87954515 14:0.71509635 15:0 16:2.5611572 #
0.90300680754120410398400053963996 1:0 2:0 3:0.19972321 4:0 5:0 6:0.55740362 7:0.18329027 8:1.8160272 9:0 10:-0.037410393 11:2.6531432 12:2.3977208 13:2.4786394 14:0.23711877 15:0 16:1.6509202 #
-1 1:0 2:0 3:0.19972321 4:0 5:0 6:0.55740362 7:0.18329027 8:-0.017502541 9:0 10:-0.040045951 11:1.6014431 12:2.5438178 13:0.50035042 14:-0.10752805 15:0 16:2.0820994 #
-1 1:0 2:0 3:0.19972321 4:0 5:0 6:0.55740362 7:0.18329027 8:-0.62481636 9:0 10:-0.040827051 11:0.60756034 12:1.8227358 13:1.8018985 14:1.014433 15:0 16:0.8804121 #
3.567000000000000170530256582424 1:0 2:0 3:0.19972321 4:0 5:0 6:0.1124611 7:0.18329027 8:-0.017502541 9:0 10:-0.03991038 11:-0.6806646 12:-0.82368046 13:-1.0760165 14:0.0097522223 15:0 16:-0.37106159 #
3.567000000000000170530256582424 1:0 2:0 3:0.19972321 4:0 5:0 6:-0.27139065 7:0.18329027 8:-0.017502541 9:0 10:-0.038241204 11:-0.59178853 12:-0.95730513 13:-1.1951374 14:-0.36590737 15:0 16:-0.24686815 #
-1 1:0 2:0 3:0.19972321 4:0 5:0 6:0.35622731 7:0.18329027 8:-0.017502541 9:0 10:-0.039209973 11:-0.86176151 12:-1.1891179 13:-1.4306651 14:-0.4684974 15:0 16:0.023686375 #
-1 1:0 2:0 3:0.19972321 4:0 5:0 6:0.47322747 7:0.18329027 8:-0.017502541 9:0 10:-0.040961064 11:-0.91002214 12:-1.0147973 13:-1.2502806 14:-0.366391 15:0 16:-0.51451546 #
-0.12146865205499922379939192751408 1:0 2:0 3:0.19972321 4:0 5:0 6:0.55740362 7:0.18329027 8:-1.1756831 9:0 10:-0.040719226 11:-0.29362372 12:0.083049253 13:-0.047467113 14:-1.3280892 15:0 16:-0.77035213 #
-1 1:0 2:0 3:0.19972321 4:0 5:0 6:-0.38212439 7:0.18329027 8:-0.017502541 9:0 10:-0.038689837 11:-0.73227006 12:-1.1234832 13:-0.66518772 14:-0.47786772 15:0 16:-0.75263613 #
-1 1:0 2:0 3:0.19972321 4:0 5:0 6:0.55740362 7:0.18329027 8:-0.017502541 9:0 10:-0.040045951 11:1.6014431 12:2.5438178 13:0.50035042 14:0.41690823 15:0 16:2.0820994 #
-1 1:0 2:0 3:0.19972321 4:0 5:0 6:-0.33448881 7:0.18329027 8:1.215358 9:0 10:-0.041544251 11:-1.1097543 12:-1.1376104 13:-1.0519881 14:1.3972867 15:0 16:0.32540283 #
3.567000000000000170530256582424 1:0 2:0 3:0.19972321 4:0 5:0 6:0.55740362 7:0.18329027 8:-0.017502541 9:0 10:-0.040995844 11:-0.75855058 12:-0.82834744 13:-1.3448235 14:-0.59000939 15:0 16:-0.75699699 #
-1 1:0 2:0 3:0.19972321 4:0 5:0 6:0.55740362 7:0.18329027 8:-0.017476443 9:0 10:-0.039833475 11:1.075832 12:1.8391675 13:1.5120353 14:0.19376588 15:0 16:1.064749 #
-1 1:0 2:0 3:0.19972321 4:0 5:0 6:0.55740362 7:-0.41473281 8:-0.30101341 9:0 10:-0.04029838 11:1.2473724 12:2.2108548 13:0.79946297 14:0.10575277 15:0 16:0.77311695 #
-1 1:0 2:1 3:0.19972321 4:0 5:0 6:0.48841879 7:0.18329027 8:0.52660698 9:0 10:-0.038652651 11:-0.97166198 12:-1.4107747 13:-1.3046051 14:-0.98132652 15:0 16:-0.79251975 #
-1 1:0 2:0 3:0.19972321 4:0 5:0 6:0.55740362 7:0.18329027 8:-0.017502541 9:0 10:-0.041903306 11:-0.97261763 12:-1.1719246 13:-1.7303125 14:-0.1637198 15:0 16:-0.38886839 #
-1 1:0 2:0 3:0.19972321 4:0 5:0 6:0.18367034 7:0.18329027 8:-0.017502541 9:0 10:-0.039464001 11:-1.1126213 12:-1.5138996 13:-1.6070154 14:-0.69105786 15:0 16:-0.33562967 #
-1 1:0 2:0 3:0.19972321 4:0 5:0 6:0.13093482 7:0.18329027 8:0.1482228 9:0 10:-0.041964263 11:-0.97882938 12:-1.0824997 13:-1.5093967 14:-0.15431926 15:0 16:-0.79251975 #
-1 1:0 2:0 3:0.19972321 4:0 5:1 6:0.55740362 7:-1.3768206 8:-2.288023 9:0 10:-0.041022494 11:-1.124567 12:-0.30572897 13:2.27226 14:0.15260443 15:0 16:0.90603209 #
3.567000000000000170530256582424 1:0 2:0 3:0.19972321 4:0 5:0 6:0.55740362 7:0.18329027 8:-0.017502541 9:0 10:-0.040357381 11:-1.158015 12:-1.4788177 13:-1.4758596 14:-0.43978184 15:0 16:-0.62835187 #
-1 1:0 2:0 3:0.19972321 4:0 5:0 6:-0.078406803 7:0.18329027 8:-0.017502541 9:0 10:-0.036676157 11:1.8107319 12:1.0379585 13:1.6492422 14:0.56960684 15:0 16:1.1948477 #
-1 1:0 2:0 3:0.19972321 4:0 5:0 6:0.55740362 7:0.18329027 8:0.24012119 9:0 10:-0.037395205 11:1.9899175 12:2.0282176 13:0.42882997 14:-0.46762082 15:0 16:1.3501122 #
3.567000000000000170530256582424 1:0 2:0 3:0.19972321 4:0 5:0 6:0.38075042 7:0.18329027 8:0.61727887 9:0 10:-0.041702308 11:-1.1231335 12:-1.3568732 13:-1.6407719 14:-0.79827261 15:0 16:-0.39450115 #
3.567000000000000170530256582424 1:0 2:0 3:0.19972321 4:1 5:0 6:0.55740362 7:0.18329027 8:-0.017502541 9:0 10:-0.039589584 11:-0.59131068 12:-0.75632721 13:-1.1225536 14:-0.41928804 15:0 16:-0.79251975 #
-0.86103850511894508557020344596822 1:0 2:0 3:0.19972321 4:0 5:0 6:-3.8023927 7:0.18329027 8:-0.017502541 9:0 10:-0.040962547 11:-0.30604723 12:0.11614635 13:-0.14851508 14:2.8809426 15:0 16:-0.79251975 #
-1 1:0 2:0 3:0.19972321 4:0 5:0 6:0.55740362 7:0.18329027 8:0.36157808 9:0 10:-0.035186063 11:1.9870505 12:0.95593786 13:0.76246476 14:-0.37207365 15:0 16:1.9400991 #
-1 1:0 2:0 3:0.19972321 4:0 5:0 6:0.55740362 7:0.18329027 8:-0.017522112 9:0 10:-0.03960301 11:-1.0605381 12:-1.4107747 13:-1.3046051 14:0.42337677 15:0 16:-0.33708328 #
-1 1:0 2:0 3:0.19972321 4:0 5:0 6:0.30048063 7:0.18329027 8:-0.017502541 9:0 10:-0.041802842 11:-1.1393797 12:-1.2732815 13:-1.3962221 14:0.42603675 15:0 16:-0.78661442 #
-0.26232930059442943759862032493402 1:0 2:0 3:-5.9640083 4:0 5:1 6:0.55740362 7:-0.54961401 8:-0.017502541 9:0 10:-0.03865296 11:0.86893243 12:0.95593786 13:0.76246476 14:0.47442997 15:0 16:-0.52696204 #
-1 1:0 2:0 3:0.19972321 4:0 5:0 6:0.55740362 7:0.18329027 8:-0.017502541 9:0 10:-0.039983615 11:1.0739207 12:1.8169436 13:0.68292862 14:0.14196457 15:0 16:1.384999 #
0.62758318543409929990417595035979 1:0 2:0 3:0.19972321 4:0 5:0 6:0.55740362 7:-1.8238455 8:-1.7509414 9:0 10:-0.039870217 11:1.3921543 12:2.3977208 13:2.4786394 14:-0.17106494 15:0 16:0.88568145 #
-1 1:0 2:0 3:0.19972321 4:0 5:0 6:0.55740362 7:0.18329027 8:-0.017561255 9:0 10:-0.039823983 11:1.1145362 12:1.8154131 13:0.79732019 14:0.42410222 15:0 16:0.4199788 #
-1 1:0 2:0 3:0.19972321 4:0 5:0 6:0.55740362 7:0.82877254 8:-0.017502541 9:0 10:-0.041486036 11:0.60899383 12:2.0192704 13:1.2311261 14:-0.80407614 15:0 16:0.5110116 #
-1 1:0 2:0 3:0.19972321 4:0 5:0 6:0.5539313 7:0.18329027 8:-0.017502541 9:0 10:-0.042235378 11:0.6147278 12:2.2108548 13:0.79946297 14:0.5616647 15:0 16:0.32985452 #
-1 1:0 2:0 3:0.19972321 4:0 5:0 6:0.55740362 7:0.18329027 8:0.41035134 9:0 10:-0.038429905 11:1.0376058 12:1.0928288 13:0.72637773 14:-0.098701805 15:0 16:-0.79251975 #
-1 1:0 2:0 3:0.19972321 4:0 5:0 6:0.55740362 7:0.18329027 8:-0.017502541 9:0 10:-0.041365769 11:-1.2253888 12:-1.4107747 13:-1.3046051 14:0.70170581 15:0 16:-0.79251975 #
-1 1:0 2:0 3:0.51888019 4:0 5:0 6:0.55740362 7:0.066321634 8:-0.017502541 9:0 10:-0.04221696 11:-1.258359 12:-1.3475605 13:-1.306391 14:0.37894326 15:0 16:-0.65042865 #
-1 1:0 2:0 3:-0.10962804 4:0 5:0 6:0.48991078 7:-2.2457776 8:-0.022217745 9:0 14:0.58970016 15:0 16:-0.43947244 #
-1 1:0 2:0 3:0.19972321 4:0 5:0 6:0.55740362 7:-0.97038376 8:-0.03457579 9:0 10:-0.040165279 11:-1.0399914 12:-1.2851435 13:-1.1389784 14:-1.2487739 15:0 16:-0.044451937 #
3.567000000000000170530256582424 1:0 2:0 3:0.19972321 4:0 5:0 6:0.55740362 7:0.18329027 8:-0.017482968 9:0 10:-0.038074896 11:1.9234993 12:2.1483562 13:0.76153958 14:-0.55990344 15:0 16:0.7955572 #
-1 1:0 2:0 3:0.19972321 4:0 5:0 6:0.55740362 7:0.54566097 8:-0.017502541 9:0 10:-0.03746485 11:1.5603498 12:1.4316496 13:0.55996668 14:-0.40392524 15:0 16:0.62920886 #
-1 1:0 2:0 3:0.19972321 4:0 5:0 6:0.55740362 7:1.3618562 8:0.39848584 9:0 10:-0.03705376 11:2.252723 12:2.1483562 13:0.76153958 14:-0.53203428 15:0 16:1.2303705 #
-1 1:0 2:0 3:0.19972321 4:0 5:0 6:-0.36826235 7:0.72397482 8:-0.017502541 9:0 10:-0.039558239 11:1.3061452 12:1.9790295 13:1.1249031 14:-0.32395247 15:0 16:1.0203228 #
3.567000000000000170530256582424 1:0 2:0 3:0.19972321 4:0 5:0 6:0.16017808 7:0.18329027 8:-0.017502541 9:0 10:-0.040908501 11:-1.1231335 12:-1.2851435 13:-1.1389784 14:0.42216769 15:0 16:-0.77925551 #
-1 1:0 2:0 3:0.19972321 4:0 5:0 6:0.55740362 7:-0.61948311 8:-0.017502541 9:0 10:-0.03095663 11:2.4811249 12:0.37170789 13:0.27359006 14:-0.11375479 15:0 16:0.79310423 #
-1 1:0 2:0 3:0.19972321 4:0 5:0 6:-0.0074959565 7:0.18329027 8:-0.017502541 9:0 10:-0.042215548 11:-1.269349 12:-1.2851435 13:-1.1389784 14:0.70170581 15:0 16:-0.36660987 #
-1 1:0 2:0 3:0.19972321 4:0 5:0 6:-0.058983631 7:0.18329027 8:-0.24525134 9:0 10:-0.040820647 11:-1.197197 12:-1.4438732 13:-1.3117663 14:1.1225244 15:0 16:-0.51269841 #
-1 1:0 2:0 3:0.19972321 4:0 5:0 6:0.40671128 7:0.18329027 8:-0.017502541 9:0 10:-0.041264251 11:-0.94299227 12:-1.1719246 13:-1.7303125 14:0.70170581 15:0 16:-0.79251975 #
-0.2152882770265453493685470220953 1:0 2:0 3:-6.9984856 4:0 5:1 6:0.55740362 7:-0.3585355 8:-0.017502541 9:0 10:-0.041132849 11:-0.69786638 12:-0.64518851 13:-1.0673534 14:-0.32419428 15:0 16:-0.71802187 #
-1 1:0 2:0 3:0.19972321 4:0 5:0 6:0.55740362 7:1.0322323 8:-0.017502541 9:0 10:-0.035284936 11:2.2144969 12:1.4316496 13:0.55996668 14:0.038558435 15:0 16:1.4201584 #
-1 1:0 2:0 3:0.19972321 4:0 5:0 6:0.55740362 7:0.18329027 8:-0.017502541 9:0 10:-0.036791094 11:1.4891535 12:1.1403825 13:0.32692757 14:-0.17644532 15:0 16:1.2468145 #
1.5091912675703569313157004216919 1:0 2:0 3:-1.6059968 4:0 5:0 6:0.55740362 7:0.74961919 8:-0.017466659 9:0 10:-0.040098131 11:-0.49048895 12:-0.45974696 13:-0.56792176 14:0.030971488 15:0 16:0.58596373 #
-1 1:0 2:0 3:-0.55505139 4:0 5:0 6:0.55740362 7:0.20626746 8:-0.017513957 9:0 10:-0.041742247 11:-1.0748729 12:-1.2006861 13:-1.4193259 14:0.35374916 15:0 16:-0.739281 #
-1 1:0 2:0 3:0.19972321 4:0 5:0 6:0.55740362 7:0.18329027 8:-0.017502541 9:0 10:-0.040019132 11:-0.9300909 12:-1.1360897 13:-0.98060095 14:0.48008239 15:0 16:-0.79251975 #
-1 1:0 2:0 3:0.19972321 4:0 5:0 6:0.33167708 7:0.18329027 8:-0.017502541 9:0 10:-0.040956262 11:-0.90954429 12:-1.0147973 13:-1.2502806 14:0.42603675 15:0 16:-0.79251975 #
3.567000000000000170530256582424 1:0 2:0 3:0.19972321 4:0 5:0 6:0.55740362 7:0.18329027 8:0.024719013 9:0 10:-0.034684651 11:2.3535447 12:1.1566004 13:0.88066667 14:0.18869533 15:0 16:2.1235275 #
3.567000000000000170530256582424 1:0 2:0 3:0.19972321 4:0 5:0 6:0.55740362 7:0.18329027 8:0.36293507 9:0 10:-0.037419509 11:1.4972765 12:1.1364127 13:1.2750198 14:-0.65971261 15:0 16:0.78601784 #
-1 1:0 2:0 3:-1.861623 4:0 5:0 6:0.55740362 7:0.18329027 8:-0.017502541 9:0 10:-0.038118191 11:2.1671917 12:2.5438178 13:0.50035042 14:-0.862414 15:0 16:-0.20616686 #
-1 1:0 2:0 3:0.19972321 4:0 5:0 6:0.55740362 7:-0.021912301 8:-0.017502541 9:0 10:-0.037565477 11:1.5603498 12:1.4627101 13:0.60273641 14:0.13795951 15:0 16:0.66554928 #
1.5178278753313396709501148507115 1:0 2:0 3:0.19972321 4:0 5:0 6:0.038349234 7:0.071605749 8:0.002186825 9:0 10:-0.036397927 11:1.5445815 12:1.0489702 13:0.37310898 14:0.42869669 15:0 16:0.44032943 #
-1 1:0 2:0 3:0.19972321 4:0 5:0 6:0.38983807 7:0.18329027 8:-0.017502541 9:0 10:-0.041079637 11:-1.1986305 12:-1.4107747 13:-1.3046051 14:0.39701894 15:0 16:-0.79251975 #
3.567000000000000170530256582424 1:0 2:0 3:0.19972321 4:0 5:0 6:0.55740362 7:0.18329027 8:-0.33640271 9:0 10:-0.040181112 11:-1.1532367 12:-1.3289354 13:-0.43172479 14:0.66362 15:0 16:-0.73455679 #
-1 1:0 2:0 3:0.19972321 4:0 5:0 6:-0.12905353 7:0.18329027 8:-0.017502541 9:0 10:-0.04057632 11:-1.1432023 12:-1.3847601 13:-1.2368957 14:0.35748219 15:0 16:-0.78806806 #
-0.44106444795364130317949502568808 1:0 2:0 3:0.19972321 4:1 5:0 6:0.55740362 7:0.18329027 8:0.86465997 9:0 14:-1.2753131 15:0 16:-0.79251975 #
-1 1:0 2:0 3:0.19972321 4:0 5:0 6:0.41441542 7:0.030717306 8:-0.017502541 9:0 10:-0.032613505 11:2.3487666 12:0.20688984 13:0.86916375 14:0.15719892 15:0 16:1.4729428 #
0.54626816124454680156929953227518 1:0 2:0 3:0.19972321 4:0 5:0 6:0.55740362 7:0.18329027 8:-0.017502541 9:0 10:-0.041023448 11:-1.0213561 12:-1.1478651 13:-1.2102864 14:0.52741766 15:0 16:-0.77925551 #
-1 1:0 2:0 3:0.19972321 4:0 5:0 6:0.55740362 7:0.24119341 8:-0.062782206 9:0 10:-0.037985545 11:1.4041001 12:1.4316496 13:0.55996668 14:0.87909222 15:0 16:0.762124 #
-1 1:0 2:0 3:0.19972321 4:0 5:0 6:0.55740362 7:0.18329027 8:-0.017502541 9:0 10:-0.039213601 11:0.89521295 12:1.2400482 13:0.72069353 14:0.39683756 15:0 16:0.7489506 #
-1 1:0 2:0 3:0.19972321 4:0 5:0 6:0.55740362 7:0.60036004 8:-0.017502541 9:0 10:-0.035402868 11:1.7142105 12:0.90102202 13:0.37156793 14:-0.18684337 15:0 16:0.90939361 #
3.567000000000000170530256582424 1:0 2:0 3:-0.69613129 4:0 5:0 6:0.26944697 7:-0.80655622 8:-0.017502541 9:0 10:-0.041756928 11:-1.2502358 12:-1.5138996 13:-1.6070154 14:-0.42599839 15:0 16:-0.52523589 #
3.567000000000000170530256582424 1:0 2:0 3:0.19972321 4:0 5:0 6:0.55740362 7:0.18329027 8:-0.017502541 9:0 10:-0.039413352 11:-0.61806911 12:-0.817141 13:-1.0311041 14:-0.4420791 15:0 16:-0.26458412 #
-1 1:0 2:0 3:-0.57133603 4:0 5:0 6:0.55740362 7:-0.10965696 8:-0.017502541 9:0 10:-0.039213888 11:-0.86940676 12:-1.1989038 13:-1.3919486 14:0.23305327 15:0 16:-0.42302841 #
-1 1:0 2:0 3:0.19972321 4:0 5:0 6:-0.066633537 7:0.57044584 8:1.0700037 9:0 10:-0.040406249 11:-0.091980197 12:0.2793093 13:0.055232536 14:-0.088424668 15:0 16:-0.52632606 #
-1 1:0 2:0 3:0.19972321 4:0 5:0 6:-0.19923194 7:0.18329027 8:-0.017502541 9:0 10:-0.038996119 11:-0.35526356 12:-0.54108274 13:-0.49035311 14:0.77811939 15:0 16:0.32540283 #
-1 1:0 2:0 3:0.19972321 4:0 5:0 6:0.55740362 7:0.18329027 8:-0.017502541 9:0 10:-0.040232673 11:-0.3070029 12:-0.26449075 13:-1.1165785 14:0.4945913 15:0 16:-0.37260604 #
-1 1:0 2:0 3:0.19972321 4:0 5:0 6:0.55740362 7:0.18329027 8:-1.0482355 9:0 10:-0.038659893 11:0.52011776 12:0.55565977 13:-0.22196151 14:-1.546418 15:0 16:-0.739281 #
3.567000000000000170530256582424 1:0 2:0 3:0.19972321 4:0 5:0 6:0.55740362 7:0.18329027 8:-2.8899462 9:1 10:-0.037948746 11:-0.34284002 12:-0.78307414 13:-0.5185501 14:-0.2235388 15:0 16:0.28615516 #
3.567000000000000170530256582424 1:0 2:0 3:0.19972321 4:0 5:0 6:0.55740362 7:0.18329027 8:-2.4788427 9:1 10:-0.040600501 11:-0.53492695 12:-0.39362058 13:-0.53894186 14:0.96975774 15:0 16:-0.7011236 #
-1 1:0 2:0 3:0.19972321 4:1 5:0 6:0.55740362 7:0.18329027 8:-0.017502541 9:0 10:-0.038528711 11:0.05423525 12:-0.15151952 13:0.076378509 14:-0.58910263 15:0 16:-0.79251975 #
-1 1:0 2:0 3:0.19972321 4:0 5:0 6:0.55740362 7:0.67096174 8:-2.3658948 9:0 10:-0.0405268 11:-0.8249687 12:-0.84227514 13:-0.694731 14:0.3459053 15:0 16:0.40725964 #
3.567000000000000170530256582424 1:0 2:0 3:0.19972321 4:0 5:0 6:0.24668714 7:0.18096294 8:0.58447629 9:0 10:-0.042230841 11:-0.41451424 12:0.085683815 13:-0.72200263 14:-3.0301948 15:0 16:-0.7428242 #
-1 1:0 2:0 3:0.19972321 4:0 5:0 6:0.55740362 7:-0.10989366 8:-1.3120995 9:0 10:-0.03911623 11:-0.58509892 12:-0.82467371 13:-0.72475725 14:0.4802033 15:0 16:-0.26749134 #
-1 1:0 2:0 3:0.19972321 4:0 5:0 6:0.55740362 7:-0.71446764 8:-1.2801434 9:0 10:-0.035462461 11:0.15792398 12:-0.40421844 13:-1.0648949 14:-0.043235488 15:0 16:0.70824927 #
-1 1:0 2:0 3:0.47179514 4:0 5:0 6:0.55740362 7:0.052089158 8:-1.7190896 9:1 10:-0.033995509 11:-0.21669337 12:-1.0147973 13:-1.2502806 14:0.036714595 15:0 16:0.17740642 #
3.567000000000000170530256582424 1:0 2:0 3:0.19972321 4:0 5:0 6:0.55740362 7:0.32538757 8:1.1321137 9:0 10:-0.03889703 11:-0.66107363 12:-0.95730513 13:-1.1951374 14:0.31987995 15:0 16:6.0035954 #
-1 1:0 2:0 3:0.19972321 4:0 5:0 6:0.55740362 7:0.69567651 8:1.2066126 9:0 10:-0.036781125 11:0.2157412 12:-0.13214357 13:-0.99656987 14:0.1472165 15:0 16:6.2164598 #
-1 1:0 2:0 3:0.19972321 4:0 5:0 6:0.55740362 7:-0.77120316 8:0.93340635 9:0 10:-0.03959677 11:-0.20904811 12:-0.15151952 13:0.076378509 14:0.21197002 15:0 16:6.1632209 #
-1 1:0 2:0 3:0.19972321 4:0 5:0 6:0.55740362 7:0.83435154 8:1.1336044 9:0 10:-0.03956202 11:0.327553 12:0.55565977 13:-0.22196151 14:0.20991458 15:0 16:3.9984212 #
-1 1:0 2:0 3:-2.4318235 4:0 5:0 6:0.55740362 7:0.18329027 8:-0.017502541 9:0 10:-0.040342208 11:-0.82544655 12:-0.92360747 13:-0.91723269 14:-0.52641207 15:0 16:-0.20226027 #
3.567000000000000170530256582424 1:0 2:0 3:0.19972321 4:0 5:0 6:0.55740362 7:-0.78174102 8:-0.99347168 9:0 10:-0.036220439 11:-0.12064989 12:-0.62180626 13:-1.154174 14:0.2463682 15:0 16:0.31677198 #
-1 1:0 2:0 3:0.19972321 4:0 5:0 6:0.097947977 7:-0.86365676 8:1.8062901 9:0 10:-0.041360583 11:0.64196396 12:1.8169436 13:0.68292862 14:-0.14304462 15:0 16:-0.60127825 #
-1 1:0 2:0 3:0.19972321 4:0 5:0 6:0.55740362 7:-0.21930505 8:-0.78316963 9:0 10:-0.038152758 11:-0.63049263 12:-1.0147973 13:-1.2502806 14:0.74716705 15:0 16:0.4153454 #
-1 1:0 2:0 3:0.19972321 4:0 5:0 6:0.55740362 7:-0.43342689 8:-1.0526376 9:0 10:-0.040443055 11:-0.71220124 12:-0.8211239 13:-1.2872918 14:-0.031839956 15:0 16:-0.50933695 #
3.567000000000000170530256582424 1:0 2:0 3:0.19972321 4:0 5:0 6:0.55740362 7:0.18329027 8:1.2731621 9:0 10:-0.0390228 11:1.0743985 12:1.4049681 13:0.62234551 14:0.30561286 15:0 16:5.0275822 #
3.567000000000000170530256582424 1:0 2:0 3:0.19972321 4:0 5:0 6:0.55740362 7:0.18329027 8:-1.0926378 9:0 10:-0.040461533 11:-0.92053437 12:-1.0002388 13:-0.75699085 14:0.79565096 15:0 16:-0.69712615 #
-1 1:0 2:0 3:0.19972321 4:0 5:0 6:0.55740362 7:0.18329027 8:1.0764918 9:0 10:-0.035420451 11:1.4103118 12:0.20688984 13:0.86916375 14:-0.030086799 15:0 16:4.6372862 #
-1 1:0 2:0 3:0.19972321 4:0 5:0 6:-1.2684828 7:0.18329027 8:-0.017505802 9:0 10:-0.036405805 11:-0.011227219 12:-0.56519574 13:-0.86426479 14:-0.023739155 15:0 16:-0.79251975 #
-1 1:0 2:0 3:0.19972321 4:0 5:0 6:0.55740362 7:0.22880298 8:1.7011676 9:1 10:-0.03768241 11:1.0777433 12:0.90102202 13:0.37156793 14:-0.060615942 15:0 16:5.3647308 #
3.567000000000000170530256582424 1:0 2:0 3:0.19972321 4:0 5:0 6:0.55740362 7:0.18329027 8:-1.2266697 9:0 10:-0.040841687 11:-0.66298497 12:-0.64518851 13:-1.0673534 14:0.78622019 15:0 16:-0.26113176 #
-1 1:0 2:0 3:0.19972321 4:0 5:0 6:0.55740362 7:-0.0069062514 8:-0.50173175 9:0 10:-0.038384803 11:-0.60277861 12:-0.9724831 13:-1.0189759 14:0.67849159 15:0 16:-0.41884926 #
-1 1:0 2:0 3:0.19972321 4:0 5:0 6:0.55740362 7:0.18329027 8:-1.4194499 9:0 10:-0.039974865 11:-0.94347012 12:-1.1234832 13:-0.66518772 14:0.760346 15:0 16:-0.27121624 #
-1 1:0 2:0 3:0.19972321 4:0 5:0 6:0.55740362 7:0.18329027 8:-0.23153141 9:0 10:-0.039579749 11:-0.87322938 12:-1.1360897 13:-0.98060095 14:1.095562 15:0 16:0.021505948 #
3.395756838658225529314904633793 1:0 2:0 3:0.19972321 4:0 5:0 6:0.55740362 7:0.33921671 8:0.97818369 9:0 10:-0.033830732 11:2.2618017 12:1.0489702 13:0.37310898 14:0.67389709 15:0 16:5.4002533 #
-0.11790763389439753994203385900619 1:1 2:0 3:0.19972321 4:0 5:0 6:-3.6116602 7:-0.1661637 8:-0.017502541 9:0 10:-0.040069081 11:-1.1489363 12:-1.5138996 13:-1.6070154 14:-0.11079255 15:0 16:-0.79251975 #
-1 1:0 2:0 3:0.19972321 4:0 5:0 6:0.55740362 7:0.18329027 8:1.357442 9:0 10:-0.037259899 11:0.96210891 12:0.6973092 13:-0.032398712 14:0.59388655 15:0 16:5.93255 #
-1 1:0 2:0 3:0.19972321 4:0 5:0 6:0.55740362 7:0.18329027 8:0.97764057 9:0 10:-0.034948368 11:2.6732118 12:1.4421408 13:1.3093376 14:0.53297943 15:0 16:5.8438792 #
-1 1:0 2:0 3:0.19972321 4:0 5:0 6:0.55740362 7:0.18329027 8:1.1635772 9:0 10:-0.041388307 11:0.89139032 12:2.2108548 13:0.79946297 14:0.35782981 15:0 16:4.3001375 #
