SVM-light Version V6.02
0 # kernel type
3 # kernel parameter -d 
1 # kernel parameter -g 
1 # kernel parameter -s 
1 # kernel parameter -r 
empty# kernel parameter -u 
5 # highest feature index 
20125 # number of training documents 
6490 # number of support vectors plus 1 
-0.79994256 # threshold b, each following line is a SV (starting with alpha*y)
-31.622779999999998779003362869844 1:6 2:1.62559 3:0.89408702 4:1.64215 5:3.0938101 #
-31.622779999999998779003362869844 1:2 2:1.82911 3:1.06621 4:0.24424399 5:2.08952 #
31.243306640000000129475665744394 1:-1 2:1.65644 3:1.04018 4:1.36966 5:3.08113 #
31.243306640000000129475665744394 1:-7 2:1.83175 3:1.0678101 4:-1.71542 5:0 #
31.243306640000000129475665744394 1:-7 2:1.83175 3:1.0678101 4:-1.51933 5:0.209396 #
31.243306640000000129475665744394 1:-5 2:1.91186 3:1.12249 4:-1.62131 5:0.0919533 #
-31.622779999999998779003362869844 1:2 2:1.88896 3:1.11919 4:-0.39476401 5:1.44714 #
-31.622779999999998779003362869844 1:5 2:1.12769 3:0.91838598 4:2.1075399 5:3.06323 #
-31.622779999999998779003362869844 1:10 2:1.91395 3:1.01327 4:-0.32469699 5:1.58494 #
-31.622779999999998779003362869844 1:1 2:1.31198 3:1.07857 4:0.180545 5:1.5067199 #
31.243306640000000129475665744394 1:1 2:1.93402 3:0.85155499 4:0.64845401 5:2.4862199 #
-31.622779999999998779003362869844 1:-2 2:1.0771199 3:0.83791 4:-0.199338 5:0.91009402 #
-31.622779999999998779003362869844 1:0 2:0.94466901 3:0.878658 4:-1.07513 5:0 #
31.243306640000000129475665744394 1:-1 2:1.71181 3:0.98707998 4:1.1447001 5:2.8417201 #
31.243306640000000129475665744394 1:0 2:1.7455 3:1.09008 4:0.421287 5:2.20474 #
31.243306640000000129475665744394 1:0 2:1.40037 3:0.88725102 4:0.96077299 5:2.25282 #
-31.622779999999998779003362869844 1:-1 2:0.49548399 3:0.66960001 4:0.66133797 5:0.93831497 #
31.243306640000000129475665744394 1:-1 2:1.85197 3:1.0232199 4:0.44631901 5:2.30865 #
-31.622779999999998779003362869844 1:-1 2:1.76796 3:0.86441803 4:-0.19236501 5:1.60168 #
31.243306640000000129475665744394 1:-6 2:0.81118202 3:0.82000798 4:0.18110099 5:0.95968699 #
31.243306640000000129475665744394 1:-4 2:0.96527702 3:0.80471998 4:1.55934 5:2.2201099 #
31.243306640000000129475665744394 1:-3 2:1.53713 3:1.19084 4:0.56837797 5:2.21398 #
31.243306640000000129475665744394 1:-3 2:1.85197 3:1.0232199 4:-1.64011 5:0.17378099 #
31.243306640000000129475665744394 1:-4 2:1.50955 3:1.02886 4:-0.93766201 5:0.544828 #
-31.622779999999998779003362869844 1:-5 2:1.07049 3:0.945768 4:2.1854701 5:3.13744 #
-31.622779999999998779003362869844 1:-4 2:1.84576 3:1.19556 4:0.60408503 5:2.5679801 #
-31.622779999999998779003362869844 1:7 2:1.81084 3:1.13265 4:-0.568708 5:1.16669 #
31.243306640000000129475665744394 1:-3 2:0.37007001 3:0.48343301 4:0.51571202 5:0.61938202 #
-31.622779999999998779003362869844 1:-1 2:1.62559 3:0.89408702 4:0.129899 5:1.74173 #
31.243306640000000129475665744394 1:8 2:1.98839 3:0.94914001 4:-1.2783099 5:0.77509397 #
-31.622779999999998779003362869844 1:0 2:1.4782 3:0.95251501 4:-0.458745 5:1.04124 #
-31.622779999999998779003362869844 1:0 2:0.97789901 3:0.89648002 4:-0.99601001 5:0.084995598 #
31.243306640000000129475665744394 1:6 2:1.93099 3:0.98260301 4:-1.1688401 5:0.78248101 #
31.243306640000000129475665744394 1:-3 2:0.37007001 3:0.48343301 4:0.84661102 5:0.77934998 #
-31.622779999999998779003362869844 1:8 2:1.84576 3:1.19556 4:-1.33562 5:0.248944 #
-31.622779999999998779003362869844 1:5 2:1.17923 3:0.95292801 4:0.594271 5:1.74553 #
31.243306640000000129475665744394 1:3 2:1.77064 3:0.98288703 4:-0.092334799 5:1.67989 #
-31.622779999999998779003362869844 1:0 2:1.13125 3:0.87748498 4:-0.91428 5:0.328978 #
-31.622779999999998779003362869844 1:3 2:1.47367 3:1.20323 4:0.43074799 5:1.9919699 #
-31.622779999999998779003362869844 1:-3 2:1.80825 3:1.08621 4:0.62998199 5:2.4925499 #
-31.622779999999998779003362869844 1:-5 2:0.65489501 3:0.79360002 4:0.214432 5:0.82506901 #
31.243306640000000129475665744394 1:4 2:1.6992199 3:0.97945899 4:-0.81721503 5:0.89878702 #
31.243306640000000129475665744394 1:1 2:0.60438901 3:0.675583 4:-0.050949998 5:0.56996799 #
31.243306640000000129475665744394 1:1 2:1.33293 3:0.88300699 4:-0.59423202 5:0.808218 #
-31.622779999999998779003362869844 1:1 2:1.23221 3:1.0693901 4:-1.1522599 5:0 #
-31.622779999999998779003362869844 1:8 2:1.10786 3:0.77635998 4:-0.410465 5:0.78919101 #
-31.622779999999998779003362869844 1:-5 2:1.90268 3:0.92302501 4:1.83138 5:3.5930901 #
-31.622779999999998779003362869844 1:6 2:1.4782 3:0.95251501 4:-0.32618901 5:1.1675 #
31.243306640000000129475665744394 1:0 2:1.1425 3:0.71457398 4:0.65872198 5:1.6131999 #
-31.622779999999998779003362869844 1:5 2:1.84576 3:1.19556 4:-0.394972 5:1.3735501 #
-31.622779999999998779003362869844 1:-3 2:0.49548399 3:0.66960001 4:0.211923 5:0.63738799 #
31.243306640000000129475665744394 1:0 2:1.31406 3:1.00932 4:0.73637903 5:2.0573001 #
31.243306640000000129475665744394 1:-6 2:1.83175 3:1.0678101 4:-1.66468 5:0.0541857 #
-31.622779999999998779003362869844 1:5 2:1.71984 3:1.0014499 4:-0.65402901 5:1.06486 #
31.243306640000000129475665744394 1:1 2:1.24721 3:0.86781299 4:-0.40612 5:0.89477801 #
31.243306640000000129475665744394 1:5 2:1.93659 3:1.13727 4:-0.74983102 5:1.08384 #
-31.622779999999998779003362869844 1:4 2:0.856453 3:0.78003597 4:0.46457401 5:1.21884 #
31.243306640000000129475665744394 1:2 2:0.54617703 3:0.56291199 4:-0.1652 5:0.45318401 #
-31.622779999999998779003362869844 1:-3 2:0.66816097 3:0.66904002 4:-0.41190901 5:0.39257801 #
31.243306640000000129475665744394 1:0 2:1.18477 3:0.97420001 4:0.177001 5:1.3572 #
-31.622779999999998779003362869844 1:8 2:1.46474 3:0.97195202 4:-0.82761198 5:0.66033602 #
31.243306640000000129475665744394 1:-1 2:1.38042 3:0.96574199 4:0.72998202 5:2.0854001 #
-31.622779999999998779003362869844 1:6 2:1.6979001 3:1.1139801 4:-0.225364 5:1.44684 #
31.243306640000000129475665744394 1:1 2:1.81774 3:1.07244 4:-1.20979 5:0.52030599 #
-31.622779999999998779003362869844 1:-3 2:1.0783499 3:0.886917 4:-0.104797 5:0.98540801 #
31.243306640000000129475665744394 1:-5 2:1.60412 3:1.03654 4:-1.10063 5:0.46328199 #
-31.622779999999998779003362869844 1:4 2:1.22797 3:0.97861099 4:0.29017699 5:1.51194 #
-31.622779999999998779003362869844 1:5 2:1.62366 3:0.86343199 4:-1.08842 5:0.68387401 #
31.243306640000000129475665744394 1:2 2:1.6693799 3:0.99993598 4:0.38223401 5:2.05159 #
31.243306640000000129475665744394 1:-5 2:1.25486 3:1.02228 4:-0.32588899 5:0.92171103 #
-31.622779999999998779003362869844 1:-2 2:1.97873 3:0.92480201 4:0.150956 5:2.11834 #
-31.622779999999998779003362869844 1:5 2:1.3082401 3:1.03414 4:0.38591301 5:1.70733 #
31.243306640000000129475665744394 1:0 2:1.24721 3:0.86781299 4:0.67473799 5:1.83276 #
-31.622779999999998779003362869844 1:-1 2:2.0961299 3:1.0599101 4:-0.078826599 5:2.0125799 #
-31.622779999999998779003362869844 1:0 2:0.71114099 3:0.79041398 4:-0.74289101 5:0.12395 #
31.243306640000000129475665744394 1:-4 2:1.62771 3:1.04094 4:-0.88582498 5:0.70561999 #
-31.622779999999998779003362869844 1:4 2:1.12082 3:0.92111403 4:0.326491 5:1.42155 #
31.243306640000000129475665744394 1:-5 2:1.41299 3:1.0217201 4:-0.52231598 5:0.87932497 #
31.243306640000000129475665744394 1:-1 2:1.93099 3:0.98260301 4:1.32862 5:3.2365 #
31.243306640000000129475665744394 1:2 2:1.24721 3:0.86781299 4:0.103142 5:1.33672 #
31.243306640000000129475665744394 1:-1 2:1.17895 3:0.66655999 4:-1.24347 5:0.350104 #
31.243306640000000129475665744394 1:-4 2:1.5707 3:1.02282 4:-1.24138 5:0.30099601 #
-31.622779999999998779003362869844 1:3 2:0.83973002 3:0.895549 4:1.20927 5:1.92269 #
31.243306640000000129475665744394 1:-2 2:1.56393 3:1.0580699 4:1.30001 5:2.93943 #
-31.622779999999998779003362869844 1:4 2:1.08762 3:0.89413798 4:0.51844603 5:1.55119 #
31.243306640000000129475665744394 1:-4 2:0.37007001 3:0.48343301 4:-0.765504 5:0 #
-31.622779999999998779003362869844 1:0 2:1.14106 3:0.984613 4:-0.758636 5:0.394095 #
-31.622779999999998779003362869844 1:7 2:1.1813101 3:0.83211398 4:-1.17703 5:0.20188101 #
-31.622779999999998779003362869844 1:7 2:0.66816097 3:0.66904002 4:0.505481 5:1.00635 #
31.243306640000000129475665744394 1:-6 2:1.31406 3:1.00932 4:-0.44972599 5:0.86013901 #
31.243306640000000129475665744394 1:3 2:2.0232799 3:1.19803 4:0.25294301 5:2.3263099 #
-31.622779999999998779003362869844 1:5 2:1.81774 3:1.07244 4:-0.51097101 5:1.26975 #
31.243306640000000129475665744394 1:1 2:1.52431 3:0.85831499 4:0.137669 5:1.64247 #
-31.622779999999998779003362869844 1:5 2:1.4486001 3:1.02431 4:-0.28719801 5:1.15442 #
-31.622779999999998779003362869844 1:-1 2:1.86704 3:1.05873 4:-0.116915 5:1.74326 #
31.243306640000000129475665744394 1:-4 2:1.58831 3:1.04486 4:-0.96651697 5:0.57843298 #
31.243306640000000129475665744394 1:-4 2:1.62771 3:1.04094 4:-1.34504 5:0.22759899 #
31.243306640000000129475665744394 1:-1 2:1.58831 3:1.04486 4:-0.71038198 5:0.84605902 #
31.243306640000000129475665744394 1:1 2:1.24721 3:0.86781299 4:-0.45692599 5:0.85068899 #
-31.622779999999998779003362869844 1:-1 2:0.97736698 3:0.85400301 4:-0.69602799 5:0.38295799 #
31.243306640000000129475665744394 1:-6 2:1.50502 3:1.07024 4:-1.40624 5:0 #
-31.622779999999998779003362869844 1:0 2:1.38042 3:0.96574199 4:0.166536 5:1.54125 #
31.243306640000000129475665744394 1:-5 2:1.51863 3:0.86678499 4:-0.79905999 5:0.82601303 #
31.243306640000000129475665744394 1:-4 2:1.31406 3:1.00932 4:-0.56745398 5:0.74131501 #
31.243306640000000129475665744394 1:1 2:1.24721 3:0.86781299 4:0.347709 5:1.54896 #
31.243306640000000129475665744394 1:-1 2:0.94466901 3:0.878658 4:0.81481397 5:1.66061 #
-31.622779999999998779003362869844 1:7 2:0.94466901 3:0.878658 4:0.97393602 5:1.8004301 #
31.243306640000000129475665744394 1:-1 2:1.13097 3:0.93119699 4:0.92044997 5:1.98809 #
-31.622779999999998779003362869844 1:1 2:2.1401401 3:1.02097 4:-0.0332595 5:2.10618 #
31.243306640000000129475665744394 1:-5 2:1.24721 3:0.86781299 4:-1.07087 5:0.31790099 #
-31.622779999999998779003362869844 1:1 2:2.0379901 3:0.97317803 4:-0.689556 5:1.36693 #
31.243306640000000129475665744394 1:-4 2:1.60412 3:1.03654 4:-1.08137 5:0.48324099 #
31.243306640000000129475665744394 1:-3 2:1.31406 3:1.00932 4:-0.32785499 5:0.98314703 #
31.243306640000000129475665744394 1:0 2:1.1959 3:0.941046 4:0.827398 5:1.97452 #
31.243306640000000129475665744394 1:-3 2:0.37007001 3:0.48343301 4:-0.765504 5:0 #
-31.622779999999998779003362869844 1:0 2:1.64044 3:1.03105 4:-0.46823499 5:1.15766 #
31.243306640000000129475665744394 1:-5 2:1.6992199 3:0.97945899 4:-0.88423401 5:0.83314502 #
31.243306640000000129475665744394 1:0 2:1.29354 3:0.96996599 4:-0.150419 5:1.14764 #
31.243306640000000129475665744394 1:4 2:1.4928499 3:0.96682799 4:-0.39039299 5:1.11541 #
-31.622779999999998779003362869844 1:5 2:1.4486001 3:1.02431 4:0.061732002 5:1.51183 #
-31.622779999999998779003362869844 1:-6 2:1.62559 3:0.89408702 4:1.15047 5:2.6542101 #
-31.622779999999998779003362869844 1:5 2:1.56393 3:1.0580699 4:1.3477499 5:2.9899399 #
-31.622779999999998779003362869844 1:-3 2:1.5708899 3:1.0763299 4:0.240107 5:1.82932 #
31.243306640000000129475665744394 1:2 2:1.60412 3:1.03654 4:0.45141399 5:2.0720301 #
31.243306640000000129475665744394 1:1 2:1.0783499 3:0.886917 4:0.248987 5:1.29919 #
31.243306640000000129475665744394 1:-5 2:1.35709 3:1.0965101 4:0.15797199 5:1.53031 #
-31.622779999999998779003362869844 1:9 2:1.8017499 3:1.02891 4:-1.48728 5:0.27147299 #
31.243306640000000129475665744394 1:3 2:1.3004 3:0.84626299 4:0.016577501 5:1.31443 #
31.243306640000000129475665744394 1:-4 2:1.4928499 3:0.96682799 4:-1.33982 5:0.197476 #
31.243306640000000129475665744394 1:-1 2:1.55281 3:1.02739 4:1.00823 5:2.58865 #
-31.622779999999998779003362869844 1:4 2:1.13167 3:0.73424602 4:-0.59306997 5:0.69621199 #
31.243306640000000129475665744394 1:-2 2:1.41299 3:1.0217201 4:1.1642801 5:2.60256 #
31.243306640000000129475665744394 1:0 2:1.75264 3:1.2899801 4:0.13796701 5:1.93062 #
-31.622779999999998779003362869844 1:-3 2:1.80825 3:1.08621 4:0.438961 5:2.2850599 #
31.243306640000000129475665744394 1:0 2:1.58831 3:1.04486 4:0.94970101 5:2.58061 #
-31.622779999999998779003362869844 1:3 2:1.10786 3:0.77635998 4:-0.26888999 5:0.89910501 #
31.243306640000000129475665744394 1:7 2:1.6992199 3:0.97945899 4:-1.35469 5:0.372356 #
-31.622779999999998779003362869844 1:4 2:1.17247 3:1.03269 4:1.4978499 5:2.71928 #
31.243306640000000129475665744394 1:-3 2:1.41299 3:1.0217201 4:-1.21816 5:0.168363 #
-31.622779999999998779003362869844 1:-3 2:0.60438901 3:0.675583 4:1.42588 5:1.56769 #
31.243306640000000129475665744394 1:1 2:1.47282 3:1.02298 4:0.613208 5:2.1001201 #
-31.622779999999998779003362869844 1:5 2:1.55574 3:1.05451 4:0.40642399 5:1.98432 #
-31.622779999999998779003362869844 1:-3 2:1.5907 3:0.98839402 4:0.28932101 5:1.87666 #
-31.622779999999998779003362869844 1:-5 2:1.07049 3:0.945768 4:0.489602 5:1.53354 #
31.243306640000000129475665744394 1:-5 2:0.88857102 3:0.99428099 4:0.28742599 5:1.17435 #
-31.622779999999998779003362869844 1:0 2:1.77064 3:0.98288703 4:0.83166701 5:2.5880799 #
-31.622779999999998779003362869844 1:5 2:1.62764 3:1.04899 4:0.042439699 5:1.67216 #
-31.622779999999998779003362869844 1:-4 2:0.669182 3:0.70376003 4:0.74602002 5:1.1942 #
-31.622779999999998779003362869844 1:3 2:1.9174 3:1.20979 4:-0.0956738 5:1.80165 #
-31.622779999999998779003362869844 1:0 2:1.74841 3:0.88853103 4:-0.62136298 5:1.19631 #
-31.622779999999998779003362869844 1:2 2:0.81118202 3:0.82000798 4:0.84519702 5:1.50425 #
-31.622779999999998779003362869844 1:6 2:1.31198 3:1.07857 4:-0.41040999 5:0.86932701 #
31.243306640000000129475665744394 1:3 2:1.52431 3:0.85831499 4:0.122173 5:1.6291699 #
31.243306640000000129475665744394 1:-1 2:1.7455 3:1.09008 4:0.68570799 5:2.49298 #
-31.622779999999998779003362869844 1:0 2:1.6406 3:1.0275 4:0.75029999 5:2.41154 #
-31.622779999999998779003362869844 1:5 2:1.61228 3:0.92758501 4:-0.81761098 5:0.85387403 #
-31.622779999999998779003362869844 1:-6 2:1.17601 3:0.98168701 4:0.80355603 5:1.9648499 #
-31.622779999999998779003362869844 1:6 2:1.5907 3:0.98839402 4:-0.14372499 5:1.44864 #
-31.622779999999998779003362869844 1:6 2:1.3453799 3:0.61588001 4:-1.93452 5:0.153951 #
-31.622779999999998779003362869844 1:7 2:1.90318 3:0.91791803 4:-0.67551398 5:1.28312 #
31.243306640000000129475665744394 1:4 2:1.93659 3:1.13727 4:-1.59743 5:0.119893 #
-31.622779999999998779003362869844 1:6 2:0.969446 3:0.88004702 4:1.5677201 5:2.3491199 #
31.243306640000000129475665744394 1:-6 2:1.41299 3:1.0217201 4:-1.15661 5:0.23124801 #
-31.622779999999998779003362869844 1:6 2:1.87287 3:0.98068303 4:0.32183 5:2.1884799 #
-31.622779999999998779003362869844 1:5 2:1.17601 3:0.98168701 4:1.2325799 5:2.3860199 #
-31.622779999999998779003362869844 1:-2 2:1.91395 3:1.01327 4:0.203116 5:2.11976 #
-31.622779999999998779003362869844 1:8 2:1.17247 3:1.03269 4:-0.373245 5:0.78702497 #
31.243306640000000129475665744394 1:1 2:1.53713 3:1.19084 4:0.42228401 5:2.04 #
31.243306640000000129475665744394 1:1 2:0.66816097 3:0.66904002 4:-0.0093267998 5:0.66192102 #
31.243306640000000129475665744394 1:6 2:1.93402 3:0.85155499 4:-1.32886 5:0.80242997 #
31.243306640000000129475665744394 1:3 2:0.83973002 3:0.895549 4:-0.37571499 5:0.50325799 #
31.243306640000000129475665744394 1:0 2:1.93928 3:1.05089 4:1.21615 5:3.21732 #
31.243306640000000129475665744394 1:-2 2:0.60438901 3:0.675583 4:0.205594 5:0.74328399 #
-31.622779999999998779003362869844 1:0 2:1.75692 3:0.99256098 4:-0.32020399 5:1.4391 #
-31.622779999999998779003362869844 1:4 2:0.68495399 3:0.68714201 4:1.24667 5:1.5416 #
31.243306640000000129475665744394 1:-1 2:1.79808 3:1.01794 4:1.36996 5:3.19262 #
31.243306640000000129475665744394 1:3 2:1.93659 3:1.13727 4:-0.093977302 5:1.82972 #
31.243306640000000129475665744394 1:-1 2:1.8939101 3:1.0786 4:0.98058301 5:2.95156 #
-31.622779999999998779003362869844 1:-3 2:0.66816097 3:0.66904002 4:1.8530999 5:1.9079601 #
-31.622779999999998779003362869844 1:5 2:1.4782 3:0.95251501 4:-0.26224199 5:1.22841 #
31.243306640000000129475665744394 1:1 2:1.24721 3:0.86781299 4:0.225621 5:1.44301 #
-31.622779999999998779003362869844 1:7 2:1.90318 3:0.91791803 4:-0.54505002 5:1.4028701 #
31.243306640000000129475665744394 1:-1 2:1.50111 3:1.08892 4:0.95961499 5:2.5460501 #
31.243306640000000129475665744394 1:-1 2:0.75451201 3:0.82128799 4:0.56832403 5:1.22127 #
-31.622779999999998779003362869844 1:0 2:1.35709 3:1.0965101 4:-0.046192899 5:1.30644 #
31.243306640000000129475665744394 1:-6 2:1.93928 3:1.05089 4:-1.67067 5:0.183577 #
31.243306640000000129475665744394 1:0 2:2.0138199 3:0.93314201 4:1.28713 5:3.21489 #
-31.622779999999998779003362869844 1:-1 2:0.60438901 3:0.675583 4:-0.70055401 5:0.131107 #
31.243306640000000129475665744394 1:8 2:2.0138199 3:0.93314201 4:-1.13493 5:0.95476598 #
-31.622779999999998779003362869844 1:2 2:0.78543198 3:0.65632701 4:1.04179 5:1.46918 #
-31.622779999999998779003362869844 1:5 2:1.35938 3:1.0142601 4:0.62681299 5:1.9951299 #
31.243306640000000129475665744394 1:-6 2:1.05028 3:0.80046201 4:-1.31209 5:0 #
-31.622779999999998779003362869844 1:6 2:1.5907 3:0.98839402 4:-0.27414799 5:1.31973 #
-31.622779999999998779003362869844 1:-4 2:1.31198 3:1.07857 4:0.47379401 5:1.82301 #
-31.622779999999998779003362869844 1:-3 2:0.669182 3:0.70376003 4:0.59900498 5:1.09074 #
-31.622779999999998779003362869844 1:3 2:0.72312897 3:0.82340503 4:2.34304 5:2.6524 #
-31.622779999999998779003362869844 1:1 2:1.88029 3:1.21034 4:-0.00420132 5:1.87521 #
-31.622779999999998779003362869844 1:4 2:1.37632 3:1.05853 4:0.95468801 5:2.3868899 #
31.243306640000000129475665744394 1:-2 2:1.06928 3:0.95958197 4:1.30314 5:2.3197501 #
-31.622779999999998779003362869844 1:4 2:1.24823 3:0.82749498 4:-0.216913 5:1.06873 #
31.243306640000000129475665744394 1:0 2:1.8557 3:0.97061199 4:0.59154999 5:2.4298601 #
-31.622779999999998779003362869844 1:2 2:0.60438901 3:0.675583 4:0.78576398 5:1.13524 #
-31.622779999999998779003362869844 1:3 2:1.0783499 3:0.886917 4:0.77344602 5:1.76434 #
31.243306640000000129475665744394 1:0 2:1.41299 3:1.0217201 4:-0.29333401 5:1.1132801 #
31.243306640000000129475665744394 1:-4 2:1.05028 3:0.80046201 4:-1.08332 5:0.18312199 #
-31.622779999999998779003362869844 1:7 2:1.71428 3:1.0764101 4:0.264779 5:1.99929 #
-31.622779999999998779003362869844 1:4 2:0.66816097 3:0.66904002 4:0.60774601 5:1.07477 #
31.243306640000000129475665744394 1:-2 2:1.1959 3:0.941046 4:-0.41455299 5:0.805785 #
-31.622779999999998779003362869844 1:-3 2:1.64044 3:1.03105 4:0.469717 5:2.1247399 #
31.243306640000000129475665744394 1:-3 2:1.60412 3:1.03654 4:-1.50699 5:0.042073902 #
-31.622779999999998779003362869844 1:7 2:1.77406 3:1.02241 4:0.43579701 5:2.21962 #
31.243306640000000129475665744394 1:-2 2:1.29354 3:0.96996599 4:-0.43727401 5:0.86940098 #
31.243306640000000129475665744394 1:-3 2:0.37007001 3:0.48343301 4:-0.765504 5:0 #
31.243306640000000129475665744394 1:-5 2:1.17852 3:0.93398201 4:-1.26182 5:0 #
-31.622779999999998779003362869844 1:-1 2:2.1401401 3:1.02097 4:0.414132 5:2.5629599 #
-31.622779999999998779003362869844 1:7 2:1.0771199 3:0.83791 4:0.035087299 5:1.1065201 #
31.243306640000000129475665744394 1:4 2:1.38042 3:0.96574199 4:-0.86084503 5:0.54907 #
31.243306640000000129475665744394 1:2 2:1.60412 3:1.03654 4:0.49398801 5:2.1161599 #
-31.622779999999998779003362869844 1:4 2:1.3546 3:0.84555203 4:-0.77864403 5:0.69621199 #
31.243306640000000129475665744394 1:4 2:1.50955 3:1.02886 4:-0.43712801 5:1.05981 #
31.243306640000000129475665744394 1:4 2:2.0490799 3:0.96838701 4:-0.14930899 5:1.90449 #
31.243306640000000129475665744394 1:-1 2:1.83175 3:1.0678101 4:1.413 5:3.34057 #
-31.622779999999998779003362869844 1:1 2:0.68495399 3:0.68714201 4:0.51108199 5:1.03614 #
-31.622779999999998779003362869844 1:4 2:1.44944 3:0.88681197 4:-0.66345602 5:0.86107498 #
31.243306640000000129475665744394 1:0 2:1.83175 3:1.0678101 4:1.1145999 5:3.02193 #
31.243306640000000129475665744394 1:1 2:1.38042 3:0.96574199 4:0.645284 5:2.0035999 #
31.243306640000000129475665744394 1:-1 2:1.50502 3:1.07024 4:-0.54090399 5:0.92612302 #
-31.622779999999998779003362869844 1:-1 2:1.5907 3:0.98839402 4:-0.426512 5:1.16914 #
-31.622779999999998779003362869844 1:-2 2:0.49548399 3:0.66960001 4:-0.73997003 5:0 #
31.243306640000000129475665744394 1:2 2:0.71859503 3:0.79418898 4:-0.23123001 5:0.53495502 #
31.243306640000000129475665744394 1:-4 2:0.60438901 3:0.675583 4:-0.70332599 5:0.129234 #
31.243306640000000129475665744394 1:-1 2:0.68504298 3:0.79141802 4:0.051698498 5:0.72595799 #
31.243306640000000129475665744394 1:-1 2:0.83973002 3:0.895549 4:0.74226499 5:1.50446 #
31.243306640000000129475665744394 1:0 2:1.64038 3:1.03262 4:0.31522399 5:1.96589 #
31.243306640000000129475665744394 1:1 2:1.24721 3:0.86781299 4:0.131612 5:1.36143 #
31.243306640000000129475665744394 1:-4 2:1.56393 3:1.0580699 4:0.078589797 5:1.64709 #
31.243306640000000129475665744394 1:-2 2:0.64680398 3:0.662974 4:-0.351428 5:0.41381699 #
31.243306640000000129475665744394 1:0 2:1.52431 3:0.85831499 4:-1.77593 5:0 #
31.243306640000000129475665744394 1:-1 2:1.06928 3:0.95958197 4:0.98262799 5:2.0121901 #
-31.622779999999998779003362869844 1:-3 2:1.31198 3:1.07857 4:0.275172 5:1.60878 #
31.243306640000000129475665744394 1:-1 2:1.35897 3:1.04441 4:-0.0571572 5:1.29928 #
31.243306640000000129475665744394 1:0 2:1.83175 3:1.0678101 4:1.15282 5:3.0627501 #
-31.622779999999998779003362869844 1:4 2:1.34185 3:1.00818 4:0.0355785 5:1.37772 #
31.243306640000000129475665744394 1:-3 2:0.42522699 3:0.62575001 4:-0.67954803 5:0 #
-31.622779999999998779003362869844 1:-3 2:1.84576 3:1.19556 4:0.279026 5:2.1793499 #
31.243306640000000129475665744394 1:-4 2:1.41299 3:1.0217201 4:-1.15469 5:0.23321301 #
-31.622779999999998779003362869844 1:0 2:1.17247 3:1.03269 4:-0.81566602 5:0.330143 #
-31.622779999999998779003362869844 1:-3 2:1.66388 3:1.13077 4:0.55451697 5:2.29091 #
31.243306640000000129475665744394 1:-5 2:0.75451201 3:0.82128799 4:1.5931 5:2.0629101 #
-31.622779999999998779003362869844 1:-4 2:0.83973002 3:0.895549 4:1.64674 5:2.3144701 #
-31.622779999999998779003362869844 1:0 2:1.52952 3:0.88024801 4:-0.443317 5:1.13929 #
31.243306640000000129475665744394 1:-5 2:1.41299 3:1.0217201 4:-1.23996 5:0.14609399 #
-31.622779999999998779003362869844 1:-1 2:1.7003 3:1.08709 4:-0.26321101 5:1.41417 #
31.243306640000000129475665744394 1:2 2:1.24721 3:0.86781299 4:0.189436 5:1.41161 #
31.243306640000000129475665744394 1:0 2:1.13097 3:0.93119699 4:0.085944504 5:1.211 #
-31.622779999999998779003362869844 1:-2 2:0.49548399 3:0.66960001 4:1.51819 5:1.51206 #
-31.622779999999998779003362869844 1:4 2:1.1813101 3:0.83211398 4:-0.242246 5:0.97973001 #
-31.622779999999998779003362869844 1:3 2:0.81118202 3:0.82000798 4:1.19039 5:1.78731 #
31.243306640000000129475665744394 1:-3 2:0.37007001 3:0.48343301 4:-0.765504 5:0 #
31.243306640000000129475665744394 1:2 2:1.67634 3:0.83350801 4:-1.86531 5:0.121588 #
31.243306640000000129475665744394 1:2 2:1.33293 3:0.88300699 4:0.314863 5:1.61096 #
-31.622779999999998779003362869844 1:-1 2:0.81118202 3:0.82000798 4:0.164105 5:0.94575 #
31.243306640000000129475665744394 1:-4 2:1.586 3:1.0008 4:-1.53372 5:0.051043 #
-31.622779999999998779003362869844 1:-4 2:0.83973002 3:0.895549 4:1.87442 5:2.5183599 #
31.243306640000000129475665744394 1:-3 2:1.31406 3:1.00932 4:-1.30193 5:0 #
31.243306640000000129475665744394 1:-4 2:1.41299 3:1.0217201 4:-1.03921 5:0.35120001 #
-31.622779999999998779003362869844 1:-4 2:0.66816097 3:0.66904002 4:1.8530999 5:1.9079601 #
31.243306640000000129475665744394 1:-2 2:1.13097 3:0.93119699 4:1.16397 5:2.21486 #
-31.622779999999998779003362869844 1:6 2:1.78106 3:1.02437 4:-0.62628901 5:1.1395 #
31.243306640000000129475665744394 1:-3 2:0.76588601 3:0.639332 4:-1.19795 5:0 #
-31.622779999999998779003362869844 1:-2 2:2.0817599 3:0.99326199 4:0.520724 5:2.5989699 #
31.243306640000000129475665744394 1:0 2:1.31406 3:1.00932 4:0.44034699 5:1.75851 #
-31.622779999999998779003362869844 1:3 2:1.24719 3:0.87414497 4:-0.219607 5:1.05523 #
-31.622779999999998779003362869844 1:1 2:0.66816097 3:0.66904002 4:0.76356602 5:1.17902 #
-31.622779999999998779003362869844 1:2 2:1.36106 3:1.14565 4:-1.18802 5:0 #
31.243306640000000129475665744394 1:0 2:1.18477 3:0.97420001 4:-0.0051577599 5:1.17974 #
-31.622779999999998779003362869844 1:-3 2:1.88029 3:1.21034 4:0.25110099 5:2.1842101 #
31.243306640000000129475665744394 1:1 2:1.7455 3:1.09008 4:0.71776402 5:2.52792 #
-31.622779999999998779003362869844 1:5 2:1.00783 3:1.01314 4:0.65197098 5:1.66837 #
31.243306640000000129475665744394 1:-1 2:1.00783 3:1.01314 4:0.92504698 5:1.94504 #
31.243306640000000129475665744394 1:-1 2:0.88857102 3:0.99428099 4:0.848212 5:1.73193 #
31.243306640000000129475665744394 1:-3 2:0.42522699 3:0.62575001 4:-0.114851 5:0.35335901 #
31.243306640000000129475665744394 1:0 2:1.13097 3:0.93119699 4:0.62501699 5:1.71299 #
31.243306640000000129475665744394 1:4 2:1.40037 3:0.88725102 4:-0.305112 5:1.12966 #
-31.622779999999998779003362869844 1:4 2:0.94713598 3:0.884911 4:0.98917198 5:1.8224601 #
31.243306640000000129475665744394 1:-3 2:1.24721 3:0.86781299 4:-1.4371901 5:0 #
31.243306640000000129475665744394 1:1 2:0.92704302 3:0.81232703 4:0.3274 5:1.193 #
-31.622779999999998779003362869844 1:-1 2:0.66816097 3:0.66904002 4:-0.76478201 5:0.156491 #
-31.622779999999998779003362869844 1:6 2:1.0771199 3:0.83791 4:0.82340699 5:1.76706 #
31.243306640000000129475665744394 1:-5 2:1.13097 3:0.93119699 4:-0.89620101 5:0.29643199 #
-31.622779999999998779003362869844 1:8 2:1.88029 3:1.21034 4:-0.65635401 5:1.08588 #
31.243306640000000129475665744394 1:-2 2:1.1872 3:1.0207601 4:-0.0547681 5:1.1313 #
-31.622779999999998779003362869844 1:0 2:0.94466901 3:0.878658 4:-1.07513 5:0 #
-31.622779999999998779003362869844 1:5 2:1.0771199 3:0.83791 4:0.77218997 5:1.7241499 #
31.243306640000000129475665744394 1:-4 2:0.69558102 3:0.83665502 4:0.0083753699 5:0.70258802 #
-31.622779999999998779003362869844 1:-5 2:1.17247 3:1.03269 4:1.0002199 5:2.20539 #
-31.622779999999998779003362869844 1:4 2:1.4972 3:1.0197001 4:0.578866 5:2.0874701 #
-31.622779999999998779003362869844 1:-3 2:0.669182 3:0.70376003 4:0.499212 5:1.02051 #
31.243306640000000129475665744394 1:1 2:1.11625 3:0.89809102 4:0.50541401 5:1.57015 #
-31.622779999999998779003362869844 1:2 2:1.17247 3:1.03269 4:0.630557 5:1.82364 #
31.243306640000000129475665744394 1:2 2:1.31406 3:1.00932 4:0.15229601 5:1.46777 #
31.243306640000000129475665744394 1:0 2:1.06928 3:0.95958197 4:0.22702301 5:1.28713 #
-31.622779999999998779003362869844 1:-3 2:0.51048601 3:0.59677398 4:2.1972499 5:1.82175 #
31.243306640000000129475665744394 1:-2 2:1.44383 3:0.89060497 4:1.4909101 5:2.7716401 #
31.243306640000000129475665744394 1:1 2:1.81823 3:1.00877 4:-0.37553599 5:1.4394 #
-31.622779999999998779003362869844 1:1 2:1.31198 3:1.07857 4:-0.70033902 5:0.55661702 #
31.243306640000000129475665744394 1:-4 2:1.17852 3:0.93398201 4:-1.21257 5:0.045995299 #
-31.622779999999998779003362869844 1:5 2:1.84576 3:1.19556 4:0.082394801 5:1.94427 #
-31.622779999999998779003362869844 1:-5 2:1.00783 3:1.01314 4:0.33510101 5:1.34734 #
31.243306640000000129475665744394 1:-4 2:1.52431 3:0.85831499 4:-1.43859 5:0.28953999 #
-31.622779999999998779003362869844 1:-5 2:1.84576 3:1.19556 4:1.24661 5:3.3361599 #
31.243306640000000129475665744394 1:-1 2:1.24721 3:0.86781299 4:0.95274502 5:2.0740199 #
31.243306640000000129475665744394 1:-1 2:1.13097 3:0.93119699 4:1.07876 5:2.13551 #
31.243306640000000129475665744394 1:1 2:1.2515301 3:1.0689 4:0.46782699 5:1.75159 #
31.243306640000000129475665744394 1:2 2:1.83175 3:1.0678101 4:0.606691 5:2.4795799 #
31.243306640000000129475665744394 1:-3 2:1.05028 3:0.80046201 4:1.51289 5:2.2613001 #
-31.622779999999998779003362869844 1:4 2:0.89731598 3:0.755844 4:-0.24116801 5:0.71503103 #
31.243306640000000129475665744394 1:-5 2:1.57946 3:0.96817899 4:-0.821006 5:0.78457999 #
31.243306640000000129475665744394 1:-2 2:1.586 3:1.0008 4:-0.53827101 5:1.04729 #
31.243306640000000129475665744394 1:0 2:1.7455 3:1.09008 4:1.0980901 5:2.9425099 #
31.243306640000000129475665744394 1:1 2:1.68235 3:1.0242 4:0.756033 5:2.4566801 #
-31.622779999999998779003362869844 1:6 2:1.17247 3:1.03269 4:-0.101243 5:1.06792 #
31.243306640000000129475665744394 1:2 2:0.64530802 3:0.700275 4:-0.92150599 5:0 #
31.243306640000000129475665744394 1:-5 2:1.03071 3:0.73451799 4:0.29322901 5:1.2460999 #
31.243306640000000129475665744394 1:-4 2:1.25486 3:1.02228 4:-1.22752 5:0 #
31.243306640000000129475665744394 1:-4 2:1.31406 3:1.00932 4:-0.31420201 5:0.99692601 #
31.243306640000000129475665744394 1:-5 2:1.85197 3:1.0232199 4:0.73614597 5:2.6052101 #
-31.622779999999998779003362869844 1:1 2:1.5907 3:0.98839402 4:-0.46807399 5:1.12806 #
-31.622779999999998779003362869844 1:5 2:1.88896 3:1.11919 4:-0.62150002 5:1.19338 #
31.243306640000000129475665744394 1:-4 2:0.37007001 3:0.48343301 4:0.98313701 5:0.84535098 #
-31.622779999999998779003362869844 1:-1 2:1.84576 3:1.19556 4:-0.28751001 5:1.50203 #
-31.622779999999998779003362869844 1:-2 2:1.31198 3:1.07857 4:0.237544 5:1.56819 #
31.243306640000000129475665744394 1:-4 2:1.90318 3:0.91791803 4:-0.97240299 5:1.0106 #
31.243306640000000129475665744394 1:1 2:1.16888 3:0.92015898 4:0.125236 5:1.28412 #
31.243306640000000129475665744394 1:-1 2:1.64038 3:1.03262 4:0.31786799 5:1.9686199 #
-31.622779999999998779003362869844 1:-1 2:1.3082401 3:1.03414 4:-0.57635897 5:0.71219999 #
-31.622779999999998779003362869844 1:-1 2:1.23221 3:1.0693901 4:0.397964 5:1.6577899 #
-31.622779999999998779003362869844 1:-2 2:1.96287 3:1.01078 4:0.444415 5:2.41207 #
-31.622779999999998779003362869844 1:-6 2:0.68495399 3:0.68714201 4:0.49790201 5:1.0270801 #
31.243306640000000129475665744394 1:-5 2:1.93928 3:1.05089 4:0.042837501 5:1.98429 #
31.243306640000000129475665744394 1:-3 2:1.13097 3:0.93119699 4:-0.65686202 5:0.51930302 #
-31.622779999999998779003362869844 1:-5 2:1.17247 3:1.03269 4:1.60136 5:2.82617 #
-31.622779999999998779003362869844 1:2 2:0.42522699 3:0.62575001 4:0.22578 5:0.56650901 #
-31.622779999999998779003362869844 1:3 2:1.04962 3:0.83132398 4:-0.267335 5:0.82737398 #
-31.622779999999998779003362869844 1:7 2:1.87341 3:0.91479498 4:0.076119699 5:1.94304 #
-31.622779999999998779003362869844 1:-1 2:0.60438901 3:0.675583 4:1.35864 5:1.52226 #
-31.622779999999998779003362869844 1:-3 2:1.32433 3:1.1075799 4:0.035869598 5:1.36405 #
-31.622779999999998779003362869844 1:5 2:1.88029 3:1.21034 4:-0.30137399 5:1.51553 #
-31.622779999999998779003362869844 1:-4 2:0.37007001 3:0.48343301 4:1.79721 5:1.2388999 #
31.243306640000000129475665744394 1:-2 2:0.669182 3:0.70376003 4:0.33418 5:0.904365 #
-31.622779999999998779003362869844 1:-4 2:1.62559 3:0.89408702 4:0.52129 5:2.09166 #
31.243306640000000129475665744394 1:-5 2:1.31406 3:1.00932 4:1.36923 5:2.6960399 #
-31.622779999999998779003362869844 1:5 2:1.2788 3:1.0778199 4:0.078113802 5:1.36299 #
31.243306640000000129475665744394 1:-1 2:1.6693799 3:0.99993598 4:1.31608 5:2.9853699 #
31.243306640000000129475665744394 1:-3 2:1.05028 3:0.80046201 4:1.34144 5:2.1240499 #
-31.622779999999998779003362869844 1:5 2:1.81084 3:1.13265 4:-0.27006099 5:1.5049599 #
-31.622779999999998779003362869844 1:4 2:1.74025 3:0.99539399 4:-0.396777 5:1.3453 #
-31.622779999999998779003362869844 1:1 2:1.13652 3:1.14421 4:1.25896 5:2.5770299 #
-31.622779999999998779003362869844 1:2 2:0.60438901 3:0.675583 4:2.8157001 5:2.5066299 #
-31.622779999999998779003362869844 1:1 2:1.35709 3:1.0965101 4:0.74530298 5:2.17432 #
31.243306640000000129475665744394 1:-2 2:2.17079 3:1.03501 4:1.61289 5:3.8401401 #
-31.622779999999998779003362869844 1:-5 2:1.19522 3:0.86235601 4:0.53437901 5:1.65605 #
-31.622779999999998779003362869844 1:-5 2:1.36106 3:1.14565 4:0.59671199 5:2.0446801 #
31.243306640000000129475665744394 1:2 2:1.65644 3:1.04018 4:0.35414699 5:2.0248101 #
-31.622779999999998779003362869844 1:-2 2:1.13652 3:1.14421 4:0.241136 5:1.41243 #
31.243306640000000129475665744394 1:-5 2:0.81118202 3:0.82000798 4:-0.98923701 5:0 #
-31.622779999999998779003362869844 1:-1 2:1.7005 3:0.91955101 4:-0.100697 5:1.60791 #
-31.622779999999998779003362869844 1:-5 2:1.5708899 3:1.0763299 4:1.68067 5:3.3798499 #
31.243306640000000129475665744394 1:2 2:1.83175 3:1.0678101 4:0.443602 5:2.3054299 #
31.243306640000000129475665744394 1:-3 2:2.17079 3:1.03501 4:-1.2965699 5:0.82883 #
31.243306640000000129475665744394 1:1 2:1.90318 3:0.91791803 4:0.945867 5:2.77141 #
-31.622779999999998779003362869844 1:1 2:1.17247 3:1.03269 4:0.97010702 5:2.1742899 #
-31.622779999999998779003362869844 1:0 2:0.86001998 3:0.67554599 4:-0.71404999 5:0.377646 #
-31.622779999999998779003362869844 1:-1 2:1.64044 3:1.03105 4:-0.32599199 5:1.30432 #
31.243306640000000129475665744394 1:-5 2:1.07049 3:0.945768 4:0.89797401 5:1.91977 #
31.243306640000000129475665744394 1:-3 2:0.69558102 3:0.83665502 4:-0.0249549 5:0.67470199 #
31.243306640000000129475665744394 1:1 2:0.69565803 3:0.687994 4:-0.33775899 5:0.46328199 #
-31.622779999999998779003362869844 1:1 2:1.2141401 3:1.0628 4:0.874403 5:2.14345 #
31.243306640000000129475665744394 1:7 2:1.90318 3:0.91791803 4:-1.084 5:0.90815598 #
31.243306640000000129475665744394 1:-5 2:1.50111 3:1.08892 4:1.08258 5:2.67995 #
31.243306640000000129475665744394 1:-4 2:1.13097 3:0.93119699 4:-1.11996 5:0.0880723 #
31.243306640000000129475665744394 1:-2 2:0.60438901 3:0.675583 4:0.34619299 5:0.83827001 #
-31.622779999999998779003362869844 1:5 2:1.4782 3:0.95251501 4:-0.39918101 5:1.09798 #
31.243306640000000129475665744394 1:-4 2:1.40037 3:0.88725102 4:1.82864 5:3.02284 #
-31.622779999999998779003362869844 1:2 2:1.1911401 3:0.93611801 4:2.3779299 5:3.41716 #
31.243306640000000129475665744394 1:-3 2:1.7455 3:1.09008 4:0.97309703 5:2.8062601 #
-31.622779999999998779003362869844 1:-5 2:1.17247 3:1.03269 4:1.31752 5:2.5330501 #
31.243306640000000129475665744394 1:1 2:2.01107 3:1.02891 4:0.90859503 5:2.94593 #
31.243306640000000129475665744394 1:-4 2:0.88857102 3:0.99428099 4:-0.893682 5:0 #
-31.622779999999998779003362869844 1:5 2:1.46474 3:0.97195202 4:1.24588 5:2.6756699 #
-31.622779999999998779003362869844 1:-4 2:0.60438901 3:0.675583 4:1.92747 5:1.90655 #
-31.622779999999998779003362869844 1:6 2:1.52888 3:0.938784 4:0.55439198 5:2.04934 #
-31.622779999999998779003362869844 1:-2 2:2.0320101 3:1.08081 4:0.41000399 5:2.4751501 #
-31.622779999999998779003362869844 1:4 2:0.92500401 3:1.09771 4:-0.84266502 5:0 #
31.243306640000000129475665744394 1:-3 2:1.3872 3:0.91129398 4:-0.86308002 5:0.60068297 #
31.243306640000000129475665744394 1:1 2:1.8939101 3:1.0786 4:0.77773303 5:2.73277 #
31.243306640000000129475665744394 1:2 2:1.6693799 3:0.99993598 4:0.38242999 5:2.05178 #
31.243306640000000129475665744394 1:-5 2:1.50502 3:1.07024 4:-0.19698399 5:1.2941999 #
-31.622779999999998779003362869844 1:4 2:1.35709 3:1.0965101 4:-0.26443499 5:1.06713 #
31.243306640000000129475665744394 1:-4 2:1.00783 3:1.01314 4:-0.948771 5:0.046592198 #
-31.622779999999998779003362869844 1:0 2:0.99234599 3:0.88309801 4:-1.07228 5:0.045414701 #
-31.622779999999998779003362869844 1:5 2:1.9174 3:1.20979 4:-0.14839099 5:1.73787 #
-31.622779999999998779003362869844 1:2 2:1.1312 3:1.01452 4:1.02946 5:2.1756101 #
31.243306640000000129475665744394 1:3 2:1.93659 3:1.13727 4:0.28334099 5:2.2588301 #
-31.622779999999998779003362869844 1:-3 2:1.7160701 3:1.10712 4:0.46153501 5:2.2270401 #
31.243306640000000129475665744394 1:-1 2:1.5602 3:0.837075 4:1.08067 5:2.4647999 #
31.243306640000000129475665744394 1:0 2:1.50502 3:1.07024 4:0.96311003 5:2.53578 #
31.243306640000000129475665744394 1:1 2:1.24721 3:0.86781299 4:-0.44965801 5:0.856996 #
-31.622779999999998779003362869844 1:4 2:1.62559 3:0.89408702 4:0.690624 5:2.2430601 #
31.243306640000000129475665744394 1:1 2:1.31198 3:1.07857 4:0.52382803 5:1.8769701 #
31.243306640000000129475665744394 1:1 2:1.24721 3:0.86781299 4:-0.285478 5:0.99947298 #
-31.622779999999998779003362869844 1:4 2:1.74988 3:1.08825 4:-0.588826 5:1.10909 #
-31.622779999999998779003362869844 1:-3 2:1.71984 3:1.0014499 4:0.37593901 5:2.0963299 #
-31.622779999999998779003362869844 1:-1 2:0.66816097 3:0.66904002 4:1.42645 5:1.62251 #
31.243306640000000129475665744394 1:-2 2:1.44398 3:1.12261 4:0.86871397 5:2.41921 #
-31.622779999999998779003362869844 1:5 2:1.88029 3:1.21034 4:-0.102043 5:1.75679 #
-31.622779999999998779003362869844 1:5 2:1.4972 3:1.0197001 4:1.42466 5:2.94994 #
-31.622779999999998779003362869844 1:5 2:1.82911 3:1.06621 4:-0.82305998 5:0.95155698 #
-31.622779999999998779003362869844 1:-1 2:1.4972 3:1.0197001 4:-0.25007799 5:1.2422 #
-31.622779999999998779003362869844 1:-4 2:1.74207 3:1.04381 4:0.50947499 5:2.27386 #
31.243306640000000129475665744394 1:3 2:1.35537 3:0.92106497 4:0.0248066 5:1.37822 #
31.243306640000000129475665744394 1:1 2:0.75451201 3:0.82128799 4:0.17027099 5:0.89435297 #
-31.622779999999998779003362869844 1:-1 2:1.5907 3:0.98839402 4:0.31626201 5:1.90329 #
-31.622779999999998779003362869844 1:5 2:1.4782 3:0.95251501 4:-0.81386399 5:0.702986 #
-31.622779999999998779003362869844 1:5 2:1.62366 3:0.86343199 4:-0.50981498 5:1.18346 #
-31.622779999999998779003362869844 1:2 2:1.37632 3:1.05853 4:0.59685397 5:2.00811 #
31.243306640000000129475665744394 1:-3 2:1.85197 3:1.0232199 4:1.54199 5:3.42976 #
-31.622779999999998779003362869844 1:7 2:2.0511 3:0.95946002 4:-0.083306201 5:1.9711699 #
-31.622779999999998779003362869844 1:2 2:1.23221 3:1.0693901 4:0.81688899 5:2.1057899 #
31.243306640000000129475665744394 1:-4 2:0.87976301 3:0.89962202 4:-0.0109554 5:0.86990798 #
-31.622779999999998779003362869844 1:5 2:1.1872 3:1.0207601 4:-0.32876101 5:0.85161501 #
31.243306640000000129475665744394 1:4 2:1.59615 3:1.05901 4:-0.35372201 5:1.22156 #
31.243306640000000129475665744394 1:-3 2:2.0232799 3:1.19803 4:-0.30441299 5:1.6585799 #
31.243306640000000129475665744394 1:-3 2:1.902 3:0.83186501 4:-1.64342 5:0.53488898 #
31.243306640000000129475665744394 1:-4 2:1.2376 3:1.00484 4:-0.59571499 5:0.63900203 #
31.243306640000000129475665744394 1:0 2:1.018 3:0.94628501 4:0.490459 5:1.48212 #
-31.622779999999998779003362869844 1:4 2:1.1628799 3:0.73612201 4:0.36205599 5:1.4294 #
31.243306640000000129475665744394 1:5 2:1.76824 3:1.00226 4:-1.33026 5:0.434973 #
-31.622779999999998779003362869844 1:3 2:0.76588601 3:0.639332 4:1.72648 5:1.86968 #
31.243306640000000129475665744394 1:-3 2:1.53941 3:1.01803 4:-0.41806301 5:1.1138099 #
31.243306640000000129475665744394 1:3 2:1.35709 3:1.0965101 4:-0.30041799 5:1.02768 #
31.243306640000000129475665744394 1:-3 2:1.7455 3:1.09008 4:0.30578899 5:2.07884 #
-31.622779999999998779003362869844 1:-4 2:0.83973002 3:0.895549 4:1.4256999 5:2.1165199 #
-31.622779999999998779003362869844 1:4 2:1.0771199 3:0.83791 4:-0.95110703 5:0.28017801 #
-31.622779999999998779003362869844 1:5 2:1.3453799 3:0.61588001 4:0.66456598 5:1.75468 #
-31.622779999999998779003362869844 1:5 2:2.17079 3:1.03501 4:0.88328999 5:3.085 #
31.243306640000000129475665744394 1:1 2:1.85197 3:1.0232199 4:0.58297402 5:2.4484799 #
-31.622779999999998779003362869844 1:1 2:1.3453799 3:0.61588001 4:2.84127 5:3.0952599 #
31.243306640000000129475665744394 1:2 2:1.37097 3:0.82733399 4:-0.95627201 5:0.57981098 #
31.243306640000000129475665744394 1:-4 2:1.0221601 3:1.0447 4:1.08507 5:2.15574 #
31.243306640000000129475665744394 1:2 2:1.24721 3:0.86781299 4:-1.07087 5:0.31790099 #
31.243306640000000129475665744394 1:6 2:1.52431 3:0.85831499 4:-0.74620801 5:0.88382602 #
-31.622779999999998779003362869844 1:-4 2:0.669182 3:0.70376003 4:-0.099496201 5:0.59916103 #
31.243306640000000129475665744394 1:-1 2:1.8521 3:1.25919 4:0.87540102 5:2.9544001 #
-31.622779999999998779003362869844 1:2 2:0.66816097 3:0.66904002 4:-0.73081201 5:0.17921799 #
31.243306640000000129475665744394 1:3 2:2.33689 3:1.27858 4:0.045835201 5:2.3954899 #
-31.622779999999998779003362869844 1:-6 2:1.55529 3:1.03948 4:0.99748302 5:2.59216 #
31.243306640000000129475665744394 1:-4 2:1.62771 3:1.04094 4:0.26291499 5:1.90139 #
-31.622779999999998779003362869844 1:-2 2:0.66816097 3:0.66904002 4:1.34145 5:1.56564 #
-31.622779999999998779003362869844 1:5 2:1.1813101 3:0.83211398 4:-0.89062601 5:0.44020501 #
-31.622779999999998779003362869844 1:-4 2:0.66816097 3:0.66904002 4:1.73198 5:1.82693 #
31.243306640000000129475665744394 1:-4 2:1.50955 3:1.02886 4:-0.31798699 5:1.18239 #
-31.622779999999998779003362869844 1:3 2:0.94931501 3:0.63245398 4:1.29838 5:1.77048 #
31.243306640000000129475665744394 1:7 2:1.93659 3:1.13727 4:-1.07032 5:0.71935397 #
-31.622779999999998779003362869844 1:1 2:1.83204 3:1.03072 4:-0.246889 5:1.5775599 #
-31.622779999999998779003362869844 1:4 2:2.1401401 3:1.02097 4:-1.06425 5:1.05357 #
31.243306640000000129475665744394 1:-5 2:1.13097 3:0.93119699 4:-0.71464097 5:0.4655 #
31.243306640000000129475665744394 1:-2 2:1.70067 3:1.1478601 4:0.405485 5:2.16611 #
-31.622779999999998779003362869844 1:-4 2:0.955477 3:0.88759202 4:0.289653 5:1.21257 #
31.243306640000000129475665744394 1:2 2:0.87976301 3:0.89962202 4:-0.085639603 5:0.80272001 #
-31.622779999999998779003362869844 1:4 2:1.0771199 3:0.83791 4:0.0564643 5:1.1244299 #
-31.622779999999998779003362869844 1:3 2:0.76619899 3:0.78062201 4:-0.98152399 5:0 #
-31.622779999999998779003362869844 1:-4 2:1.14106 3:0.984613 4:0.86316103 5:1.99094 #
31.243306640000000129475665744394 1:-3 2:1.05028 3:0.80046201 4:1.26013 5:2.05897 #
31.243306640000000129475665744394 1:-4 2:1.81774 3:1.07244 4:0.87502402 5:2.75615 #
-31.622779999999998779003362869844 1:3 2:1.0771199 3:0.83791 4:-1.1906199 5:0.079490401 #
-31.622779999999998779003362869844 1:6 2:2.3569601 3:1.01671 4:0.212302 5:2.5728099 #
-31.622779999999998779003362869844 1:1 2:1.58302 3:0.88838601 4:0.14509401 5:1.71192 #
-31.622779999999998779003362869844 1:5 2:1.87287 3:0.98068303 4:0.23185199 5:2.10024 #
-31.622779999999998779003362869844 1:6 2:1.7455 3:1.09008 4:1.18971 5:3.0423801 #
-31.622779999999998779003362869844 1:-6 2:1.48139 3:0.85257399 4:0.94712102 5:2.2888801 #
-31.622779999999998779003362869844 1:-2 2:1.83175 3:1.0678101 4:0.65937901 5:2.53584 #
-31.622779999999998779003362869844 1:6 2:1.4651901 3:0.88214099 4:-0.13397001 5:1.34701 #
-31.622779999999998779003362869844 1:0 2:1.50111 3:1.08892 4:-0.33897501 5:1.132 #
31.243306640000000129475665744394 1:-5 2:0.97789901 3:0.89648002 4:-1.09082 5:0 #
-31.622779999999998779003362869844 1:0 2:1.87341 3:0.91479498 4:-0.56779099 5:1.35399 #
31.243306640000000129475665744394 1:-4 2:1.55281 3:1.02739 4:-1.36683 5:0.148542 #
-31.622779999999998779003362869844 1:5 2:0.60438901 3:0.675583 4:0.54775399 5:0.97444099 #
31.243306640000000129475665744394 1:-2 2:1.79808 3:1.01794 4:0.517156 5:2.3245101 #
-31.622779999999998779003362869844 1:1 2:1.22021 3:0.99822801 4:-0.86625701 5:0.35548899 #
31.243306640000000129475665744394 1:-5 2:1.31406 3:1.00932 4:0.430758 5:1.74883 #
-31.622779999999998779003362869844 1:6 2:2.1907001 3:1.06112 4:-0.71942699 5:1.4273 #
31.243306640000000129475665744394 1:-4 2:1.57306 3:1.10114 4:1.63196 5:3.37008 #
-31.622779999999998779003362869844 1:1 2:1.19522 3:0.86235601 4:0.43825501 5:1.5731601 #
31.243306640000000129475665744394 1:0 2:1.8939101 3:1.0786 4:0.436876 5:2.3651199 #
31.243306640000000129475665744394 1:-1 2:0.71114099 3:0.79041398 4:-0.89970702 5:0 #
-31.622779999999998779003362869844 1:5 2:1.66827 3:0.83350301 4:-0.247411 5:1.46206 #
-31.622779999999998779003362869844 1:-3 2:1.31198 3:1.07857 4:0.25892201 5:1.5912499 #
-31.622779999999998779003362869844 1:5 2:0.60438901 3:0.675583 4:0.54775399 5:0.97444099 #
-31.622779999999998779003362869844 1:-4 2:0.83323503 3:0.89043701 4:1.02966 5:1.75008 #
-31.622779999999998779003362869844 1:3 2:0.702811 3:0.75386399 4:-0.93227899 5:0 #
-31.622779999999998779003362869844 1:-3 2:0.60438901 3:0.675583 4:1.42588 5:1.56769 #
31.243306640000000129475665744394 1:1 2:1.22797 3:0.97861099 4:-0.87140203 5:0.375204 #
-31.622779999999998779003362869844 1:0 2:1.36106 3:1.14565 4:-0.77098203 5:0.47778299 #
-31.622779999999998779003362869844 1:4 2:1.97919 3:0.97186702 4:0.88604301 5:2.8403001 #
-31.622779999999998779003362869844 1:0 2:2.0490799 3:0.96838701 4:-0.206093 5:1.8494999 #
31.243306640000000129475665744394 1:-4 2:1.1872 3:1.0207601 4:0.091048002 5:1.28014 #
-31.622779999999998779003362869844 1:4 2:1.95611 3:0.92748702 4:0.83160698 5:2.7274201 #
-31.622779999999998779003362869844 1:-2 2:1.5907 3:0.98839402 4:0.547876 5:2.13222 #
31.243306640000000129475665744394 1:0 2:1.40037 3:0.88725102 4:0.89176297 5:2.1915901 #
31.243306640000000129475665744394 1:2 2:1.24721 3:0.86781299 4:-0.56670803 5:0.755418 #
-31.622779999999998779003362869844 1:-1 2:0.93081403 3:0.81369197 4:-0.80471301 5:0.276025 #
-31.622779999999998779003362869844 1:3 2:0.78543198 3:0.65632701 4:1.7095701 5:1.90747 #
31.243306640000000129475665744394 1:-4 2:1.8939101 3:1.0786 4:-0.591429 5:1.256 #
-31.622779999999998779003362869844 1:3 2:0.60438901 3:0.675583 4:2.8357799 5:2.52019 #
-31.622779999999998779003362869844 1:4 2:2.0532899 3:0.95874 4:0.95931202 5:2.9730201 #
-31.622779999999998779003362869844 1:-1 2:1.4486001 3:1.02431 4:-0.474042 5:0.96303397 #
-31.622779999999998779003362869844 1:-5 2:1.5216 3:1.12692 4:0.83079201 5:2.45783 #
31.243306640000000129475665744394 1:-3 2:0.75451201 3:0.82128799 4:-0.91869301 5:0 #
-31.622779999999998779003362869844 1:-4 2:1.74841 3:0.88853103 4:0.62614101 5:2.30475 #
31.243306640000000129475665744394 1:-4 2:1.83175 3:1.0678101 4:-0.33735201 5:1.4715199 #
31.243306640000000129475665744394 1:0 2:1.24721 3:0.86781299 4:-1.4371901 5:0 #
-31.622779999999998779003362869844 1:6 2:1.91395 3:1.01327 4:-0.54273498 5:1.36401 #
-31.622779999999998779003362869844 1:4 2:1.95611 3:0.92748702 4:0.97541898 5:2.8608 #
31.243306640000000129475665744394 1:1 2:1.64044 3:1.03105 4:-1.11901 5:0.48668399 #
31.243306640000000129475665744394 1:0 2:1.62771 3:1.04094 4:1.0440201 5:2.7144799 #
31.243306640000000129475665744394 1:0 2:2.0138199 3:0.93314201 4:1.19424 5:3.1282101 #
31.243306640000000129475665744394 1:-1 2:1.29354 3:0.96996599 4:0.659127 5:1.93287 #
31.243306640000000129475665744394 1:5 2:1.36143 3:1.01285 4:-0.525078 5:0.82960701 #
-31.622779999999998779003362869844 1:1 2:2.17079 3:1.03501 4:-0.68079197 5:1.4661601 #
31.243306640000000129475665744394 1:0 2:1.6693799 3:0.99993598 4:1.08534 5:2.7546401 #
-31.622779999999998779003362869844 1:3 2:0.54617703 3:0.56291199 4:1.6821001 5:1.49305 #
-31.622779999999998779003362869844 1:2 2:1.81084 3:1.13265 4:-0.80493301 5:0.89913499 #
31.243306640000000129475665744394 1:-1 2:1.24721 3:0.86781299 4:-1.4371901 5:0 #
31.243306640000000129475665744394 1:-4 2:1.1959 3:0.941046 4:-0.41455299 5:0.805785 #
31.243306640000000129475665744394 1:-3 2:0.76588601 3:0.639332 4:1.49113 5:1.71922 #
-31.622779999999998779003362869844 1:-5 2:2.1774499 3:1.09971 4:1.00199 5:3.27934 #
-31.622779999999998779003362869844 1:-1 2:0.66816097 3:0.66904002 4:1.90885 5:1.94526 #
31.243306640000000129475665744394 1:0 2:1.7455 3:1.09008 4:0.93638998 5:2.7662399 #
31.243306640000000129475665744394 1:4 2:1.07049 3:0.945768 4:-1.13188 5:0 #
-31.622779999999998779003362869844 1:5 2:0.66816097 3:0.66904002 4:-0.73081201 5:0.17921799 #
-31.622779999999998779003362869844 1:3 2:0.49548399 3:0.66960001 4:0.41091001 5:0.77062899 #
-31.622779999999998779003362869844 1:5 2:1.03071 3:0.73451799 4:0.59336001 5:1.46655 #
-31.622779999999998779003362869844 1:4 2:1.40644 3:0.858298 4:-1.2271399 5:0.353183 #
31.243306640000000129475665744394 1:1 2:1.50955 3:1.02886 4:-0.31404901 5:1.18644 #
-31.622779999999998779003362869844 1:-3 2:1.91395 3:1.01327 4:0.53057402 5:2.45156 #
31.243306640000000129475665744394 1:0 2:1.24721 3:0.86781299 4:0.063848197 5:1.3026201 #
31.243306640000000129475665744394 1:-1 2:0.83973002 3:0.895549 4:0.41552001 5:1.21185 #
-31.622779999999998779003362869844 1:5 2:1.62559 3:0.89408702 4:-0.720227 5:0.98164099 #
31.243306640000000129475665744394 1:-3 2:0.88857102 3:0.99428099 4:-0.24760801 5:0.64237899 #
-31.622779999999998779003362869844 1:6 2:2.0903499 3:0.95271301 4:-0.244211 5:1.85769 #
31.243306640000000129475665744394 1:-2 2:0.65489501 3:0.79360002 4:-0.63482702 5:0.151097 #
-31.622779999999998779003362869844 1:-5 2:1.43215 3:1.0989799 4:1.03431 5:2.56883 #
-31.622779999999998779003362869844 1:-5 2:1.3606 3:0.91497099 4:0.86119401 5:2.1485701 #
-31.622779999999998779003362869844 1:3 2:1.23945 3:0.80739897 4:-1.53512 5:0 #
31.243306640000000129475665744394 1:4 2:1.31406 3:1.00932 4:-0.24259201 5:1.0692 #
-31.622779999999998779003362869844 1:6 2:1.8987 3:0.99098301 4:0.240475 5:2.1370001 #
31.243306640000000129475665744394 1:-4 2:1.31406 3:1.00932 4:-1.30193 5:0 #
-31.622779999999998779003362869844 1:2 2:1.56319 3:0.79692501 4:0.87857002 5:2.26335 #
-31.622779999999998779003362869844 1:-4 2:0.66816097 3:0.66904002 4:1.54089 5:1.69908 #
-31.622779999999998779003362869844 1:-2 2:1.31198 3:1.07857 4:0.99163598 5:2.3815401 #
31.243306640000000129475665744394 1:-4 2:1.5708899 3:1.0763299 4:0.200661 5:1.78687 #
-31.622779999999998779003362869844 1:-3 2:1.87341 3:0.91479498 4:0.61348301 5:2.4346199 #
31.243306640000000129475665744394 1:3 2:1.40908 3:0.94591802 4:0.066658497 5:1.4721299 #
31.243306640000000129475665744394 1:1 2:1.13097 3:0.93119699 4:-0.55433899 5:0.61477298 #
-31.622779999999998779003362869844 1:-4 2:1.81402 3:0.97455198 4:1.03847 5:2.8260601 #
31.243306640000000129475665744394 1:-1 2:0.88857102 3:0.99428099 4:-0.73553801 5:0.157239 #
-31.622779999999998779003362869844 1:-1 2:1.36143 3:1.01285 4:-0.59435099 5:0.759444 #
-31.622779999999998779003362869844 1:-4 2:1.68524 3:1.07125 4:1.54785 5:3.34337 #
31.243306640000000129475665744394 1:-1 2:1.7455 3:1.09008 4:1.28564 5:3.14695 #
-31.622779999999998779003362869844 1:-4 2:1.93928 3:1.05089 4:0.62461102 5:2.59568 #
-31.622779999999998779003362869844 1:-1 2:1.10786 3:0.77635998 4:-0.71394598 5:0.553581 #
-31.622779999999998779003362869844 1:4 2:1.04962 3:0.83132398 4:-0.103421 5:0.96363997 #
-31.622779999999998779003362869844 1:-4 2:1.76796 3:0.86441803 4:0.53821301 5:2.2332001 #
-31.622779999999998779003362869844 1:2 2:1.07049 3:0.945768 4:0.36407 5:1.41482 #
-31.622779999999998779003362869844 1:4 2:1.12322 3:0.85227698 4:0.95501101 5:1.93715 #
31.243306640000000129475665744394 1:0 2:1.85197 3:1.0232199 4:1.13016 5:3.0083699 #
-31.622779999999998779003362869844 1:4 2:1.24823 3:0.82749498 4:1.38836 5:2.39709 #
-31.622779999999998779003362869844 1:-4 2:1.00783 3:1.01314 4:1.18528 5:2.2086999 #
-31.622779999999998779003362869844 1:5 2:1.0771199 3:0.83791 4:-0.96512699 5:0.26843101 #
-31.622779999999998779003362869844 1:-4 2:1.87341 3:0.91479498 4:0.82242399 5:2.6257601 #
-31.622779999999998779003362869844 1:5 2:1.2974 3:0.76756603 4:0.0782509 5:1.35747 #
-31.622779999999998779003362869844 1:5 2:1.3887399 3:0.83737999 4:1.2014199 5:2.3947899 #
31.243306640000000129475665744394 1:4 2:1.60412 3:1.03654 4:-0.54616201 5:1.03801 #
31.243306640000000129475665744394 1:-5 2:0.83973002 3:0.895549 4:-0.93767101 5:0 #
-31.622779999999998779003362869844 1:-5 2:1.35709 3:1.0965101 4:1.08415 5:2.5458701 #
-31.622779999999998779003362869844 1:-2 2:1.82911 3:1.06621 4:0.196999 5:2.03915 #
-31.622779999999998779003362869844 1:-1 2:2.01107 3:1.02891 4:-0.0619184 5:1.9473701 #
-31.622779999999998779003362869844 1:4 2:1.0771199 3:0.83791 4:-0.039188702 5:1.0442801 #
-31.622779999999998779003362869844 1:3 2:1.2376 3:1.00484 4:0.80283999 5:2.0443201 #
-31.622779999999998779003362869844 1:-5 2:0.97789901 3:0.89648002 4:1.07952 5:1.94567 #
31.243306640000000129475665744394 1:-3 2:0.76588601 3:0.639332 4:1.5457 5:1.7541 #
-31.622779999999998779003362869844 1:3 2:0.60438901 3:0.675583 4:-0.70332599 5:0.129234 #
31.243306640000000129475665744394 1:-2 2:1.66388 3:1.13077 4:0.435206 5:2.1559999 #
-31.622779999999998779003362869844 1:2 2:0.60438901 3:0.675583 4:-0.51272702 5:0.257999 #
-31.622779999999998779003362869844 1:-3 2:1.84576 3:1.19556 4:0.432657 5:2.36303 #
-31.622779999999998779003362869844 1:-1 2:1.87287 3:0.98068303 4:-0.242883 5:1.63468 #
-31.622779999999998779003362869844 1:-2 2:1.84576 3:1.19556 4:0.77510101 5:2.77244 #
-31.622779999999998779003362869844 1:-1 2:1.31198 3:1.07857 4:-0.287512 5:1.00188 #
-31.622779999999998779003362869844 1:3 2:1.24823 3:0.82749498 4:0.310523 5:1.50518 #
31.243306640000000129475665744394 1:0 2:1.83175 3:1.0678101 4:0.98835701 5:2.88713 #
31.243306640000000129475665744394 1:-4 2:1.31406 3:1.00932 4:-0.64820802 5:0.65980899 #
-31.622779999999998779003362869844 1:-3 2:0.54617703 3:0.56291199 4:2.5567501 5:1.9854 #
-31.622779999999998779003362869844 1:5 2:1.0964 3:0.90484601 4:-1.2116899 5:0 #
31.243306640000000129475665744394 1:0 2:1.4928499 3:0.96682799 4:0.875269 5:2.3390901 #
-31.622779999999998779003362869844 1:2 2:1.0783499 3:0.886917 4:-1.11831 5:0.086504199 #
31.243306640000000129475665744394 1:0 2:0.87976301 3:0.89962202 4:0.58339602 5:1.4046 #
31.243306640000000129475665744394 1:-4 2:0.94466901 3:0.878658 4:-0.76673198 5:0.270973 #
-31.622779999999998779003362869844 1:-5 2:1.5216 3:1.12692 4:0.849235 5:2.4786201 #
-31.622779999999998779003362869844 1:3 2:0.669182 3:0.70376003 4:1.6687599 5:1.84359 #
31.243306640000000129475665744394 1:-4 2:1.83175 3:1.0678101 4:0.70764703 5:2.5873799 #
31.243306640000000129475665744394 1:-4 2:1.41299 3:1.0217201 4:-0.075808398 5:1.33553 #
31.243306640000000129475665744394 1:-1 2:1.62771 3:1.04094 4:1.27771 5:2.9577401 #
31.243306640000000129475665744394 1:-2 2:1.31198 3:1.07857 4:0.82419997 5:2.2009399 #
-31.622779999999998779003362869844 1:-1 2:0.66816097 3:0.66904002 4:2.20595 5:2.1440301 #
-31.622779999999998779003362869844 1:1 2:1.23221 3:1.0693901 4:-1.08587 5:0.0709989 #
-31.622779999999998779003362869844 1:-1 2:1.96764 3:0.90547401 4:-0.223207 5:1.76553 #
31.243306640000000129475665744394 1:-1 2:1.51836 3:1.05391 4:1.2121 5:2.79581 #
-31.622779999999998779003362869844 1:4 2:0.54617703 3:0.56291199 4:-0.0347475 5:0.52661699 #
31.243306640000000129475665744394 1:-5 2:1.41299 3:1.0217201 4:1.2966 5:2.7377501 #
31.243306640000000129475665744394 1:1 2:1.44398 3:1.12261 4:0.67062497 5:2.19683 #
31.243306640000000129475665744394 1:-3 2:0.60438901 3:0.675583 4:1.42588 5:1.56769 #
-31.622779999999998779003362869844 1:2 2:0.60438901 3:0.675583 4:-0.51272702 5:0.257999 #
-31.622779999999998779003362869844 1:2 2:0.49548399 3:0.66960001 4:0.63143998 5:0.91829598 #
31.243306640000000129475665744394 1:0 2:1.56733 3:0.95228899 4:0.93043202 5:2.4533701 #
31.243306640000000129475665744394 1:-2 2:0.75451201 3:0.82128799 4:-0.339562 5:0.47563401 #
31.243306640000000129475665744394 1:0 2:2.01841 3:0.96889901 4:1.21219 5:3.1928999 #
-31.622779999999998779003362869844 1:-5 2:1.5216 3:1.12692 4:1.0685 5:2.7257099 #
-31.622779999999998779003362869844 1:-3 2:1.96427 3:1.12922 4:0.75351202 5:2.81515 #
-31.622779999999998779003362869844 1:3 2:1.61112 3:0.83684599 4:2.03914 5:3.31757 #
31.243306640000000129475665744394 1:-3 2:1.0221601 3:1.0447 4:0.98099297 5:2.0469999 #
31.243306640000000129475665744394 1:4 2:1.55281 3:1.02739 4:-0.39551601 5:1.1464601 #
31.243306640000000129475665744394 1:-1 2:1.56733 3:0.95228899 4:0.540317 5:2.0818601 #
-31.622779999999998779003362869844 1:1 2:0.58884901 3:0.80306399 4:-0.733253 5:0 #
31.243306640000000129475665744394 1:-4 2:1.41299 3:1.0217201 4:0.67536902 5:2.10303 #
-31.622779999999998779003362869844 1:-2 2:1.96287 3:1.01078 4:0.052175298 5:2.01561 #
31.243306640000000129475665744394 1:-4 2:1.93225 3:1.08399 4:0.68810999 5:2.67816 #
-31.622779999999998779003362869844 1:-1 2:0.94466901 3:0.878658 4:-0.85237098 5:0.19572601 #
31.243306640000000129475665744394 1:-4 2:0.669182 3:0.70376003 4:-0.950867 5:0 #
-31.622779999999998779003362869844 1:0 2:0.97790402 3:0.979496 4:-0.998375 5:0 #
-31.622779999999998779003362869844 1:2 2:0.60438901 3:0.675583 4:2.8157001 5:2.5066299 #
-31.622779999999998779003362869844 1:5 2:1.33886 3:0.99821198 4:-1.20755 5:0.133468 #
31.243306640000000129475665744394 1:-3 2:2.11269 3:0.88916999 4:-0.345696 5:1.80531 #
31.243306640000000129475665744394 1:2 2:1.44398 3:1.12261 4:0.256908 5:1.73239 #
-31.622779999999998779003362869844 1:6 2:1.36143 3:1.01285 4:-1.34416 5:0 #
31.243306640000000129475665744394 1:-2 2:1.56733 3:0.95228899 4:-0.14939 5:1.42506 #
31.243306640000000129475665744394 1:2 2:0.94713598 3:0.884911 4:0.063169204 5:1.00304 #
-31.622779999999998779003362869844 1:5 2:1.0964 3:0.90484601 4:-0.46338901 5:0.6771 #
-31.622779999999998779003362869844 1:-3 2:1.6319799 3:1.06371 4:0.27741 5:1.92706 #
31.243306640000000129475665744394 1:-4 2:1.19946 3:0.962237 4:0.70849699 5:1.8812 #
31.243306640000000129475665744394 1:0 2:1.24721 3:0.86781299 4:0.64272201 5:1.80498 #
-31.622779999999998779003362869844 1:2 2:1.1911401 3:0.93611801 4:0.602817 5:1.75544 #
-31.622779999999998779003362869844 1:0 2:1.0771199 3:0.83791 4:-0.0940689 5:0.998299 #
-31.622779999999998779003362869844 1:5 2:0.83973002 3:0.895549 4:-0.93767101 5:0 #
-31.622779999999998779003362869844 1:-5 2:1.35709 3:1.0965101 4:1.21655 5:2.6910501 #
31.243306640000000129475665744394 1:-1 2:1.66388 3:1.13077 4:1.17759 5:2.99547 #
31.243306640000000129475665744394 1:-3 2:1.13097 3:0.93119699 4:0.29023901 5:1.40124 #
31.243306640000000129475665744394 1:6 2:2.11269 3:0.88916999 4:-1.09475 5:1.13928 #
-31.622779999999998779003362869844 1:-3 2:1.40762 3:0.98439503 4:0.34692299 5:1.74913 #
-31.622779999999998779003362869844 1:4 2:1.17247 3:1.03269 4:-0.78037697 5:0.36658499 #
-31.622779999999998779003362869844 1:3 2:0.60438901 3:0.675583 4:-0.51272702 5:0.257999 #
31.243306640000000129475665744394 1:3 2:1.51863 3:0.86678499 4:-0.732849 5:0.88340402 #
-31.622779999999998779003362869844 1:6 2:1.81774 3:1.07244 4:-1.62552 5:0.074466199 #
-31.622779999999998779003362869844 1:-1 2:0.66816097 3:0.66904002 4:-0.99868602 5:0 #
31.243306640000000129475665744394 1:-1 2:1.3004 3:0.84626299 4:0.815763 5:1.99075 #
-31.622779999999998779003362869844 1:-2 2:1.55574 3:1.05451 4:0.56612903 5:2.15273 #
-31.622779999999998779003362869844 1:-2 2:1.3547 3:0.79231799 4:0.34899601 5:1.63122 #
-31.622779999999998779003362869844 1:-4 2:0.66816097 3:0.66904002 4:1.05823 5:1.37616 #
31.243306640000000129475665744394 1:2 2:0.71859503 3:0.79418898 4:-0.13725799 5:0.609586 #
-31.622779999999998779003362869844 1:1 2:0.66816097 3:0.66904002 4:0.19898801 5:0.801292 #
-31.622779999999998779003362869844 1:-4 2:1.5907 3:0.98839402 4:0.73999298 5:2.3220999 #
-31.622779999999998779003362869844 1:-1 2:1.36106 3:1.14565 4:1.54684 5:3.1331899 #
31.243306640000000129475665744394 1:-4 2:0.60438901 3:0.675583 4:-0.70332599 5:0.129234 #
31.243306640000000129475665744394 1:0 2:1.07049 3:0.945768 4:0.489602 5:1.53354 #
-31.622779999999998779003362869844 1:-1 2:1.1813101 3:0.83211398 4:-0.313752 5:0.92022902 #
31.243306640000000129475665744394 1:-5 2:0.89731598 3:0.755844 4:1.71005 5:2.1898501 #
31.243306640000000129475665744394 1:-3 2:1.42486 3:0.92185998 4:0.69568801 5:2.06618 #
-31.622779999999998779003362869844 1:-2 2:1.3082401 3:1.03414 4:-0.245554 5:1.0543 #
-31.622779999999998779003362869844 1:3 2:0.76588601 3:0.639332 4:-1.19795 5:0 #
-31.622779999999998779003362869844 1:2 2:0.94466901 3:0.878658 4:-0.44965199 5:0.54957801 #
-31.622779999999998779003362869844 1:2 2:1.0964 3:0.90484601 4:1.02458 5:2.02349 #
31.243306640000000129475665744394 1:2 2:1.40037 3:0.88725102 4:-0.98315603 5:0.528063 #
-31.622779999999998779003362869844 1:-3 2:1.55281 3:1.02739 4:0.392802 5:1.95637 #
-31.622779999999998779003362869844 1:4 2:1.5602 3:0.837075 4:1.68494 5:2.9706199 #
31.243306640000000129475665744394 1:0 2:1.85197 3:1.0232199 4:0.446374 5:2.3087101 #
-31.622779999999998779003362869844 1:6 2:1.12769 3:0.91838598 4:-1.05902 5:0.155103 #
-31.622779999999998779003362869844 1:3 2:1.0771199 3:0.83791 4:0.82340699 5:1.76706 #
-31.622779999999998779003362869844 1:3 2:0.80010599 3:0.94922799 4:-0.842902 5:0 #
31.243306640000000129475665744394 1:-3 2:1.93928 3:1.05089 4:-0.496797 5:1.4172 #
-31.622779999999998779003362869844 1:-1 2:0.59946799 3:0.60739601 4:-0.98694801 5:0 #
-31.622779999999998779003362869844 1:-1 2:1.586 3:1.0008 4:0.030045001 5:1.61607 #
31.243306640000000129475665744394 1:-3 2:0.42522699 3:0.62575001 4:-0.67954803 5:0 #
31.243306640000000129475665744394 1:2 2:0.42522699 3:0.62575001 4:-0.67954803 5:0 #
-31.622779999999998779003362869844 1:-5 2:2.1401401 3:1.02097 4:1.18777 5:3.3528199 #
-31.622779999999998779003362869844 1:-5 2:1.12769 3:0.91838598 4:1.6285501 5:2.6233301 #
31.243306640000000129475665744394 1:-5 2:1.62771 3:1.04094 4:0.25972199 5:1.89807 #
31.243306640000000129475665744394 1:0 2:1.24721 3:0.86781299 4:-1.23489 5:0.175565 #
-31.622779999999998779003362869844 1:5 2:2.03949 3:0.92934197 4:0.88172299 5:2.8589101 #
-31.622779999999998779003362869844 1:-1 2:1.31198 3:1.07857 4:-0.60602999 5:0.658337 #
31.243306640000000129475665744394 1:-1 2:1.5333 3:0.91683197 4:-1.4755501 5:0.180464 #
31.243306640000000129475665744394 1:-4 2:1.62366 3:0.86343199 4:2.1812699 5:3.50704 #
31.243306640000000129475665744394 1:-4 2:1.57946 3:0.96817899 4:-0.97162801 5:0.63875097 #
31.243306640000000129475665744394 1:-4 2:0.71114099 3:0.79041398 4:1.65719 5:2.0210099 #
31.243306640000000129475665744394 1:6 2:1.62366 3:0.86343199 4:-1.38383 5:0.42881101 #
-31.622779999999998779003362869844 1:6 2:1.93225 3:1.08399 4:-0.57626599 5:1.30759 #
-31.622779999999998779003362869844 1:-4 2:1.998 3:1.09684 4:1.5201 5:3.6653099 #
-31.622779999999998779003362869844 1:5 2:1.55574 3:1.05451 4:0.43673399 5:2.0162799 #
31.243306640000000129475665744394 1:-3 2:1.83175 3:1.0678101 4:0.243205 5:2.09145 #
-31.622779999999998779003362869844 1:-5 2:1.37675 3:1.01627 4:1.79568 5:3.2016499 #
-31.622779999999998779003362869844 1:0 2:1.66778 3:1.0614901 4:0.140067 5:1.81646 #
31.243306640000000129475665744394 1:0 2:1.7455 3:1.09008 4:0.460392 5:2.24737 #
31.243306640000000129475665744394 1:-3 2:1.40037 3:0.88725102 4:0.73267603 5:2.0504401 #
31.243306640000000129475665744394 1:1 2:1.64038 3:1.03262 4:0.78153598 5:2.4474101 #
-31.622779999999998779003362869844 1:5 2:0.969446 3:0.88004702 4:-0.74523503 5:0.31360301 #
31.243306640000000129475665744394 1:-4 2:1.7455 3:1.09008 4:0.57935899 5:2.3770499 #
31.243306640000000129475665744394 1:3 2:1.24721 3:0.86781299 4:-0.12573799 5:1.1381 #
-31.622779999999998779003362869844 1:5 2:1.71984 3:1.0014499 4:-1.00927 5:0.709108 #
-31.622779999999998779003362869844 1:-1 2:0.66816097 3:0.66904002 4:1.42233 5:1.61975 #
-31.622779999999998779003362869844 1:1 2:0.68495399 3:0.68714201 4:2.7263 5:2.55831 #
31.243306640000000129475665744394 1:-4 2:1.1959 3:0.941046 4:0.39162299 5:1.56443 #
31.243306640000000129475665744394 1:-1 2:1.35537 3:0.92106497 4:1.15861 5:2.4225299 #
-31.622779999999998779003362869844 1:5 2:1.4782 3:0.95251501 4:-0.79397702 5:0.721928 #
31.243306640000000129475665744394 1:-3 2:1.5707 3:1.02282 4:0.27539 5:1.85238 #
-31.622779999999998779003362869844 1:-3 2:2.1401401 3:1.02097 4:1.24099 5:3.40716 #
31.243306640000000129475665744394 1:-1 2:1.31406 3:1.00932 4:1.08692 5:2.4111099 #
31.243306640000000129475665744394 1:-1 2:1.24721 3:0.86781299 4:0.96076697 5:2.0809801 #
-31.622779999999998779003362869844 1:5 2:1.84576 3:1.19556 4:0.86091399 5:2.8750401 #
-31.622779999999998779003362869844 1:-3 2:1.6319799 3:1.06371 4:0.42236301 5:2.08125 #
-31.622779999999998779003362869844 1:-4 2:1.46762 3:0.95445698 4:2.0327599 5:3.4078 #
31.243306640000000129475665744394 1:-2 2:1.97919 3:0.97186702 4:-1.47168 5:0.54890603 #
31.243306640000000129475665744394 1:-2 2:1.52431 3:0.85831499 4:0.203308 5:1.69881 #
31.243306640000000129475665744394 1:-1 2:0.98061502 3:1.02185 4:0.98755002 5:1.98975 #
31.243306640000000129475665744394 1:1 2:1.5602 3:0.837075 4:0.60684198 5:2.0681701 #
-31.622779999999998779003362869844 1:-3 2:1.27169 3:1.07366 4:0.96855402 5:2.31159 #
-31.622779999999998779003362869844 1:-5 2:1.83204 3:1.03072 4:0.804052 5:2.66079 #
-31.622779999999998779003362869844 1:3 2:1.10891 3:0.98294902 4:0.188035 5:1.29374 #
31.243306640000000129475665744394 1:6 2:2.11269 3:0.88916999 4:-0.38577601 5:1.76967 #
-31.622779999999998779003362869844 1:-4 2:1.22797 3:0.97861099 4:0.206121 5:1.42968 #
31.243306640000000129475665744394 1:1 2:2.33689 3:1.27858 4:0.99862301 5:3.6136999 #
31.243306640000000129475665744394 1:-4 2:1.59615 3:1.05901 4:0.30385301 5:1.91793 #
31.243306640000000129475665744394 1:1 2:1.24721 3:0.86781299 4:-0.142939 5:1.12317 #
-31.622779999999998779003362869844 1:-1 2:0.65489501 3:0.79360002 4:-0.825221 5:0 #
31.243306640000000129475665744394 1:1 2:1.24721 3:0.86781299 4:-1.03376 5:0.350104 #
-31.622779999999998779003362869844 1:-3 2:1.35323 3:0.95720398 4:0.0371169 5:1.38876 #
-31.622779999999998779003362869844 1:-4 2:0.93703598 3:0.83602399 4:0.27938899 5:1.17061 #
-31.622779999999998779003362869844 1:3 2:1.8557 3:0.97061199 4:-0.64109898 5:1.23344 #
31.243306640000000129475665744394 1:-3 2:1.51836 3:1.05391 4:0.66692197 5:2.22124 #
-31.622779999999998779003362869844 1:-2 2:2.33689 3:1.27858 4:0.64832401 5:3.1658199 #
31.243306640000000129475665744394 1:-3 2:1.4553601 3:1.11892 4:0.54292798 5:2.06285 #
-31.622779999999998779003362869844 1:-5 2:2.0201099 3:1.36356 4:1.04748 5:3.44842 #
31.243306640000000129475665744394 1:-1 2:0.89791298 3:0.89988297 4:-0.99781102 5:0 #
31.243306640000000129475665744394 1:-2 2:1.57946 3:0.96817899 4:0.38372001 5:1.9509701 #
31.243306640000000129475665744394 1:-4 2:1.67634 3:0.83350801 4:-0.57176602 5:1.19977 #
-31.622779999999998779003362869844 1:-2 2:2.0201099 3:1.36356 4:0.746418 5:3.0379 #
31.243306640000000129475665744394 1:4 2:1.5602 3:0.837075 4:-0.42628801 5:1.20336 #
31.243306640000000129475665744394 1:1 2:1.50502 3:1.07024 4:0.617145 5:2.1655099 #
31.243306640000000129475665744394 1:-4 2:1.13097 3:0.93119699 4:0.36877799 5:1.47438 #
-31.622779999999998779003362869844 1:3 2:0.80010599 3:0.94922799 4:-0.842902 5:0 #
31.243306640000000129475665744394 1:-4 2:1.90318 3:0.91791803 4:0.481765 5:2.3454001 #
-31.622779999999998779003362869844 1:-2 2:1.13167 3:0.73424602 4:-0.44753301 5:0.80307198 #
-31.622779999999998779003362869844 1:2 2:0.72108603 3:0.855856 4:0.74079901 5:1.3551 #
31.243306640000000129475665744394 1:-4 2:1.8939101 3:1.0786 4:-0.115488 5:1.76934 #
-31.622779999999998779003362869844 1:4 2:1.1911401 3:0.93611801 4:-0.83220297 5:0.41209599 #
-31.622779999999998779003362869844 1:3 2:1.35709 3:1.0965101 4:1.7423 5:3.26755 #
31.243306640000000129475665744394 1:-4 2:1.83175 3:1.0678101 4:0.277686 5:2.1282699 #
31.243306640000000129475665744394 1:-3 2:1.21386 3:0.90820199 4:-1.20796 5:0.116789 #
-31.622779999999998779003362869844 1:4 2:1.62771 3:1.04094 4:-0.14713199 5:1.47456 #
31.243306640000000129475665744394 1:4 2:1.51634 3:0.87784302 4:-0.191256 5:1.3484499 #
-31.622779999999998779003362869844 1:1 2:2.0490799 3:0.96838701 4:0.41798601 5:2.45386 #
31.243306640000000129475665744394 1:4 2:1.59615 3:1.05901 4:-0.41054699 5:1.1613801 #
31.243306640000000129475665744394 1:-3 2:1.56733 3:0.95228899 4:-1.33126 5:0.29958001 #
31.243306640000000129475665744394 1:-4 2:1.35323 3:0.95720398 4:0.68544298 5:2.00934 #
-31.622779999999998779003362869844 1:-4 2:1.14106 3:0.984613 4:1.5034699 5:2.6214001 #
31.243306640000000129475665744394 1:5 2:2.11269 3:0.88916999 4:-0.85259497 5:1.3545901 #
-31.622779999999998779003362869844 1:4 2:0.94466901 3:0.878658 4:-0.67751199 5:0.34936699 #
-31.622779999999998779003362869844 1:-3 2:1.62559 3:0.89408702 4:0.508048 5:2.0798299 #
31.243306640000000129475665744394 1:-3 2:1.05028 3:0.80046201 4:-1.31209 5:0 #
-31.622779999999998779003362869844 1:0 2:1.81084 3:1.13265 4:0.20288999 5:2.0406401 #
-31.622779999999998779003362869844 1:6 2:1.7047499 3:1.10641 4:-1.30041 5:0.26595899 #
-31.622779999999998779003362869844 1:5 2:1.11625 3:0.89809102 4:-1.01952 5:0.20062201 #
31.243306640000000129475665744394 1:-4 2:1.7455 3:1.09008 4:0.257487 5:2.02618 #
-31.622779999999998779003362869844 1:-2 2:1.84576 3:1.19556 4:0.92747301 5:2.9546101 #
-31.622779999999998779003362869844 1:5 2:1.65644 3:1.04018 4:-0.108491 5:1.5435899 #
31.243306640000000129475665744394 1:2 2:1.7455 3:1.09008 4:0.115716 5:1.87164 #
-31.622779999999998779003362869844 1:-2 2:2.0201099 3:1.36356 4:0.95121598 5:3.3171501 #
31.243306640000000129475665744394 1:6 2:1.52431 3:0.85831499 4:-1.22681 5:0.47131801 #
-31.622779999999998779003362869844 1:-4 2:0.66816097 3:0.66904002 4:-0.115096 5:0.59115702 #
31.243306640000000129475665744394 1:-4 2:1.3872 3:0.91129398 4:-0.75048202 5:0.70329303 #
31.243306640000000129475665744394 1:4 2:1.19522 3:0.86235601 4:-0.49111301 5:0.77170902 #
31.243306640000000129475665744394 1:-4 2:1.6979001 3:1.1139801 4:1.35386 5:3.2060699 #
-31.622779999999998779003362869844 1:5 2:1.2141401 3:1.0628 4:-0.82731998 5:0.334867 #
31.243306640000000129475665744394 1:-4 2:0.98061502 3:1.02185 4:1.48339 5:2.4964199 #
-31.622779999999998779003362869844 1:0 2:1.91395 3:1.01327 4:-0.39799801 5:1.5106699 #
-31.622779999999998779003362869844 1:-1 2:1.24823 3:0.82749498 4:-0.051275302 5:1.2058001 #
31.243306640000000129475665744394 1:3 2:0.96527702 3:0.80471998 4:-0.188613 5:0.81349599 #
-31.622779999999998779003362869844 1:3 2:0.75451201 3:0.82128799 4:-0.91869301 5:0 #
31.243306640000000129475665744394 1:1 2:1.24721 3:0.86781299 4:-0.93383002 5:0.43682501 #
-31.622779999999998779003362869844 1:-1 2:1.6979001 3:1.1139801 4:0.072486103 5:1.77864 #
31.243306640000000129475665744394 1:7 2:1.5708899 3:1.0763299 4:-1.1188101 5:0.36668199 #
31.243306640000000129475665744394 1:3 2:1.24721 3:0.86781299 4:-0.28218701 5:1.0023299 #
31.243306640000000129475665744394 1:-4 2:1.60412 3:1.03654 4:0.687603 5:2.3168499 #
31.243306640000000129475665744394 1:2 2:1.31406 3:1.00932 4:-0.0093767103 5:1.30459 #
-31.622779999999998779003362869844 1:3 2:1.17601 3:0.98168701 4:1.80778 5:2.95068 #
-31.622779999999998779003362869844 1:5 2:1.5907 3:0.98839402 4:-0.94003803 5:0.66157103 #
31.243306640000000129475665744394 1:1 2:1.51836 3:1.05391 4:0.66620803 5:2.22049 #
-31.622779999999998779003362869844 1:-5 2:1.84576 3:1.19556 4:0.82318801 5:2.8299301 #
31.243306640000000129475665744394 1:3 2:0.89731598 3:0.755844 4:-0.99701798 5:0.14372601 #
-31.622779999999998779003362869844 1:1 2:1.41214 3:0.78801799 4:0.30059201 5:1.6490099 #
31.243306640000000129475665744394 1:2 2:1.24721 3:0.86781299 4:-0.248357 5:1.03169 #
31.243306640000000129475665744394 1:-4 2:0.65489501 3:0.79360002 4:1.2197599 5:1.62289 #
-31.622779999999998779003362869844 1:0 2:1.37632 3:1.05853 4:-0.00362905 5:1.37248 #
31.243306640000000129475665744394 1:4 2:1.83175 3:1.0678101 4:-0.185133 5:1.63406 #
31.243306640000000129475665744394 1:-3 2:1.65644 3:1.04018 4:0.68373501 5:2.36764 #
-31.622779999999998779003362869844 1:-2 2:0.63341898 3:0.88827902 4:-0.71308601 5:0 #
31.243306640000000129475665744394 1:3 2:1.41251 3:0.885019 4:-0.97739798 5:0.54749697 #
-31.622779999999998779003362869844 1:0 2:1.88029 3:1.21034 4:0.044922601 5:1.93467 #
31.243306640000000129475665744394 1:-4 2:1.36368 3:0.996198 4:1.32295 5:2.6816001 #
-31.622779999999998779003362869844 1:2 2:0.83973002 3:0.895549 4:-0.54309797 5:0.35335901 #
31.243306640000000129475665744394 1:2 2:1.1312 3:1.01452 4:0.098925903 5:1.23156 #
-31.622779999999998779003362869844 1:5 2:1.75692 3:0.99256098 4:-1.5674 5:0.20118199 #
31.243306640000000129475665744394 1:2 2:1.24721 3:0.86781299 4:-0.125066 5:1.13868 #
-31.622779999999998779003362869844 1:-3 2:1.91186 3:1.12249 4:0.489057 5:2.46082 #
-31.622779999999998779003362869844 1:6 2:1.81803 3:1.07645 4:0.090771496 5:1.91574 #
-31.622779999999998779003362869844 1:-4 2:1.88029 3:1.21034 4:0.60628003 5:2.6141 #
31.243306640000000129475665744394 1:1 2:1.93928 3:1.05089 4:-1.33091 5:0.540636 #
-31.622779999999998779003362869844 1:-1 2:0.57975602 3:0.72315198 4:-0.80170703 5:0 #
-31.622779999999998779003362869844 1:-2 2:1.43906 3:0.81187999 4:-0.071365602 5:1.38112 #
-31.622779999999998779003362869844 1:3 2:1.77064 3:0.98288703 4:0.0373349 5:1.80734 #
31.243306640000000129475665744394 1:2 2:1.56733 3:0.95228899 4:-1.10344 5:0.51652998 #
31.243306640000000129475665744394 1:-1 2:0.83973002 3:0.895549 4:-0.93767101 5:0 #
31.243306640000000129475665744394 1:-4 2:1.56733 3:0.95228899 4:0.055607699 5:1.62028 #
-31.622779999999998779003362869844 1:3 2:0.94466901 3:0.878658 4:-1.07513 5:0 #
-31.622779999999998779003362869844 1:4 2:1.93539 3:0.97448403 4:-0.50440103 5:1.4438601 #
-31.622779999999998779003362869844 1:3 2:1.05909 3:0.90254003 4:0.26755899 5:1.30058 #
-31.622779999999998779003362869844 1:4 2:1.13652 3:1.14421 4:-0.71016997 5:0.323939 #
-31.622779999999998779003362869844 1:5 2:2.0081501 3:1.1419899 4:-0.54385298 5:1.38708 #
31.243306640000000129475665744394 1:0 2:1.05028 3:0.80046201 4:0.61506498 5:1.5426199 #
31.243306640000000129475665744394 1:-1 2:1.56393 3:1.0580699 4:1.08701 5:2.7140601 #
-31.622779999999998779003362869844 1:4 2:1.61431 3:0.97343898 4:-0.021332299 5:1.59355 #
31.243306640000000129475665744394 1:-3 2:1.14121 3:0.96443498 4:-0.49083799 5:0.66782999 #
31.243306640000000129475665744394 1:-1 2:1.21579 3:1.0437599 4:0.64244801 5:1.88635 #
31.243306640000000129475665744394 1:-1 2:0.88857102 3:0.99428099 4:-0.893682 5:0 #
31.243306640000000129475665744394 1:-4 2:1.50955 3:1.02886 4:1.1708601 5:2.7142 #
-31.622779999999998779003362869844 1:4 2:1.31198 3:1.07857 4:-0.71251601 5:0.54348397 #
-31.622779999999998779003362869844 1:-2 2:1.50111 3:1.08892 4:1.89712 5:3.56692 #
31.243306640000000129475665744394 1:-1 2:1.12769 3:0.91838598 4:0.97289199 5:2.0211799 #
-31.622779999999998779003362869844 1:4 2:1.81823 3:1.00877 4:0.161925 5:1.98158 #
-31.622779999999998779003362869844 1:2 2:0.80010599 3:0.94922799 4:-0.70478302 5:0.131107 #
-31.622779999999998779003362869844 1:3 2:1.14106 3:0.984613 4:1.55432 5:2.6714599 #
-31.622779999999998779003362869844 1:2 2:0.585778 3:0.63373798 4:3.13643 5:2.5734501 #
31.243306640000000129475665744394 1:0 2:1.5333 3:0.91683197 4:-1.15499 5:0.47435999 #
31.243306640000000129475665744394 1:1 2:2.01841 3:0.96889901 4:0.95075798 5:2.9396 #
-31.622779999999998779003362869844 1:4 2:1.60412 3:1.03654 4:0.47639701 5:2.0979199 #
31.243306640000000129475665744394 1:3 2:1.6693799 3:0.99993598 4:-0.104505 5:1.56488 #
-31.622779999999998779003362869844 1:4 2:1.71984 3:1.0014499 4:0.151228 5:1.87129 #
31.243306640000000129475665744394 1:-4 2:0.86017901 3:0.789294 4:0.439156 5:1.2068 #
31.243306640000000129475665744394 1:-3 2:1.5707 3:1.02282 4:0.72256601 5:2.3097601 #
-31.622779999999998779003362869844 1:0 2:0.705612 3:0.68502802 4:-1.03005 5:0 #
-31.622779999999998779003362869844 1:3 2:0.60438901 3:0.675583 4:-0.51272702 5:0.257999 #
31.243306640000000129475665744394 1:-4 2:1.8939101 3:1.0786 4:1.15387 5:3.1384699 #
31.243306640000000129475665744394 1:1 2:1.05028 3:0.80046201 4:-1.31209 5:0 #
31.243306640000000129475665744394 1:-3 2:1.50502 3:1.07024 4:-0.17807899 5:1.31443 #
31.243306640000000129475665744394 1:4 2:0.86017901 3:0.789294 4:-0.61462998 5:0.37505499 #
31.243306640000000129475665744394 1:-4 2:1.7455 3:1.09008 4:0.81231302 5:2.63099 #
31.243306640000000129475665744394 1:1 2:1.83175 3:1.0678101 4:0.83886302 5:2.7275 #
31.243306640000000129475665744394 1:-3 2:1.56733 3:0.95228899 4:0.66558301 5:2.2011499 #
31.243306640000000129475665744394 1:1 2:1.81823 3:1.00877 4:0.67758799 5:2.50177 #
-31.622779999999998779003362869844 1:4 2:1.0964 3:0.90484601 4:-1.0601799 5:0.137099 #
-31.622779999999998779003362869844 1:-2 2:1.88029 3:1.21034 4:0.98073602 5:3.0673201 #
31.243306640000000129475665744394 1:-1 2:1.50502 3:1.07024 4:1.03816 5:2.6161001 #
-31.622779999999998779003362869844 1:-2 2:1.41927 3:1.17178 4:1.16587 5:2.7853999 #
31.243306640000000129475665744394 1:-4 2:1.71984 3:1.0014499 4:0.54505402 5:2.2656901 #
-31.622779999999998779003362869844 1:3 2:2.0961299 3:1.0599101 4:0.176351 5:2.28304 #
-31.622779999999998779003362869844 1:4 2:1.1425 3:0.71457398 4:0.032684501 5:1.16585 #
-31.622779999999998779003362869844 1:4 2:1.65588 3:0.95220202 4:-0.27968299 5:1.38956 #
31.243306640000000129475665744394 1:-4 2:1.85197 3:1.0232199 4:0.092247002 5:1.94636 #
-31.622779999999998779003362869844 1:4 2:1.6301 3:1.01855 4:-0.141882 5:1.48558 #
-31.622779999999998779003362869844 1:3 2:1.37606 3:0.82155502 4:1.03263 5:2.2244201 #
-31.622779999999998779003362869844 1:-1 2:1.53941 3:1.01803 4:1.7018 5:3.2718899 #
31.243306640000000129475665744394 1:-5 2:1.5308 3:0.92444199 4:2.0898399 5:3.4627399 #
-31.622779999999998779003362869844 1:4 2:1.86269 3:0.93743998 4:0.33627099 5:2.1779201 #
-31.622779999999998779003362869844 1:0 2:0.92314202 3:0.84556299 4:1.34193 5:2.0578301 #
-31.622779999999998779003362869844 1:-4 2:0.66816097 3:0.66904002 4:0.918459 5:1.28265 #
31.243306640000000129475665744394 1:-3 2:1.50502 3:1.07024 4:1.25313 5:2.8461699 #
-31.622779999999998779003362869844 1:-2 2:1.31198 3:1.07857 4:-0.162917 5:1.13627 #
-31.622779999999998779003362869844 1:4 2:1.38042 3:0.96574199 4:-0.48041201 5:0.91646999 #
-31.622779999999998779003362869844 1:-2 2:1.40762 3:0.98439503 4:-0.0045805499 5:1.40311 #
-31.622779999999998779003362869844 1:-5 2:0.49548399 3:0.66960001 4:0.66133797 5:0.93831497 #
31.243306640000000129475665744394 1:-3 2:1.5707 3:1.02282 4:0.195806 5:1.77098 #
-31.622779999999998779003362869844 1:-3 2:1.0771199 3:0.83791 4:0.025937799 5:1.09885 #
31.243306640000000129475665744394 1:-1 2:1.6992199 3:0.97945899 4:-1.3163 5:0.409958 #
31.243306640000000129475665744394 1:7 2:1.93659 3:1.13727 4:-0.84771001 5:0.97252101 #
31.243306640000000129475665744394 1:-4 2:1.31406 3:1.00932 4:1.25965 5:2.5854499 #
-31.622779999999998779003362869844 1:-1 2:1.37521 3:0.863047 4:1.62025 5:2.77356 #
-31.622779999999998779003362869844 1:4 2:0.54617703 3:0.56291199 4:-0.47961599 5:0.27619499 #
31.243306640000000129475665744394 1:0 2:1.62559 3:0.89408702 4:-0.62211603 5:1.06936 #
31.243306640000000129475665744394 1:-4 2:1.0221601 3:1.0447 4:0.104334 5:1.13116 #
31.243306640000000129475665744394 1:-3 2:1.7013 3:1.06661 4:-1.59504 5:0 #
31.243306640000000129475665744394 1:-4 2:1.1872 3:1.0207601 4:-1.09147 5:0.0730661 #
31.243306640000000129475665744394 1:-3 2:1.50502 3:1.07024 4:0.81556898 5:2.3778701 #
31.243306640000000129475665744394 1:-4 2:0.88857102 3:0.99428099 4:-0.893682 5:0 #
-31.622779999999998779003362869844 1:6 2:1.3453799 3:0.61588001 4:0.173149 5:1.45202 #
31.243306640000000129475665744394 1:-3 2:1.85197 3:1.0232199 4:-0.63754898 5:1.19962 #
31.243306640000000129475665744394 1:-2 2:1.6693799 3:0.99993598 4:-0.77330101 5:0.89612597 #
31.243306640000000129475665744394 1:-3 2:1.52431 3:0.85831499 4:0.08788 5:1.59974 #
31.243306640000000129475665744394 1:3 2:1.5707 3:1.02282 4:-0.0928647 5:1.47572 #
-31.622779999999998779003362869844 1:0 2:1.10786 3:0.77635998 4:-0.542817 5:0.68643802 #
31.243306640000000129475665744394 1:-3 2:1.50502 3:1.07024 4:0.80883503 5:2.3706701 #
-31.622779999999998779003362869844 1:7 2:1.87287 3:0.98068303 4:0.68944699 5:2.549 #
-31.622779999999998779003362869844 1:-4 2:1.64044 3:1.03105 4:0.469717 5:2.1247399 #
-31.622779999999998779003362869844 1:-5 2:1.64044 3:1.03105 4:0.75830197 5:2.4222801 #
31.243306640000000129475665744394 1:-2 2:1.83175 3:1.0678101 4:-1.47378 5:0.258026 #
31.243306640000000129475665744394 1:0 2:1.5333 3:0.91683197 4:0.63173801 5:2.1125 #
-31.622779999999998779003362869844 1:2 2:1.31198 3:1.07857 4:2.33021 5:3.82529 #
31.243306640000000129475665744394 1:1 2:1.40037 3:0.88725102 4:0.66269499 5:1.98835 #
31.243306640000000129475665744394 1:-4 2:1.81774 3:1.07244 4:0.215073 5:2.0483899 #
31.243306640000000129475665744394 1:1 2:1.27632 3:0.94234902 4:-0.24976701 5:1.0409499 #
31.243306640000000129475665744394 1:-4 2:0.89791298 3:0.89988297 4:-0.99781102 5:0 #
31.243306640000000129475665744394 1:-4 2:1.13097 3:0.93119699 4:-1.11638 5:0.091401599 #
-31.622779999999998779003362869844 1:-3 2:1.43906 3:0.81187999 4:0.031642899 5:1.4647501 #
31.243306640000000129475665744394 1:-3 2:1.41299 3:1.0217201 4:0.85210699 5:2.2836001 #
31.243306640000000129475665744394 1:3 2:1.65644 3:1.04018 4:0.062057 5:1.7209899 #
-31.622779999999998779003362869844 1:4 2:1.51996 3:0.99791902 4:1.65323 5:3.16974 #
-14.551002202225145509828507783823 1:-5 2:1.07049 3:0.945768 4:0.372715 5:1.42299 #
31.243306640000000129475665744394 1:-1 2:1.8939101 3:1.0786 4:1.22351 5:3.2135799 #
31.243306640000000129475665744394 1:0 2:1.4692 3:1.01362 4:0.96213102 5:2.4444301 #
31.243306640000000129475665744394 1:-4 2:1.67634 3:0.83350801 4:1.22685 5:2.69893 #
31.243306640000000129475665744394 1:-1 2:1.42594 3:0.92806602 4:0.49525401 5:1.88557 #
31.243306640000000129475665744394 1:3 2:1.66811 3:0.66494602 4:-1.59658 5:0.60647202 #
-31.622779999999998779003362869844 1:1 2:1.82911 3:1.06621 4:-0.526703 5:1.26753 #
31.243306640000000129475665744394 1:0 2:0.71114099 3:0.79041398 4:0.437805 5:1.0571899 #
31.243306640000000129475665744394 1:4 2:1.85197 3:1.0232199 4:-0.0141094 5:1.83753 #
-31.622779999999998779003362869844 1:-1 2:1.86269 3:0.93743998 4:0.33627099 5:2.1779201 #
-31.622779999999998779003362869844 1:4 2:1.16763 3:0.67473203 4:0.85867703 5:1.74701 #
-31.622779999999998779003362869844 1:-1 2:1.4828 3:1.01806 4:1.34473 5:2.85183 #
31.243306640000000129475665744394 1:6 2:1.81823 3:1.00877 4:-0.68253797 5:1.12971 #
-31.622779999999998779003362869844 1:1 2:0.66816097 3:0.66904002 4:-0.864609 5:0.089703403 #
31.243306640000000129475665744394 1:-1 2:1.50955 3:1.02886 4:0.49239901 5:2.01616 #
-31.622779999999998779003362869844 1:4 2:1.62559 3:0.89408702 4:1.02141 5:2.53882 #
31.243306640000000129475665744394 1:1 2:1.58205 3:1.07582 4:0.32550699 5:1.93223 #
31.243306640000000129475665744394 1:-2 2:1.5707 3:1.02282 4:-0.141661 5:1.42581 #
-31.622779999999998779003362869844 1:4 2:1.95611 3:0.92748702 4:0.87309003 5:2.7658899 #
-31.622779999999998779003362869844 1:4 2:1.37606 3:0.82155502 4:0.859631 5:2.0822999 #
-31.622779999999998779003362869844 1:-1 2:0.64837199 3:0.797921 4:-0.812576 5:0 #
-31.622779999999998779003362869844 1:-4 2:1.93928 3:1.05089 4:0.89385998 5:2.8786299 #
31.243306640000000129475665744394 1:-3 2:1.6992199 3:0.97945899 4:-0.914482 5:0.803518 #
-31.622779999999998779003362869844 1:4 2:2.1907001 3:1.06112 4:0.90693003 5:3.15306 #
-31.622779999999998779003362869844 1:-2 2:1.62559 3:0.89408702 4:0.0170669 5:1.6408499 #
-31.622779999999998779003362869844 1:4 2:1.34791 3:0.78980201 4:-1.41728 5:0.22853801 #
-31.622779999999998779003362869844 1:3 2:1.40908 3:0.94591802 4:-0.242374 5:1.17981 #
31.243306640000000129475665744394 1:0 2:1.53941 3:1.01803 4:0.488866 5:2.0370901 #
-31.622779999999998779003362869844 1:-2 2:1.36106 3:1.14565 4:0.0103323 5:1.37289 #
31.243306640000000129475665744394 1:-1 2:1.6992199 3:0.97945899 4:-1.21825 5:0.50598699 #
31.243306640000000129475665744394 1:-1 2:1.40762 3:0.98439503 4:-0.145656 5:1.26424 #
31.243306640000000129475665744394 1:-4 2:1.018 3:0.94628501 4:-1.07579 5:0 #
31.243306640000000129475665744394 1:-3 2:0.705612 3:0.68502802 4:1.27198 5:1.57695 #
31.243306640000000129475665744394 1:-4 2:1.74025 3:0.99539399 4:-0.272266 5:1.46924 #
31.243306640000000129475665744394 1:-4 2:1.41299 3:1.0217201 4:-1.2450401 5:0.140899 #
-31.622779999999998779003362869844 1:4 2:1.83175 3:1.0678101 4:-0.034081001 5:1.79536 #
31.243306640000000129475665744394 1:-1 2:1.44383 3:0.89060497 4:1.2836699 5:2.58708 #
31.243306640000000129475665744394 1:-3 2:1.60412 3:1.03654 4:-1.4664299 5:0.084117599 #
-31.622779999999998779003362869844 1:-4 2:1.00599 3:0.92217702 4:0.64254498 5:1.5985301 #
31.243306640000000129475665744394 1:-3 2:1.41299 3:1.0217201 4:0.281782 5:1.7008899 #
31.243306640000000129475665744394 1:0 2:1.24721 3:0.86781299 4:0.243992 5:1.45895 #
-31.622779999999998779003362869844 1:-2 2:1.17247 3:1.03269 4:-0.033951901 5:1.13741 #
-31.622779999999998779003362869844 1:-3 2:0.87976301 3:0.89962202 4:2.09482 5:2.7643099 #
31.243306640000000129475665744394 1:3 2:1.5357 3:0.98206699 4:0.020634299 5:1.55597 #
31.243306640000000129475665744394 1:-3 2:1.35938 3:1.0142601 4:0.671911 5:2.04087 #
-31.622779999999998779003362869844 1:2 2:0.76588601 3:0.639332 4:-1.19795 5:0 #
-31.622779999999998779003362869844 1:-4 2:1.06841 3:0.92620498 4:0.68224001 5:1.7003 #
31.243306640000000129475665744394 1:1 2:1.7455 3:1.09008 4:0.843669 5:2.66517 #
31.243306640000000129475665744394 1:-3 2:1.79808 3:1.01794 4:-0.552387 5:1.23578 #
31.243306640000000129475665744394 1:-4 2:1.5707 3:1.02282 4:0.720667 5:2.3078201 #
31.243306640000000129475665744394 1:-4 2:1.1872 3:1.0207601 4:1.00247 5:2.21049 #
31.243306640000000129475665744394 1:5 2:1.71984 3:1.0014499 4:-0.68978 5:1.02906 #
31.243306640000000129475665744394 1:1 2:1.52431 3:0.85831499 4:0.55803901 5:2.0032799 #
31.243306640000000129475665744394 1:-2 2:1.53941 3:1.01803 4:-1.46051 5:0.052563701 #
31.243306640000000129475665744394 1:2 2:1.59615 3:1.05901 4:0.178054 5:1.78471 #
-31.622779999999998779003362869844 1:-2 2:1.6301 3:1.01855 4:-0.100842 5:1.52738 #
-31.622779999999998779003362869844 1:-1 2:1.31198 3:1.07857 4:2.07604 5:3.5511501 #
-31.622779999999998779003362869844 1:-5 2:0.66816097 3:0.66904002 4:1.27197 5:1.51916 #
-31.622779999999998779003362869844 1:5 2:1.17895 3:0.66655999 4:0.26466599 5:1.35537 #
31.243306640000000129475665744394 1:-4 2:1.00783 3:1.01314 4:-0.99475902 5:0 #
-31.622779999999998779003362869844 1:-4 2:1.6319799 3:1.06371 4:0.903265 5:2.5927899 #
-31.622779999999998779003362869844 1:-4 2:2.0961299 3:1.0599101 4:0.84621602 5:2.9930401 #
31.243306640000000129475665744394 1:-3 2:1.2515301 3:1.0689 4:-0.292539 5:0.93883502 #
31.243306640000000129475665744394 1:0 2:1.66388 3:1.13077 4:1.01975 5:2.8169899 #
-31.622779999999998779003362869844 1:4 2:1.17895 3:0.66655999 4:0.46861899 5:1.49132 #
31.243306640000000129475665744394 1:3 2:1.37097 3:0.82733399 4:-0.91973698 5:0.61003798 #
31.243306640000000129475665744394 1:-2 2:2.01841 3:0.96889901 4:-0.60855597 5:1.42878 #
31.243306640000000129475665744394 1:3 2:2.11269 3:0.88916999 4:-0.041058902 5:2.07619 #
-31.622779999999998779003362869844 1:-5 2:1.36106 3:1.14565 4:1.38411 5:2.9467499 #
-31.622779999999998779003362869844 1:-2 2:1.55574 3:1.05451 4:0.074645698 5:1.63446 #
31.243306640000000129475665744394 1:-1 2:2.33689 3:1.27858 4:0.907341 5:3.49699 #
-31.622779999999998779003362869844 1:-5 2:1.17247 3:1.03269 4:0.62481099 5:1.8177 #
31.243306640000000129475665744394 1:-2 2:1.41299 3:1.0217201 4:0.26685101 5:1.68563 #
31.243306640000000129475665744394 1:-2 2:1.7455 3:1.09008 4:-0.292842 5:1.42628 #
31.243306640000000129475665744394 1:-2 2:1.586 3:1.0008 4:-0.71174401 5:0.87368 #
31.243306640000000129475665744394 1:-3 2:1.93928 3:1.05089 4:-0.326125 5:1.59655 #
-31.622779999999998779003362869844 1:-1 2:2.1401401 3:1.02097 4:-0.0477832 5:2.0913601 #
-31.622779999999998779003362869844 1:4 2:2.0511 3:0.95946002 4:0.213073 5:2.2555399 #
-31.622779999999998779003362869844 1:3 2:1.55574 3:1.05451 4:1.7398 5:3.3903699 #
-31.622779999999998779003362869844 1:4 2:1.31198 3:1.07857 4:-0.63231701 5:0.62998402 #
31.243306640000000129475665744394 1:0 2:1.40037 3:0.88725102 4:0.86495101 5:2.1677999 #
-31.622779999999998779003362869844 1:1 2:1.66827 3:0.83350301 4:-0.831559 5:0.97516799 #
-31.622779999999998779003362869844 1:-3 2:1.07049 3:0.945768 4:0.064828001 5:1.1318001 #
31.243306640000000129475665744394 1:-2 2:1.6693799 3:0.99993598 4:-0.31330401 5:1.3560899 #
-31.622779999999998779003362869844 1:3 2:2.1401401 3:1.02097 4:-0.10983 5:2.0280099 #
-31.622779999999998779003362869844 1:-2 2:1.3453799 3:0.61588001 4:-0.020508001 5:1.33275 #
31.243306640000000129475665744394 1:-4 2:1.53941 3:1.01803 4:-1.3197 5:0.19590899 #
31.243306640000000129475665744394 1:-3 2:1.97919 3:0.97186702 4:-0.64785302 5:1.34956 #
31.243306640000000129475665744394 1:-3 2:1.17172 3:1.0597 4:0.53892398 5:1.74282 #
-31.622779999999998779003362869844 1:5 2:1.48352 3:0.75548202 4:-0.27919701 5:1.27259 #
31.243306640000000129475665744394 1:-3 2:1.83175 3:1.0678101 4:-0.109668 5:1.71464 #
31.243306640000000129475665744394 1:-3 2:1.9900399 3:0.94465202 4:-0.992818 5:1.05217 #
31.243306640000000129475665744394 1:-1 2:0.89731598 3:0.755844 4:-0.29869801 5:0.671547 #
-31.622779999999998779003362869844 1:3 2:1.31198 3:1.07857 4:-0.33585799 5:0.94973701 #
-31.622779999999998779003362869844 1:4 2:1.90318 3:0.91791803 4:0.75962198 5:2.60045 #
-31.622779999999998779003362869844 1:4 2:1.61112 3:0.83684599 4:-0.44590101 5:1.23797 #
31.243306640000000129475665744394 1:0 2:0.92704302 3:0.81232703 4:0.67221898 5:1.4730999 #
-31.622779999999998779003362869844 1:0 2:0.31596899 3:0.562859 4:-0.56136501 5:0 #
-31.622779999999998779003362869844 1:-1 2:1.4972 3:1.0197001 4:1.84447 5:3.37802 #
31.243306640000000129475665744394 1:-4 2:1.55281 3:1.02739 4:0.00176121 5:1.55462 #
31.243306640000000129475665744394 1:-2 2:1.60412 3:1.03654 4:-1.25071 5:0.30771601 #
-31.622779999999998779003362869844 1:-5 2:0.67449403 3:0.74282098 4:0.162282 5:0.79504001 #
-31.622779999999998779003362869844 1:-4 2:0.67449403 3:0.74282098 4:0.579274 5:1.10479 #
-31.622779999999998779003362869844 1:3 2:1.52952 3:0.88024801 4:0.33219099 5:1.8219301 #
-31.622779999999998779003362869844 1:1 2:0.705612 3:0.68502802 4:0.52793598 5:1.06726 #
-31.622779999999998779003362869844 1:7 2:1.78161 3:0.98536497 4:-1.64068 5:0.164941 #
31.243306640000000129475665744394 1:1 2:1.6992199 3:0.97945899 4:-1.2417001 5:0.483026 #
-31.622779999999998779003362869844 1:-4 2:1.0771199 3:0.83791 4:0.82340699 5:1.76706 #
31.243306640000000129475665744394 1:1 2:1.24721 3:0.86781299 4:0.44361401 5:1.63219 #
31.243306640000000129475665744394 1:-1 2:1.93928 3:1.05089 4:1.2598 5:3.26319 #
-31.622779999999998779003362869844 1:4 2:1.91395 3:1.01327 4:0.419256 5:2.3387699 #
-31.622779999999998779003362869844 1:4 2:1.62559 3:0.89408702 4:1.1123199 5:2.6201 #
-31.622779999999998779003362869844 1:-4 2:0.67449403 3:0.74282098 4:0.91532302 5:1.3544101 #
-31.622779999999998779003362869844 1:2 2:2.03949 3:0.92934197 4:-0.34086999 5:1.7227 #
-31.622779999999998779003362869844 1:2 2:1.93402 3:0.85155499 4:0.16502 5:2.0745499 #
31.243306640000000129475665744394 1:6 2:2.0138199 3:0.93314201 4:-0.52722901 5:1.52184 #
31.243306640000000129475665744394 1:-3 2:0.87976301 3:0.89962202 4:-0.977925 5:0 #
-31.622779999999998779003362869844 1:3 2:1.75692 3:0.99256098 4:-0.0851328 5:1.67242 #
31.243306640000000129475665744394 1:-5 2:0.669182 3:0.70376003 4:-0.950867 5:0 #
-31.622779999999998779003362869844 1:-4 2:1.1312 3:1.01452 4:2.1732299 5:3.33599 #
-31.622779999999998779003362869844 1:4 2:1.9371099 3:0.93833101 4:0.87810701 5:2.76106 #
31.243306640000000129475665744394 1:7 2:1.7455 3:1.09008 4:-1.02036 5:0.63323098 #
31.243306640000000129475665744394 1:-4 2:1.24823 3:0.82749498 4:0.288147 5:1.48667 #
31.243306640000000129475665744394 1:1 2:1.5708899 3:1.0763299 4:-1.24685 5:0.228866 #
-31.622779999999998779003362869844 1:4 2:1.3637 3:0.95581102 4:-0.69749099 5:0.69702899 #
31.243306640000000129475665744394 1:-3 2:1.41299 3:1.0217201 4:0.461357 5:1.88437 #
-31.622779999999998779003362869844 1:-5 2:1.5533299 3:0.897322 4:1.65395 5:3.0374601 #
31.243306640000000129475665744394 1:-3 2:0.88857102 3:0.99428099 4:-0.73553801 5:0.157239 #
-31.622779999999998779003362869844 1:-4 2:1.5907 3:0.98839402 4:1.0571001 5:2.63553 #
-31.622779999999998779003362869844 1:-1 2:1.77064 3:0.98288703 4:-0.314401 5:1.46162 #
31.243306640000000129475665744394 1:-4 2:1.018 3:0.94628501 4:1.0625499 5:2.0234699 #
31.243306640000000129475665744394 1:1 2:1.30268 3:0.95054603 4:-0.88081002 5:0.46543199 #
31.243306640000000129475665744394 1:-2 2:1.60412 3:1.03654 4:-0.25356799 5:1.34129 #
31.243306640000000129475665744394 1:-3 2:1.7455 3:1.09008 4:0.268987 5:2.0387199 #
31.243306640000000129475665744394 1:1 2:1.586 3:1.0008 4:0.424712 5:2.01105 #
31.243306640000000129475665744394 1:2 2:2.0490799 3:0.96838701 4:-0.53864098 5:1.52747 #
31.243306640000000129475665744394 1:4 2:1.8939101 3:1.0786 4:0.024662999 5:1.9205101 #
31.243306640000000129475665744394 1:2 2:1.4928499 3:0.96682799 4:0.42013001 5:1.89905 #
31.243306640000000129475665744394 1:0 2:1.66811 3:0.66494602 4:0.37702799 5:1.91882 #
-31.622779999999998779003362869844 1:2 2:1.1813101 3:0.83211398 4:0.086367898 5:1.25317 #
-31.622779999999998779003362869844 1:3 2:1.6406 3:1.0275 4:-0.200754 5:1.43433 #
-31.622779999999998779003362869844 1:2 2:1.37632 3:1.05853 4:0.59685397 5:2.00811 #
31.243306640000000129475665744394 1:-3 2:0.76588601 3:0.639332 4:-0.63888198 5:0.357429 #
31.243306640000000129475665744394 1:2 2:2.0138199 3:0.93314201 4:-0.194985 5:1.83187 #
31.243306640000000129475665744394 1:-1 2:1.59615 3:1.05901 4:-1.09622 5:0.435247 #
31.243306640000000129475665744394 1:4 2:2.03949 3:0.92934197 4:-0.0160721 5:2.02455 #
-31.622779999999998779003362869844 1:0 2:2.0490799 3:0.96838701 4:-0.48898301 5:1.57556 #
31.243306640000000129475665744394 1:-3 2:1.66811 3:0.66494602 4:0.030288599 5:1.6882499 #
31.243306640000000129475665744394 1:6 2:1.93402 3:0.85155499 4:-0.63172698 5:1.39607 #
31.243306640000000129475665744394 1:0 2:0.69558102 3:0.83665502 4:0.36616299 5:1.00193 #
-31.622779999999998779003362869844 1:2 2:1.5533299 3:0.897322 4:0.39662099 5:1.90923 #
31.243306640000000129475665744394 1:-2 2:1.51863 3:0.86678499 4:-0.78539801 5:0.83785498 #
-31.622779999999998779003362869844 1:4 2:1.88896 3:1.11919 4:-0.14072999 5:1.73146 #
31.243306640000000129475665744394 1:-1 2:0.92704302 3:0.81232703 4:0.88583797 5:1.64663 #
-31.622779999999998779003362869844 1:3 2:1.39446 3:1.01316 4:-0.045043599 5:1.34882 #
-31.622779999999998779003362869844 1:3 2:1.36106 3:1.14565 4:-0.227165 5:1.1008101 #
-31.622779999999998779003362869844 1:3 2:1.62559 3:0.89408702 4:0.14318401 5:1.75361 #
-31.622779999999998779003362869844 1:0 2:0.68444699 3:0.68191302 4:1.99185 5:2.0427201 #
-31.622779999999998779003362869844 1:4 2:2.22279 3:1.13985 4:-0.00288694 5:2.2195001 #
-31.622779999999998779003362869844 1:2 2:1.51372 3:1.06387 4:-1.06014 5:0.38587099 #
31.243306640000000129475665744394 1:-4 2:1.24721 3:0.86781299 4:0.90399599 5:2.0317099 #
31.243306640000000129475665744394 1:-4 2:0.669182 3:0.70376003 4:-0.777098 5:0.122292 #
-31.622779999999998779003362869844 1:0 2:1.50955 3:1.02886 4:-0.37858701 5:1.1200401 #
-31.622779999999998779003362869844 1:2 2:0.856453 3:0.78003597 4:1.0786901 5:1.69787 #
31.243306640000000129475665744394 1:-4 2:0.88857102 3:0.99428099 4:0.28937 5:1.17629 #
31.243306640000000129475665744394 1:-3 2:1.93928 3:1.05089 4:-0.906654 5:0.98648 #
-31.622779999999998779003362869844 1:3 2:2.1324699 3:1.07476 4:0.16270199 5:2.3073399 #
31.243306640000000129475665744394 1:0 2:1.586 3:1.0008 4:0.65879798 5:2.2453201 #
31.243306640000000129475665744394 1:4 2:1.93402 3:0.85155499 4:-0.848059 5:1.21185 #
31.243306640000000129475665744394 1:1 2:1.27632 3:0.94234902 4:0.592758 5:1.83491 #
-31.622779999999998779003362869844 1:3 2:2.1401401 3:1.02097 4:-0.16253801 5:1.97419 #
-31.622779999999998779003362869844 1:3 2:1.94287 3:0.970833 4:0.142105 5:2.0808301 #
31.243306640000000129475665744394 1:1 2:1.8557 3:0.97061199 4:0.55162001 5:2.3911099 #
-31.622779999999998779003362869844 1:-1 2:1.5907 3:0.98839402 4:0.184347 5:1.77291 #
-31.622779999999998779003362869844 1:3 2:1.82911 3:1.06621 4:-0.28520301 5:1.52502 #
31.243306640000000129475665744394 1:2 2:2.33689 3:1.27858 4:0.456166 5:2.92013 #
31.243306640000000129475665744394 1:-3 2:1.24721 3:0.86781299 4:0.41336 5:1.60593 #
31.243306640000000129475665744394 1:0 2:1.12769 3:0.91838598 4:0.66094601 5:1.7347 #
31.243306640000000129475665744394 1:-2 2:1.26706 3:0.98566502 4:-0.91102201 5:0.369102 #
-31.622779999999998779003362869844 1:-1 2:1.586 3:1.0008 4:1.414 5:3.0011301 #
31.243306640000000129475665744394 1:0 2:1.80546 3:0.98869401 4:0.83745903 5:2.63345 #
-31.622779999999998779003362869844 1:3 2:1.83936 3:1.0124201 4:1.45196 5:3.30935 #
31.243306640000000129475665744394 1:1 2:1.66388 3:1.13077 4:0.40285999 5:2.1194201 #
-31.622779999999998779003362869844 1:-2 2:1.34791 3:0.78980201 4:-0.264157 5:1.13928 #
31.243306640000000129475665744394 1:5 2:2.11269 3:0.88916999 4:-0.092921503 5:2.0300701 #
31.243306640000000129475665744394 1:-2 2:1.26706 3:0.98566502 4:-0.35952801 5:0.912691 #
-31.622779999999998779003362869844 1:0 2:1.1911401 3:0.93611801 4:0.634381 5:1.78499 #
-31.622779999999998779003362869844 1:4 2:2.1907001 3:1.06112 4:0.62004799 5:2.84865 #
-31.622779999999998779003362869844 1:-1 2:0.72108603 3:0.855856 4:0.59632701 5:1.23146 #
-31.622779999999998779003362869844 1:0 2:1.5068001 3:0.88964599 4:-0.45727599 5:1.09999 #
-31.622779999999998779003362869844 1:2 2:0.67449403 3:0.74282098 4:1.44014 5:1.74426 #
31.243306640000000129475665744394 1:-6 2:1.67634 3:0.83350801 4:0.77342498 5:2.3210001 #
31.243306640000000129475665744394 1:0 2:1.5708899 3:1.0763299 4:0.75291699 5:2.3812799 #
31.243306640000000129475665744394 1:-2 2:1.1959 3:0.941046 4:0.00419056 5:1.1998399 #
31.243306640000000129475665744394 1:-1 2:2.33689 3:1.27858 4:0.49557599 5:2.97052 #
-31.622779999999998779003362869844 1:-5 2:1.84576 3:1.19556 4:0.77510101 5:2.77244 #
31.243306640000000129475665744394 1:2 2:1.9900399 3:0.94465202 4:-0.31149399 5:1.6957901 #
-31.622779999999998779003362869844 1:4 2:2.0961299 3:1.0599101 4:0.44475701 5:2.5675299 #
-31.622779999999998779003362869844 1:0 2:0.66816097 3:0.66904002 4:2.1510701 5:2.1073101 #
31.243306640000000129475665744394 1:1 2:1.97919 3:0.97186702 4:0.72929299 5:2.6879599 #
-31.622779999999998779003362869844 1:-2 2:0.702811 3:0.75386399 4:0.52336198 5:1.09736 #
-31.622779999999998779003362869844 1:1 2:0.915501 3:0.77215803 4:0.226834 5:1.09065 #
31.243306640000000129475665744394 1:-3 2:1.57946 3:0.96817899 4:-0.101894 5:1.48081 #
31.243306640000000129475665744394 1:1 2:1.2376 3:1.00484 4:0.524773 5:1.76491 #
-31.622779999999998779003362869844 1:1 2:0.49548399 3:0.66960001 4:0.088551901 5:0.55477798 #
31.243306640000000129475665744394 1:3 2:1.93402 3:0.85155499 4:-0.119438 5:1.83231 #
-31.622779999999998779003362869844 1:-1 2:0.71114099 3:0.79041398 4:-0.89970702 5:0 #
31.243306640000000129475665744394 1:0 2:1.51863 3:0.86678499 4:0.75001502 5:2.16873 #
-31.622779999999998779003362869844 1:2 2:1.5907 3:0.98839402 4:0.091944799 5:1.6815799 #
-31.622779999999998779003362869844 1:2 2:1.50955 3:1.02886 4:1.05941 5:2.59954 #
31.243306640000000129475665744394 1:1 2:1.5602 3:0.837075 4:0.45216301 5:1.9386899 #
31.243306640000000129475665744394 1:-3 2:0.856453 3:0.78003597 4:-0.96700001 5:0.102158 #
31.243306640000000129475665744394 1:-1 2:1.93659 3:1.13727 4:1.3725899 5:3.4975901 #
-31.622779999999998779003362869844 1:2 2:1.10786 3:0.77635998 4:0.179712 5:1.24738 #
31.243306640000000129475665744394 1:-2 2:1.50955 3:1.02886 4:-0.31798699 5:1.18239 #
31.243306640000000129475665744394 1:2 2:1.42486 3:0.92185998 4:0.091459997 5:1.5091701 #
31.243306640000000129475665744394 1:-1 2:1.81774 3:1.07244 4:-1.19082 5:0.54065102 #
-31.622779999999998779003362869844 1:-1 2:1.3441 3:0.69186002 4:1.3073699 5:2.24862 #
-31.622779999999998779003362869844 1:-1 2:0.94466901 3:0.878658 4:0.37225801 5:1.27176 #
-31.622779999999998779003362869844 1:0 2:1.07049 3:0.945768 4:-1.03336 5:0.093171299 #
31.243306640000000129475665744394 1:-3 2:1.1813101 3:0.83211398 4:-0.81878698 5:0.499982 #
-31.622779999999998779003362869844 1:-2 2:1.62559 3:0.89408702 4:0.14012 5:1.75087 #
31.243306640000000129475665744394 1:-1 2:1.93099 3:0.98260301 4:-0.63174802 5:1.31023 #
-31.622779999999998779003362869844 1:-2 2:1.71984 3:1.0014499 4:0.110114 5:1.83012 #
-31.622779999999998779003362869844 1:3 2:1.62559 3:0.89408702 4:0.733652 5:2.2815399 #
31.243306640000000129475665744394 1:-1 2:1.7013 3:1.06661 4:-1.28274 5:0.33310899 #
-31.622779999999998779003362869844 1:4 2:1.93402 3:0.85155499 4:0.56067401 5:2.4114699 #
-31.622779999999998779003362869844 1:1 2:1.3453799 3:0.61588001 4:0.456287 5:1.6264 #
-31.622779999999998779003362869844 1:2 2:1.55462 3:0.88516098 4:0.113306 5:1.65492 #
31.243306640000000129475665744394 1:2 2:1.62366 3:0.86343199 4:-0.35664901 5:1.3157099 #
-31.622779999999998779003362869844 1:2 2:1.5907 3:0.98839402 4:-0.93630397 5:0.66526198 #
